PART -0.097943 0.020907 0.147560 0.190637 -0.054317 0.124446 -0.015283 0.031728 0.039741 -0.064663 -0.110331 -0.066799 -0.062030 -0.037793 0.123149 -0.158856 0.071136 -0.044523 0.086823 0.003322 -0.002900 0.177575 -0.028798 -0.140609 -0.087234 0.147069 -0.090883 0.019979 0.083170 0.161409 -0.052529 -0.068313 0.018113 0.043187 0.013953 -0.052418 -0.050380 -0.192639 0.025982 -0.222761 -0.018277 0.040797 -0.002832 -0.113284 -0.042467 -0.002322 0.099282 0.028391 0.146966 0.109441 0.075489 -0.023823 0.031190 0.112560 0.113949 -0.074741 -0.025012 0.012516 0.032453 0.015283 0.002693 0.210931 0.021800 -0.124113 0.004094 -0.082060 0.128191 -0.110852 0.017809 -0.070167 -0.043367 0.006295 0.089052 0.137106 -0.018534 0.086423 -0.027666 -0.089606 -0.088815 -0.049359 -0.017997 0.106350 0.112205 0.145018 -0.033644 0.210770 -0.024270 -0.001889 0.112309 -0.117284 0.087833 0.082592 -0.098872 0.118096 0.017533 -0.062645 -0.093534 0.057596 -0.058739 0.052790 -0.019396 -0.077565 -0.010126 0.050070 0.057084 0.009873 0.078273 -0.129457 0.076760 0.177607 -0.073536 0.034555 0.065488 -0.018727 0.048641 0.049641 0.059374 0.050488 -0.021784 -0.070761 0.075337 -0.060572 -0.022868 0.106207 -0.094444 0.158457 0.079169 -0.081671 0.014637 0.084123 0.048751 0.010066 -0.077666 0.093108 0.073044 0.027004 -0.129370 0.111929 0.008036 -0.023986 0.065922 -0.001598 -0.012187 0.155626 0.023890 0.004217 -0.048831 0.013226 -0.097830 0.036361 -0.116155 -0.100028 -0.029344 0.061558 0.181443 -0.092911 0.018750 0.059598 -0.003026 0.037073 0.130706 0.062926 -0.013274 0.008752 -0.129264 0.106909 0.149866 -0.149255 0.021504 -0.075284 -0.159470 -0.123979 -0.072069 0.177891 0.165970 -0.024982 -0.052548 -0.136000 0.010246 -0.075230 0.019750 0.089487 -0.003779 -0.147595 -0.081520 0.125490 -0.007402 -0.024371 -0.002417 0.075800 0.053143 0.074580 0.044980 0.003803 0.046505 0.112160 0.024501 0.175680 -0.130709 -0.056133 -0.116879 -0.045343 0.055376 0.071339 -0.104483 0.003044 -0.023093 -0.075662 0.125839 -0.066922 -0.082386 0.060822 0.084263 0.056950 -0.020051 -0.078348 -0.011308 -0.189836 -0.067494 0.049217 0.104717 0.050639 -0.001051 -0.038222 -0.083592 -0.060737 0.075680 -0.081253 0.076853 0.134872 0.053744 -0.033770 -0.157843 0.049712 0.094395 -0.081686 0.065130 -0.151088 0.096308 -0.113862 -0.169300 -0.004307 0.040540 -0.014617 0.038254 -0.056208 -0.059292 0.101452 -0.146590 0.003743 0.066886 -0.230426 0.167498 -0.062961 -0.028659 0.050667 0.001505 0.019111 0.132773 0.013595 0.042795 -0.006575 0.038395 -0.093268 0.050610 -0.125923 0.065689 -0.167115 -0.033215 -0.039595 -0.064976 -0.015745 0.263147 0.003570 -0.059844 0.100317 0.082331 -0.051829 -0.049257 -0.061718 0.136366 0.179942 -0.081418 -0.025734 -0.016823 0.008136 0.084430 -0.108680 -0.031249 0.082811 0.041900 -0.046562 0.010310 -0.205633 -0.106187 -0.059847 -0.083124 -0.000437 0.011264 0.108432 0.079981 -0.025006 0.002463 0.080377 0.007125 0.013754 -0.058350 0.033920 0.106309 -0.091959 -0.116500 0.035739 0.031532 0.032422 0.115704 0.043343 0.159078 -0.038833 0.065896 -0.038086 -0.035017 -0.049488 0.033090 -0.100220 -0.030054 0.026439 0.054676 0.071795 0.020166 -0.100333 -0.165352 0.038958 0.003745 -0.021105 0.036494 -0.007521 0.140898 0.018018 -0.069013 0.030826 -0.130635 0.040761 0.002033 -0.098941 -0.075935 -0.088857 0.139154 -0.176850 0.076541 -0.007689 -0.065177 -0.090837 0.104027 -0.023272 -0.036150 -0.106199 -0.102913 -0.034765 -0.008723 0.093637 0.097076 0.030834 -0.044020 0.041349 -0.060802 -0.169933 0.039541 -0.144651 0.109568 0.098530 -0.101070 0.170784 -0.013534 0.029565 -0.035865 0.097693 0.059830 0.028058 0.015907 0.024903 0.011345 0.074986 0.023587 0.075438 0.062044 -0.049635 0.059862 0.023427 0.042591 0.184410 0.077737 0.179535 -0.142431 0.134224 0.008887 0.070662 -0.090560 0.096744 -0.085851 -0.101432 0.104800 -0.004858 -0.037683 -0.126615 0.148860 0.142801 -0.037900 0.069101 0.118474 0.030035 -0.136628 0.082335 -0.128540 0.000229 -0.005168 -0.076059 -0.126276 -0.023640 0.031182 -0.006018 -0.073915 0.018136 0.133189 0.077182 0.004267 0.138557 -0.005211 -0.128744 0.142856 0.173733 0.116321 0.117118 -0.033622 0.083306 -0.064556 -0.093057 -0.078040 0.016049 0.115929 0.026057 -0.006022 0.061670 0.075811 0.108650 0.145399 -0.081500 -0.012018 -0.125850 0.143521 -0.039982 0.090382 0.132824 0.017663 -0.033459 0.034714 -0.023022 0.008165 -0.103041 -0.070962 -0.044451 0.154260 0.067486 -0.018958 -0.025679 0.052600 0.008729 -0.140900 -0.029008 0.180263 0.050684 0.033093 0.086267 0.080850 -0.032018 -0.042262 0.065598 0.078899 0.083846 -0.115111 0.093514 -0.024161 -0.040805 0.131424 -0.055538 0.160582 -0.019286 -0.043966 0.121845 -0.090570 -0.027932 0.040280 -0.120158 -0.163363 0.041826 0.010655 -0.008034 0.057354 0.122157 -0.078831 0.027203 0.075381 0.069937 -0.121477 -0.077735 -0.135624 -0.000706 -0.029620 0.035082 0.008892 0.146092 -0.011074 -0.129498
NOUN 0.008116 -0.017516 0.022913 0.071871 -0.030269 0.007563 -0.007161 -0.013520 -0.052532 -0.039379 -0.022374 -0.052022 -0.014923 -0.030128 0.023193 -0.030363 -0.034736 -0.000582 -0.022402 0.006595 0.004168 0.014017 0.012293 0.019157 -0.026756 -0.007730 0.001353 0.007788 0.004048 0.013068 -0.030102 -0.017334 0.027149 0.013013 -0.018971 0.007290 -0.006195 -0.040796 0.012903 -0.060100 -0.025664 0.022678 0.010241 -0.044173 -0.010176 0.005245 0.045224 0.028582 0.069915 0.003143 -0.004931 -0.007438 0.045043 0.045769 0.011064 -0.042679 0.003743 0.023548 -0.037102 0.009295 -0.029241 0.020851 0.022833 -0.019431 -0.018296 0.022625 -0.018746 0.019305 0.017720 -0.011157 -0.007305 -0.028807 0.005761 -0.014804 -0.011202 -0.019388 0.026729 -0.004347 0.012265 -0.015068 0.005191 0.017939 0.028787 -0.004315 0.001376 0.018906 0.040962 0.060563 -0.000334 -0.051279 0.050162 0.035200 -0.021106 0.042922 -0.012751 -0.034893 -0.035339 0.021556 0.018032 0.004298 -0.067091 0.024016 -0.082213 0.039134 0.013162 0.029226 0.009917 0.006315 -0.019311 0.065277 -0.001816 0.022202 -0.013659 0.040510 0.009686 0.043090 -0.021825 0.032646 0.021490 0.044702 0.024080 0.038650 -0.026715 0.038502 -0.028760 0.037548 0.015978 -0.046872 0.033331 0.030453 -0.031019 0.010235 -0.047928 0.014051 -0.014715 0.016038 -0.041996 0.020634 -0.034829 -0.041955 0.063208 -0.030556 -0.076480 -0.016547 0.078404 0.004990 -0.023991 0.045719 -0.060985 0.057721 0.012952 -0.092691 0.027309 -0.048084 0.081391 -0.011627 -0.036392 0.018496 0.052866 0.041321 0.018672 0.017777 0.009397 -0.003266 -0.002490 -0.004590 0.014177 -0.067387 0.006619 0.011057 -0.007447 -0.013531 -0.014050 0.074130 0.012548 -0.000583 0.017989 -0.029839 0.005582 -0.035378 0.077145 0.004382 0.020102 -0.048300 -0.031405 0.071009 0.014361 -0.004389 -0.008823 0.039717 0.050649 0.028416 -0.007127 -0.026337 0.049520 0.036713 0.006864 0.035448 -0.040455 -0.021710 -0.032012 0.015894 -0.004540 0.020168 -0.026440 0.003112 0.014875 0.030820 0.026249 -0.034305 0.027352 -0.016976 -0.004466 0.013418 0.020538 -0.022345 -0.006204 -0.012561 -0.052454 0.006046 -0.014239 -0.016640 -0.015925 -0.032040 -0.031376 0.008720 0.022557 -0.020645 0.048265 0.088086 -0.012958 -0.050531 -0.023553 -0.015287 -0.008676 0.022416 0.033983 -0.025442 -0.002908 -0.028458 -0.010566 -0.011736 0.001862 -0.014360 0.030719 -0.014938 -0.000906 -0.025259 -0.080496 -0.052244 0.013724 -0.052423 -0.038347 -0.003409 0.000666 0.070001 -0.022584 0.003519 -0.038261 -0.002698 -0.020317 0.011110 0.014208 -0.015778 -0.038380 -0.011443 0.059182 0.007808 0.001082 -0.000563 -0.011310 0.035702 0.088580 0.022452 -0.008658 0.077840 0.118381 -0.120673 0.112281 0.025619 -0.015051 0.044496 -0.045325 0.041322 -0.064047 0.052263 -0.024016 -0.028289 -0.023950 0.078493 0.000947 -0.048026 0.057009 0.001959 -0.017334 -0.030757 -0.027811 0.003319 -0.017698 -0.013585 0.031732 0.049358 -0.027825 0.004113 -0.022683 -0.087911 -0.064460 0.002705 0.006763 0.008951 -0.021742 0.051193 0.031956 -0.027975 0.032589 -0.066126 0.035282 0.000716 0.040345 0.013079 -0.076836 -0.057496 -0.058872 -0.139446 0.005668 -0.008942 0.008708 0.001861 0.032500 0.022742 -0.045299 -0.023426 -0.041707 -0.031248 -0.025943 -0.087337 -0.001852 0.006988 -0.036550 0.005926 -0.021034 -0.039351 -0.015870 -0.053228 -0.014403 0.021296 0.048612 -0.098900 0.026825 0.014136 -0.048392 0.005621 -0.005776 -0.006612 -0.031419 -0.042249 -0.004181 -0.012827 0.037656 0.051673 -0.010764 0.004401 0.014319 -0.035364 0.001469 -0.007423 -0.019998 -0.006613 -0.015687 0.019859 0.023659 0.022012 -0.013142 0.005144 0.050716 -0.019953 -0.031212 -0.019588 -0.018342 0.022473 0.006506 -0.001443 -0.054951 0.011945 -0.002665 0.000129 -0.057493 0.009509 -0.043302 0.031845 -0.052663 0.040500 -0.000483 -0.029554 0.024510 -0.003518 -0.025647 -0.000674 -0.013732 -0.015309 -0.005451 -0.011031 0.015898 -0.031990 0.010163 0.049359 0.005066 -0.021285 0.011286 0.005966 0.002125 -0.015566 0.010710 -0.020838 -0.007274 -0.008889 -0.023746 -0.004170 0.014702 0.067066 0.007941 0.016609 0.037044 0.070466 -0.000289 0.059100 -0.012421 0.030023 0.071490 0.023514 0.037434 0.035501 0.044278 0.043042 -0.031510 0.027914 -0.087269 -0.023323 0.043849 0.020664 0.019953 -0.050389 0.054702 0.014878 0.024432 -0.037520 -0.006188 -0.028319 0.011670 -0.007896 -0.022657 0.020958 0.016314 -0.000918 -0.011564 0.010684 -0.005513 -0.016753 -0.037022 -0.024312 0.037471 0.000583 0.012957 -0.011585 0.072316 -0.048697 0.015747 0.000849 0.014252 0.009469 0.052915 0.030393 -0.060688 -0.064840 -0.007339 0.000376 -0.050850 0.032387 -0.014433 0.012983 0.077692 0.005071 0.006550 -0.008010 0.054449 0.012385 0.033883 0.051453 -0.026990 -0.033828 0.048898 0.006360 -0.068595 -0.018625 0.044921 -0.002233 0.028894 0.061078 -0.055111 0.013922 -0.004035 0.007235 -0.001989 -0.074590 -0.019961 0.020102 -0.017224 0.022993 0.017731 0.027642 -0.046023 -0.051701
VERB -0.029361 -0.043645 0.050172 0.029675 -0.008847 -0.028189 -0.009767 0.028760 0.001127 0.055956 -0.021210 0.050227 0.034599 0.017052 0.012786 -0.028899 -0.008571 -0.006492 0.032442 -0.016098 -0.035519 0.012813 -0.065573 -0.024549 0.041448 0.010988 0.003507 0.017494 0.030019 0.032196 -0.019760 0.003326 -0.043047 0.037133 -0.006940 -0.041523 -0.018045 -0.037016 0.026461 -0.058094 -0.029873 -0.014871 -0.030417 0.022455 0.023258 0.010390 0.013593 0.052624 0.031336 0.065652 -0.025960 -0.004635 0.005938 -0.013035 0.047018 -0.057588 -0.002341 -0.016197 -0.036959 -0.001353 0.028608 0.087100 -0.035168 -0.042720 -0.002049 0.069783 0.030614 -0.093851 0.083316 -0.001907 0.010500 -0.060325 0.041146 0.023944 -0.047706 -0.033881 0.025621 -0.038807 0.004413 0.064711 -0.012981 0.066551 0.056703 0.050984 -0.023638 0.027755 0.012927 -0.028985 0.144608 -0.023422 0.060704 0.028333 -0.095610 -0.023577 -0.080951 -0.044933 0.052795 0.052658 0.044904 0.001908 -0.002587 0.033173 -0.031702 0.063095 -0.029763 0.029182 0.020537 -0.054333 -0.058023 0.037819 -0.024158 0.065994 -0.015997 0.011540 0.008064 0.042010 -0.033062 0.037712 -0.039893 -0.008905 -0.058151 -0.008405 -0.037859 0.032500 0.054321 0.027024 -0.047817 0.013923 0.055328 0.025164 -0.002086 0.001899 0.004960 0.017231 -0.024921 0.028577 -0.023473 0.060180 0.035477 -0.010496 -0.000872 0.030215 -0.071282 0.030128 0.068187 0.002092 -0.026409 0.001999 -0.071264 -0.007140 0.043565 -0.048850 -0.013495 -0.007536 0.108382 0.011531 -0.036546 0.032745 0.021384 -0.004551 0.034792 -0.004071 -0.046081 -0.023708 -0.002045 0.027938 0.018985 0.013648 0.041358 0.031253 0.020735 -0.010899 -0.035420 0.023203 0.045668 0.031057 -0.055083 -0.070773 0.059604 0.017929 0.025335 0.101512 -0.000790 0.006538 0.084254 0.066014 0.007391 -0.023880 0.047883 -0.020136 0.048770 0.020914 0.009906 0.042556 0.034013 0.072418 0.088170 0.014424 -0.052688 -0.020099 -0.045457 0.031830 -0.050814 0.034629 -0.074093 -0.019212 0.035043 0.061319 0.017540 0.056471 0.013045 -0.057207 0.081734 -0.029476 -0.035152 -0.042745 0.027865 0.093772 -0.040017 -0.044754 -0.035744 -0.041011 -0.038724 -0.008123 0.042914 0.051828 0.034426 0.058881 0.056205 0.032530 -0.017201 -0.070415 -0.022549 -0.014903 -0.034531 0.026792 -0.006300 -0.018858 0.039560 -0.033115 0.065769 0.028856 -0.018917 -0.029631 0.068309 -0.039654 -0.083280 0.040120 -0.014233 -0.020261 0.016044 -0.011365 -0.093010 -0.081176 0.001027 0.026856 0.046635 0.074233 0.042958 -0.004435 -0.048509 -0.000451 -0.027368 -0.059292 -0.066210 -0.033466 0.023197 -0.028002 -0.051778 -0.005369 -0.007081 0.032298 0.016503 0.022304 -0.008504 0.013878 0.075478 -0.162272 0.062536 0.018599 0.005406 -0.003992 0.020232 -0.020944 -0.012786 0.041163 -0.003310 0.016509 0.015302 -0.003966 0.000294 -0.038635 -0.030221 0.013948 -0.017956 -0.017574 -0.049349 0.002377 0.012547 0.027820 0.017856 0.052139 -0.029494 0.022633 0.039552 -0.080810 -0.008307 -0.019312 0.030503 -0.017588 -0.041181 0.047088 -0.039486 -0.030088 0.043363 -0.057179 0.011302 0.030587 -0.000950 0.008736 -0.051335 -0.027621 -0.071622 -0.069469 0.017473 0.036697 0.028910 0.001994 0.003802 0.023485 0.037376 0.037782 -0.013094 -0.012495 0.009038 -0.054525 0.042448 -0.045516 -0.015115 0.036988 0.001076 0.002593 -0.002909 -0.034683 -0.044849 0.006631 0.003835 -0.062739 0.080752 0.059993 -0.086277 -0.022512 0.037047 -0.050475 -0.028827 -0.045844 0.049815 -0.014443 -0.083661 0.040221 0.015246 -0.002158 0.028554 -0.000533 -0.032068 -0.021794 0.040055 0.016426 0.040053 -0.020418 0.040959 0.051699 -0.031813 0.020743 0.006828 0.012288 0.004534 0.010635 -0.009900 -0.011066 0.023053 0.011035 -0.022897 -0.007748 0.058901 -0.026740 -0.030017 -0.050775 0.044552 -0.033223 -0.032781 -0.007194 -0.033254 0.095147 -0.046538 -0.012586 -0.011126 0.013110 -0.005756 0.054029 -0.004478 -0.045871 -0.012927 0.033184 0.015746 0.051956 -0.012740 0.046852 -0.053865 -0.013790 -0.002348 -0.000624 0.024795 -0.054334 0.000362 -0.061868 0.009891 0.050220 -0.014501 -0.021770 0.061036 0.042478 0.020052 0.016894 0.042869 0.018606 -0.023717 0.004460 0.059608 0.031534 -0.027076 0.006757 -0.031786 0.000370 -0.031681 -0.052055 -0.049288 -0.052750 0.029761 -0.015337 -0.025485 -0.045060 0.058846 0.007651 0.060931 -0.053484 -0.040794 -0.013854 0.035090 0.014011 0.005732 0.011810 -0.072057 -0.028872 -0.010566 0.038970 0.030473 -0.048902 -0.008592 -0.011102 0.016096 -0.006068 0.002971 -0.034928 0.093823 -0.046537 0.009837 -0.012003 -0.007693 -0.026791 0.026265 0.057098 -0.087657 -0.073904 -0.000050 -0.015194 -0.020331 0.076040 -0.020109 0.031000 0.046661 -0.003408 -0.003309 -0.009733 0.055587 -0.014813 0.028877 0.073833 0.000282 -0.031786 0.028742 -0.007221 -0.021792 0.004830 0.042175 -0.005948 0.031089 0.037852 -0.058849 -0.005758 0.033271 0.088975 0.037334 -0.021449 -0.071488 0.045708 -0.028418 0.055556 0.001484 0.042611 -0.111516 -0.022842
PUNCT 0.006118 -0.027862 0.032814 0.009094 -0.033767 -0.032236 0.008859 0.005977 -0.007939 0.023107 -0.035047 0.012998 0.027640 0.002636 0.002431 0.015480 -0.005795 0.024155 0.034663 -0.007312 -0.010677 0.031863 -0.082369 -0.008934 0.077626 0.030367 -0.013523 -0.020027 0.032264 0.029327 -0.015062 0.002168 -0.050345 0.039133 0.041203 0.025352 -0.042396 -0.026062 0.024243 -0.033429 -0.039350 -0.005671 -0.041069 0.016258 0.049924 0.014402 0.062068 0.028877 0.027917 0.012269 -0.013622 0.027166 -0.008724 0.018938 0.017354 -0.030965 -0.019542 -0.038425 -0.038228 0.021823 0.012357 0.041711 -0.008763 -0.047470 -0.023728 0.069864 0.050616 -0.088957 0.063485 -0.009723 0.009683 -0.053121 0.075915 -0.026381 -0.038895 -0.017046 -0.002901 -0.053773 0.008978 0.037794 -0.036104 0.027147 0.047701 0.057625 -0.037223 0.011763 -0.006204 0.024227 0.067037 -0.048035 0.046152 0.031703 -0.060102 -0.039699 -0.065878 -0.059774 0.045387 0.046794 0.024878 -0.009541 -0.009949 0.021386 -0.051708 0.039108 0.001447 0.018834 -0.007504 -0.098034 -0.075773 0.032040 -0.002936 0.052462 0.009262 0.020777 -0.018934 0.018180 -0.037978 0.045434 -0.047442 -0.006388 -0.051980 -0.069012 -0.040486 0.006125 0.039224 0.073066 -0.039488 -0.009447 0.038411 -0.025257 -0.013078 -0.000599 -0.005237 0.023929 -0.011248 0.014346 -0.056462 0.063871 0.022237 -0.017297 0.020401 -0.000667 0.010162 -0.004725 0.051645 -0.048565 -0.070706 -0.025528 -0.055577 -0.001283 -0.027931 -0.090636 -0.025177 -0.020268 0.082041 -0.028162 -0.021937 0.005578 0.019581 0.018485 0.061355 0.001939 -0.034112 -0.025404 -0.003148 0.029003 -0.033786 -0.026826 0.009479 0.031506 0.011005 0.015397 -0.030719 -0.008400 0.040182 0.016164 -0.035197 -0.036843 0.048525 0.026710 0.002663 0.056331 0.030894 0.006284 0.101840 0.062912 0.005569 -0.012412 0.048324 -0.042653 0.023717 -0.003276 -0.019870 0.015153 0.033889 0.034300 0.056086 0.005091 -0.052600 -0.033527 -0.028796 0.032780 -0.022912 0.029956 -0.099140 0.000465 0.037539 0.058941 -0.001600 0.026291 0.005285 -0.026663 -0.001690 -0.010499 -0.008768 -0.013142 0.035571 0.103437 -0.015161 -0.031397 -0.022576 -0.008185 0.008818 -0.037194 0.008355 0.027643 0.000291 0.092608 0.066737 0.039922 -0.005591 -0.035138 0.001986 -0.020664 -0.057660 0.029551 -0.019433 -0.026674 0.036834 -0.005973 0.052978 0.052461 -0.017767 -0.002633 0.055070 0.018963 -0.064908 0.012461 -0.008797 -0.002104 0.028730 0.062247 -0.049527 -0.074536 -0.012882 -0.002442 0.030353 0.003272 0.039992 0.001656 -0.033152 -0.012262 -0.012946 -0.055327 0.004916 0.012231 0.031742 0.009162 -0.010234 0.003793 0.008496 0.044460 -0.004364 0.024262 -0.013300 -0.011763 0.062994 -0.106057 0.062475 -0.032934 -0.007674 -0.011509 0.021096 0.028422 -0.036049 0.042083 -0.008992 -0.042985 0.005852 -0.010180 -0.015528 0.007119 0.017601 -0.017727 0.011994 0.018696 -0.041669 -0.012312 0.034769 -0.019429 0.006795 0.044962 -0.021647 -0.026698 0.006617 -0.089640 -0.008056 -0.056129 0.031946 0.023495 -0.031349 0.042921 -0.008343 -0.044457 0.024553 -0.046484 0.053968 0.047899 0.030138 0.005756 -0.050540 -0.048535 -0.086405 -0.029081 0.016440 0.027178 0.025262 -0.010751 0.013646 0.047292 0.046582 0.026862 -0.021690 -0.003592 -0.022524 -0.042539 0.017973 -0.037460 -0.008779 0.033541 -0.004075 0.018426 -0.027190 -0.066292 -0.057943 0.031454 0.043264 -0.078454 0.032718 0.011012 -0.065898 -0.013591 0.027113 -0.015506 0.009991 -0.026458 0.024160 -0.030548 -0.031614 0.038842 0.028147 -0.055104 0.025197 -0.011729 -0.042057 -0.023559 -0.008452 -0.026033 0.061790 -0.038510 0.063240 0.050317 -0.013230 0.001920 -0.014838 0.020155 0.002886 0.009534 -0.029287 -0.023049 0.021090 0.005856 -0.048503 -0.013133 0.019498 -0.031376 0.021018 -0.035668 0.006281 -0.005175 -0.018666 -0.032543 -0.066105 0.091086 0.000361 -0.017763 -0.066689 0.009049 0.041229 0.049977 0.024729 -0.031141 -0.003560 0.031110 0.035770 0.022153 0.017026 0.025487 -0.037564 0.016711 0.001744 -0.024558 0.004225 -0.065044 0.009249 -0.027712 0.008138 0.008381 -0.007005 0.008567 0.105490 0.019823 0.046178 0.060183 0.044135 -0.018522 -0.019603 0.025985 0.055826 0.018729 0.007828 -0.018220 0.018565 0.019031 -0.019320 -0.007455 -0.060489 -0.030952 0.018621 -0.020036 -0.047802 -0.045017 0.066036 0.022469 0.072242 -0.026474 -0.067349 0.014132 0.020995 0.020501 -0.008554 -0.048983 -0.072699 -0.011771 0.011041 0.022843 0.034580 -0.030854 -0.021714 -0.034740 0.007495 -0.038896 0.021065 -0.018708 0.072814 -0.049957 0.045192 0.003762 0.006484 0.009364 0.074531 0.072803 -0.061058 -0.034745 0.011072 -0.042989 -0.027431 0.048795 -0.008237 0.038364 0.038226 0.010255 0.028913 -0.002468 0.045441 0.002559 0.027621 0.061632 -0.006013 -0.051912 0.016384 0.046374 0.007528 -0.047873 0.077903 0.003698 0.056662 0.032979 -0.040406 0.008705 0.034364 0.100733 0.030926 -0.031443 -0.043854 0.050790 -0.041680 0.041205 0.029974 0.033467 -0.063464 -0.018525
PRON 0.061030 0.014282 0.041376 0.088163 -0.162528 -0.006969 0.055835 -0.046261 -0.040906 -0.166781 -0.116119 -0.173553 -0.070959 -0.061093 0.039707 0.091297 -0.030751 0.063301 0.029720 0.056126 0.099103 0.177491 -0.100939 0.022138 0.110183 0.140330 -0.119228 -0.114186 0.070405 0.074200 -0.046254 -0.041278 -0.007335 0.041382 0.170557 0.200613 -0.122710 -0.091554 0.039408 -0.093460 -0.066700 0.070645 -0.069191 -0.100344 0.086759 0.030490 0.254599 -0.026637 0.105088 -0.092611 0.051529 0.094167 0.011832 0.175809 -0.026383 -0.011920 -0.058251 -0.080567 -0.043850 0.102214 -0.061172 -0.043805 0.124395 -0.055471 -0.074275 0.001697 0.141407 -0.081816 -0.020531 -0.051537 -0.017587 -0.022472 0.191295 -0.088781 0.008166 0.068627 -0.073342 -0.115823 -0.026924 -0.080081 -0.100407 -0.054177 0.076018 0.136353 -0.089703 0.068492 -0.054559 0.192922 -0.140293 -0.192971 0.068367 0.102109 0.007637 -0.003312 -0.004915 -0.141914 -0.043769 0.080913 -0.046976 -0.018363 -0.098074 -0.041814 -0.176900 0.005534 0.140178 -0.008502 -0.057485 -0.253679 -0.079738 0.136822 0.037585 0.035904 0.081277 0.076474 -0.065241 -0.019181 -0.038968 0.110956 -0.063512 0.026478 0.027818 -0.198300 -0.078474 0.015070 -0.063802 0.293513 0.046619 -0.149058 0.022691 -0.092732 -0.030535 -0.005024 -0.116871 0.103961 0.046408 0.012434 -0.223376 0.138039 -0.057660 -0.060167 0.174142 -0.111346 0.174523 -0.038002 0.066519 -0.172335 -0.237812 -0.054702 -0.098481 0.099801 -0.291377 -0.319832 -0.051849 -0.058042 0.121056 -0.178832 0.010058 -0.030186 0.052539 0.135687 0.205589 0.053191 0.004126 -0.029070 -0.059387 0.074066 -0.097246 -0.261058 -0.061179 -0.000274 -0.090796 0.013952 -0.058407 0.031034 0.090273 -0.027179 0.038801 0.008498 0.021977 -0.018426 -0.022709 -0.041752 0.122743 -0.117843 0.079807 0.163458 -0.003944 0.016578 0.024424 -0.035548 0.003795 -0.029418 -0.108098 -0.101720 0.100786 -0.032359 -0.029384 0.057238 -0.137534 -0.100795 -0.057509 0.010331 0.104944 0.049198 -0.194952 0.049880 0.033775 0.019478 0.011200 -0.149322 -0.047965 0.099050 -0.231216 0.073498 0.061313 0.025922 0.019369 -0.019073 -0.007153 0.039364 0.067094 0.132518 0.154291 -0.125959 -0.135117 -0.055805 -0.067232 0.128281 0.150327 0.170975 0.070465 0.032724 -0.035644 -0.033019 -0.061049 0.022413 -0.002647 -0.146606 0.052170 0.002368 -0.103007 0.095097 0.033409 0.062779 0.025297 0.159034 -0.007749 -0.042324 -0.121046 0.020414 0.087178 0.112783 0.128998 -0.063676 -0.060318 -0.014315 -0.068233 -0.175411 0.063427 0.031642 0.052101 -0.060185 0.072126 -0.095776 0.202193 0.070617 0.122744 0.029358 0.074349 0.015573 0.009893 0.097021 0.119122 0.043294 -0.067512 0.049544 0.177435 -0.061281 0.128073 -0.198494 0.024581 0.079896 -0.056341 0.179021 -0.152550 0.094251 -0.003849 -0.281625 -0.049596 0.072326 -0.057131 0.080773 0.192740 -0.206456 0.057488 0.071409 -0.080453 -0.057701 0.076007 -0.108543 0.033926 0.030055 -0.013196 -0.135320 -0.101570 -0.125587 -0.060926 -0.117641 0.084703 0.141555 -0.077048 0.075907 0.138771 -0.094555 0.058641 -0.020266 0.270929 0.054785 0.174813 -0.008489 -0.123222 -0.168993 -0.142620 -0.098444 0.027016 -0.009976 0.034141 -0.025344 0.058751 0.079444 -0.036999 -0.016873 -0.068734 -0.004004 -0.130603 -0.064365 0.022018 -0.007206 -0.051638 0.054644 -0.090751 0.046624 -0.109682 -0.221330 -0.114432 0.070765 0.247652 -0.243134 -0.063373 -0.119617 -0.035832 -0.028221 0.016108 0.075925 0.078338 -0.041547 -0.099541 -0.099423 0.152765 0.099565 0.097110 -0.177882 0.004655 -0.054222 -0.080533 -0.108919 -0.165813 -0.202134 0.144695 -0.018486 0.074096 0.080212 0.049123 -0.056519 -0.062252 0.044189 0.012858 -0.009322 -0.091038 -0.029140 -0.004671 0.020031 -0.112994 -0.008831 -0.089830 -0.033542 0.148766 0.040189 -0.139850 0.157962 0.024557 -0.018770 -0.196363 0.067011 0.161093 -0.016328 -0.249924 0.040217 0.136810 -0.037227 0.143101 0.019886 0.016285 -0.063348 0.151237 0.003427 0.084651 -0.036411 0.078997 0.104317 -0.038711 -0.059523 -0.105844 -0.092243 0.031122 0.039364 -0.069434 -0.126374 0.046984 0.157660 0.172425 -0.035348 0.213044 0.245232 0.055586 -0.010580 -0.007829 0.036339 0.145746 0.082167 0.169304 -0.034689 0.183092 0.124165 -0.021213 0.101645 -0.160199 0.028220 0.069953 0.001167 -0.105532 -0.040395 0.148699 0.144173 0.162117 0.010541 -0.149458 0.022236 0.034176 0.008882 -0.013410 -0.154481 -0.036199 0.021785 0.068778 -0.029724 0.045349 -0.019431 -0.107836 -0.152031 0.095831 -0.100312 0.059121 0.021183 0.068237 -0.079797 0.079090 0.038502 0.146574 0.154541 0.270167 0.146692 0.039755 0.015964 0.037554 -0.109165 -0.035799 0.031357 -0.018035 0.116876 0.046857 0.034372 0.188993 0.010514 0.125541 0.069105 0.042938 0.097690 -0.078287 -0.141147 0.047927 0.145519 -0.006242 -0.208828 0.180793 0.041682 0.151443 0.087998 -0.049354 0.061906 0.047353 0.154963 -0.064900 -0.139279 -0.023258 0.044800 -0.093071 0.029102 0.129051 0.086859 0.040191 -0.078154
DET -0.082169 -0.097143 0.144374 0.063885 -0.003554 -0.011676 -0.037267 0.053421 -0.009925 0.120302 -0.063726 0.118088 0.055817 -0.002254 0.039796 -0.134101 0.005550 -0.020795 0.074058 -0.023880 -0.075705 -0.017634 -0.018646 -0.074482 -0.001182 -0.015740 0.058870 0.063130 0.015575 0.051354 -0.012580 0.015033 -0.064613 0.037586 -0.066259 -0.165930 -0.011675 -0.039502 0.036797 -0.149165 -0.025238 -0.030376 -0.027319 0.013550 -0.018709 0.028983 -0.022690 0.079815 0.047087 0.136201 -0.000456 -0.032519 0.034725 -0.033445 0.080316 -0.097906 -0.004668 0.048306 -0.050584 -0.033328 0.088412 0.150802 -0.082796 -0.060696 -0.000309 0.091626 -0.024326 -0.088970 0.112145 0.003867 0.039107 -0.102174 0.000082 0.071983 -0.054196 -0.046675 0.067812 -0.001293 0.005159 0.125655 0.020361 0.147262 0.089784 0.044882 -0.011879 0.082616 0.065664 -0.084877 0.255840 -0.011623 0.151033 0.067499 -0.160588 0.009625 -0.116915 -0.053927 0.066597 0.100196 0.097283 0.004067 -0.071418 0.042108 -0.108278 0.137864 -0.058829 0.062739 0.036421 -0.021201 -0.054009 0.101597 -0.046204 0.097434 -0.093319 0.039941 0.045881 0.055942 -0.038276 0.112268 -0.043384 0.072339 -0.052884 0.145505 -0.062195 0.077725 0.066055 -0.001633 -0.035094 0.000132 0.121063 0.135165 0.019640 -0.006174 -0.052551 0.054474 -0.114227 0.064440 0.003918 0.088874 0.014203 0.001952 0.026747 0.043322 -0.278115 0.081690 0.140839 0.105106 -0.015796 0.103593 -0.149084 0.061449 0.112422 -0.100976 0.023425 0.020329 0.194123 0.088847 -0.086506 0.086127 0.065013 -0.004609 -0.015355 -0.024380 -0.058578 -0.014482 0.042603 -0.020580 0.054010 -0.011871 0.048968 0.026123 0.044866 -0.076775 -0.037952 0.108797 0.025883 0.057800 -0.035332 -0.189267 0.100255 0.004924 0.055383 0.176737 -0.034806 0.003503 0.050461 0.151310 0.029406 -0.077310 0.008783 0.059115 0.111914 0.059406 0.085851 0.089421 0.075954 0.168009 0.132770 0.041122 -0.029097 -0.017976 -0.121492 0.052086 -0.122002 0.090626 -0.116908 -0.043827 0.047058 0.078236 0.036869 0.070224 0.055459 -0.138657 0.220730 -0.065270 -0.119512 -0.133060 0.038069 0.118385 -0.133911 -0.099278 -0.095853 -0.097475 -0.183276 -0.000368 0.114295 0.077408 0.133765 0.004560 0.073774 0.055304 -0.044584 -0.169075 -0.064624 -0.001191 -0.000658 0.009232 0.020715 -0.009573 0.039901 -0.087479 0.089175 -0.005155 0.016571 -0.090280 0.082872 -0.132470 -0.082344 0.054024 -0.057765 -0.130726 0.000067 -0.108398 -0.223914 -0.048286 0.011098 0.147767 0.014864 0.191581 0.049004 0.004488 -0.061928 -0.007709 -0.005086 -0.089889 -0.204313 -0.129446 0.057775 -0.090032 -0.143532 0.013711 -0.034961 0.057687 0.098900 0.037209 -0.000619 0.102257 0.211439 -0.351647 0.159506 0.106181 0.041029 0.019176 0.006813 -0.066422 -0.025991 0.090032 -0.012069 0.093611 0.019241 0.075491 -0.013409 -0.161564 -0.108033 0.048156 -0.063225 -0.130112 -0.122781 0.007892 -0.053307 0.091466 0.063538 0.091638 -0.066537 0.086964 0.092031 -0.129180 -0.038069 0.028717 0.052535 0.007999 -0.098501 0.086143 -0.024180 -0.066715 0.168810 -0.108047 0.030195 -0.013594 -0.020608 0.020766 -0.119086 -0.075618 -0.114161 -0.264418 0.046225 0.033848 0.061314 -0.012137 -0.006820 0.041361 0.020013 0.035527 -0.025226 -0.030413 -0.001148 -0.135714 0.069690 -0.087863 -0.058576 0.067309 0.004735 -0.009539 0.034749 -0.035107 -0.049783 -0.028386 -0.008951 -0.177657 0.161881 0.173365 -0.172780 0.022779 0.045226 -0.114066 -0.120813 -0.108590 0.098454 -0.016371 -0.132166 0.075083 -0.029009 0.098824 0.040669 -0.010347 -0.029649 -0.065651 0.081902 0.078597 -0.018334 0.009818 -0.005184 0.072914 -0.051566 0.075955 0.052824 -0.002892 -0.047180 0.034757 -0.018422 0.018624 0.030793 0.038063 -0.026084 0.016500 0.116565 -0.012768 -0.145454 -0.048463 0.097726 -0.033624 -0.095657 0.076711 0.021348 0.092717 -0.117559 0.001116 0.022828 0.036107 -0.070920 0.004070 -0.096499 -0.081210 -0.035803 0.057488 -0.022654 0.125823 -0.041133 0.104134 -0.106047 -0.032501 -0.050902 -0.012456 0.068638 -0.066059 0.034342 -0.150863 -0.034561 0.121879 0.011035 0.011196 -0.017284 0.142069 0.073382 -0.031811 0.058570 0.088467 -0.046432 -0.015007 0.125654 0.066686 0.012882 0.067037 -0.089540 0.015602 -0.082461 -0.113040 -0.107580 -0.096374 0.097171 -0.024610 0.012885 -0.065494 0.101312 0.028384 0.090344 -0.110567 -0.016905 -0.105145 0.074969 -0.027447 0.053576 0.124620 -0.126807 -0.069193 -0.107538 0.102912 0.062462 -0.099698 -0.024883 -0.025254 0.094994 -0.003975 0.004213 -0.069109 0.180796 -0.088214 -0.024275 -0.025850 -0.048006 -0.089423 -0.013069 0.069164 -0.215670 -0.209968 0.002559 0.032802 -0.084076 0.098743 -0.026962 0.040548 0.137487 -0.022293 -0.030318 0.015280 0.134380 -0.035821 0.059603 0.170404 0.016210 -0.011922 0.039571 -0.112898 -0.119093 0.057332 0.048096 -0.022085 0.018802 0.109345 -0.167544 0.005987 0.032016 0.095691 0.101585 -0.089008 -0.123459 0.080898 -0.027125 0.117953 0.007286 0.067747 -0.238071 -0.036616
ADV -0.051093 -0.057143 0.059268 -0.116128 -0.010826 -0.083219 0.022759 0.060209 0.097415 0.106571 -0.027339 0.162596 0.024341 0.054557 -0.026224 0.056881 0.022670 0.001108 0.093766 0.028430 -0.000122 -0.004911 -0.049517 -0.035451 0.121054 0.033890 0.007749 -0.016466 0.009920 -0.011751 0.064701 0.057432 -0.101526 -0.020616 0.066063 -0.068360 -0.022543 0.082961 0.025229 0.016569 0.034691 -0.039782 -0.093188 0.077681 0.051608 0.043037 -0.047583 -0.042401 -0.137137 0.049138 0.027291 0.030939 -0.053923 -0.098495 -0.009545 0.034396 -0.018042 -0.046569 0.022543 -0.004901 0.122080 -0.040581 -0.044246 0.058768 0.036824 -0.004051 0.047161 -0.113225 0.001575 0.040697 0.058828 -0.020867 0.030221 0.059762 0.023133 0.040713 -0.028283 0.006286 -0.037533 0.129068 -0.025946 0.016447 0.014859 0.087230 -0.058897 0.020490 -0.073859 -0.162537 0.115273 0.058400 0.030205 0.015144 -0.053387 -0.122402 -0.067008 -0.007795 0.146014 0.074550 0.040586 -0.037266 0.034831 -0.039104 -0.005009 0.015134 -0.014759 -0.038325 -0.052538 -0.108937 -0.028414 -0.032092 0.013463 0.040210 -0.045478 -0.009514 -0.015109 -0.097826 -0.012716 0.082210 -0.128020 0.022292 -0.093044 0.012083 -0.028841 -0.027262 0.115420 0.010773 -0.048677 0.052219 0.050761 0.016833 0.087750 -0.041420 0.002427 0.060936 -0.079871 0.040558 0.036501 0.079547 0.037792 0.096830 -0.032068 0.054706 -0.015176 0.076072 -0.028299 0.025474 -0.072713 -0.022329 -0.027941 -0.001945 -0.062864 -0.024668 -0.056747 0.100842 -0.024640 0.060941 0.001605 0.014243 -0.034790 -0.033892 -0.001896 -0.064559 -0.064157 -0.027268 0.061784 -0.008160 -0.057389 0.050659 0.000547 0.005459 0.060925 -0.020123 -0.000037 -0.106807 -0.029011 0.055121 -0.001097 -0.047886 0.080449 0.086459 -0.175300 0.106555 -0.033970 0.074809 0.162384 0.029141 -0.021554 -0.034382 0.015719 -0.053169 -0.035336 -0.047983 0.025793 0.074359 0.011424 -0.000463 0.075020 -0.083288 0.045219 0.011288 -0.051781 0.012072 -0.044847 0.034075 -0.074305 -0.039316 0.019102 0.014766 -0.062913 0.051074 -0.031877 -0.034971 0.066256 -0.074277 -0.146748 -0.044408 0.053310 0.124754 -0.005401 -0.107353 -0.045066 0.044096 -0.053882 0.063628 0.159792 0.038768 0.013921 0.123752 -0.004495 -0.126732 0.040819 0.004558 -0.008201 -0.006013 -0.004646 -0.014108 -0.077935 0.004708 0.039591 0.013065 0.062615 0.052044 0.055264 -0.013286 -0.028099 0.004637 -0.017480 0.058265 0.109345 0.001383 -0.030103 0.114263 -0.086927 -0.018102 -0.012268 -0.035786 -0.012429 0.093825 0.135078 0.037984 0.050435 -0.084400 0.008323 -0.070411 -0.014513 -0.049483 -0.047327 -0.064221 -0.105286 0.037233 0.008593 0.022833 -0.113228 -0.008029 -0.003845 -0.050695 0.020139 -0.062585 -0.043279 -0.051652 0.088524 -0.083162 0.091253 -0.066014 0.063954 0.019532 0.027773 0.051040 0.057426 -0.089414 -0.077632 0.001463 -0.161032 -0.019938 0.056809 -0.015981 -0.083391 -0.038248 0.005372 0.050219 -0.014711 -0.027468 -0.001915 -0.022670 0.085701 0.055183 0.118181 -0.018302 0.056983 0.113782 -0.070890 -0.009788 -0.003817 -0.059338 0.123361 0.054124 0.054179 -0.009033 -0.042013 -0.009988 0.001400 -0.010417 -0.036023 0.002672 0.076574 0.020943 0.030442 -0.066174 -0.076174 0.043852 0.141149 0.060583 0.040214 0.055705 -0.036619 0.051987 0.056586 -0.115091 0.012690 0.087125 0.038504 0.093490 0.021948 0.017645 -0.030786 -0.027205 -0.031233 -0.013896 0.027088 0.088690 -0.028223 0.036654 0.015104 -0.045758 -0.006305 0.001925 0.081244 -0.031096 -0.117022 -0.036187 0.008218 0.015695 0.012301 0.031646 -0.041402 -0.073623 0.007312 0.041618 0.034288 -0.050115 -0.038274 -0.032170 0.035993 0.014255 -0.097020 0.017536 0.013817 0.064948 -0.028728 -0.051494 -0.022688 0.026844 0.078089 -0.049093 0.036936 0.021445 0.050486 -0.026491 0.090270 -0.082712 0.031413 -0.082804 -0.016895 0.105787 -0.089698 -0.018607 0.002785 0.035962 0.064616 0.008722 -0.046852 -0.020579 -0.057624 0.120823 -0.026847 -0.060171 -0.000339 0.104315 -0.114225 -0.015173 -0.038392 -0.021956 0.022323 -0.039527 0.083590 -0.078685 0.012894 0.069572 0.003066 -0.043971 0.021554 0.070398 0.068420 -0.116260 0.090040 -0.078831 -0.006307 -0.049072 -0.020253 0.012941 -0.017813 -0.080997 -0.087937 -0.057582 0.008621 -0.100307 0.068064 -0.018273 0.005184 -0.075367 -0.091102 0.040159 0.017516 0.059822 0.045027 0.038047 -0.067145 -0.000830 0.006237 -0.009809 0.100320 -0.031874 -0.167737 -0.043259 -0.069443 0.064477 0.099883 -0.028560 0.033491 -0.041577 0.033062 -0.076734 -0.005405 -0.007677 0.008293 0.004296 -0.010609 -0.000152 -0.040748 -0.030466 -0.011611 0.011293 -0.032739 -0.036531 0.070377 -0.046160 0.010830 -0.004225 0.055575 0.047088 -0.028385 -0.003294 0.020913 0.077721 0.028427 -0.005556 0.022874 0.048133 0.072256 0.015264 -0.060779 -0.039922 0.093552 -0.029230 0.004120 0.023944 -0.011915 -0.041263 -0.037983 -0.009300 0.022471 0.118481 0.091664 0.032096 -0.027553 0.022839 -0.010804 0.062833 0.029677 -0.001343 -0.089867 0.111052
ADJ 0.038396 0.008820 0.104946 -0.124370 0.037100 0.107136 -0.048873 -0.061067 -0.003856 0.115228 -0.151128 0.044476 0.129642 -0.105646 -0.063256 -0.084225 0.174881 0.125787 0.151698 -0.105602 -0.060449 -0.034853 0.033081 -0.195540 0.030760 -0.021666 0.141417 -0.047759 -0.032143 0.054473 0.040394 0.079723 -0.142362 0.054983 -0.005286 -0.020009 -0.110556 0.096989 -0.076126 -0.037676 -0.005519 -0.092186 0.047876 0.019604 -0.065158 -0.008458 0.093552 0.002234 0.022477 -0.091077 0.099646 0.101744 -0.120718 0.067233 -0.042839 0.038647 -0.118663 0.045525 -0.040745 -0.012539 0.084734 0.014627 -0.088597 -0.144650 -0.175437 0.142983 -0.067557 0.069512 0.001152 -0.038441 0.072923 0.012840 0.116622 -0.181135 -0.015338 0.033518 -0.080615 -0.010256 0.047224 0.007725 0.011978 0.085189 -0.007088 -0.064650 0.077746 0.056515 0.094334 0.112898 -0.061568 -0.020038 0.138258 0.055775 0.034876 0.027675 0.032526 -0.075131 0.012575 0.019712 0.021310 0.015111 -0.147999 -0.023476 -0.130579 0.014481 0.031392 0.044673 -0.056961 -0.077182 -0.069183 0.036002 -0.002204 -0.039998 -0.094273 0.105602 -0.071718 -0.092495 -0.003061 0.154124 0.018356 0.134107 0.024100 0.061627 -0.013658 -0.069544 -0.007336 -0.004890 0.083498 -0.083470 -0.005530 -0.052482 -0.037113 -0.058817 -0.125971 0.070671 -0.128954 -0.019852 -0.015488 0.002217 -0.027254 0.037149 0.090716 -0.088868 -0.024139 -0.070614 0.002986 0.020112 -0.082499 0.062977 -0.010221 0.107953 -0.111939 -0.115344 0.018474 0.062057 0.062654 0.040642 0.009937 -0.073556 0.062694 0.006467 -0.070699 0.006423 0.023657 0.106176 0.105701 -0.162013 -0.183774 -0.191584 -0.186827 -0.028738 -0.025002 -0.030447 -0.005422 0.026238 -0.049548 -0.039012 0.014962 -0.129691 0.029281 0.021567 -0.066887 -0.022623 0.101429 0.111935 -0.016445 0.095298 0.072335 -0.162692 -0.053035 0.030176 -0.013343 -0.043568 0.044776 0.067424 -0.045411 0.022414 -0.061859 0.018240 0.129537 -0.066422 0.012533 0.029951 -0.071565 0.061016 -0.212466 0.061971 0.055537 -0.091962 -0.020964 0.012188 0.133537 -0.106365 0.046626 -0.007882 -0.092438 -0.067332 0.025024 0.201886 -0.016135 0.006571 -0.059004 -0.121335 -0.161350 -0.179159 -0.051071 -0.109005 0.139102 0.003560 -0.004785 0.012872 -0.065120 -0.096537 0.067638 0.113156 -0.030475 -0.074784 0.019836 0.031341 -0.058718 -0.039931 0.052731 -0.007426 0.001718 -0.027104 -0.010422 0.068950 0.043617 -0.117738 -0.035674 -0.134157 0.057148 0.144652 -0.148377 0.145711 -0.023083 0.064759 -0.063888 -0.066511 -0.053932 -0.012793 -0.039698 -0.023788 0.092691 0.047229 -0.024975 0.018689 0.065939 0.029662 -0.049786 0.088350 0.035761 0.017120 -0.005660 0.074186 0.049238 -0.021656 0.043961 -0.025989 0.118959 0.004797 -0.085892 -0.022565 0.005387 0.001684 -0.044684 -0.050653 -0.040732 -0.053003 -0.043331 0.120323 0.002038 -0.040912 -0.031183 0.045648 -0.029354 -0.095910 -0.040321 -0.030037 -0.072260 -0.075980 0.033352 0.010863 0.018901 -0.033093 0.020049 -0.023397 -0.030579 -0.052235 -0.054385 0.192276 0.059904 -0.093950 0.137696 -0.084930 0.048003 -0.038057 0.099219 -0.039773 0.021143 0.094523 0.041365 -0.092429 -0.029431 -0.049489 0.022315 -0.034976 0.053866 -0.037622 -0.015052 0.143233 -0.002970 -0.083345 0.015867 0.016972 -0.143673 -0.012999 -0.137482 -0.062396 -0.057341 -0.015769 0.079289 0.062666 0.092594 -0.041115 -0.045001 0.007136 0.004871 -0.224976 -0.090224 0.039269 -0.045090 0.128697 -0.010917 -0.029039 -0.025943 0.010183 0.033459 -0.019260 0.049887 0.014988 -0.009477 0.018877 -0.006474 0.014360 0.004663 -0.049077 -0.025426 -0.031500 -0.064032 -0.025905 0.011440 0.108178 -0.001333 0.112197 0.034622 0.068612 -0.150265 0.079680 -0.021092 0.057581 0.080458 0.098154 -0.108133 0.098690 0.032380 -0.060249 -0.055788 0.045160 0.118839 0.145597 -0.043920 0.137471 0.020376 0.070541 -0.054756 -0.040698 -0.115742 0.012338 -0.021797 -0.094905 -0.133017 -0.025668 -0.005088 0.055101 -0.000370 0.068419 0.038148 0.099202 -0.018680 0.122856 -0.134435 -0.117034 -0.005830 0.007559 0.060470 -0.061644 -0.078043 -0.015652 0.082579 0.156863 -0.016639 0.177921 0.154095 -0.078370 0.006218 -0.066560 -0.044560 0.042223 -0.008364 -0.030331 0.226944 0.084260 0.034470 0.118239 0.010681 0.050465 -0.059441 0.026577 0.012634 -0.008724 0.095734 -0.022076 -0.027149 0.014781 0.055946 -0.031421 0.092762 -0.088328 0.061377 -0.135958 0.025137 0.049147 -0.083801 -0.000957 -0.118197 0.039585 0.006574 0.000509 -0.040984 -0.073155 0.089654 -0.088103 0.053270 -0.003164 -0.075637 -0.017516 0.109148 0.059420 -0.098431 -0.057665 -0.010278 0.070009 -0.167142 -0.068196 -0.025186 0.045496 -0.178419 -0.128229 0.013319 -0.009892 0.080542 -0.005861 0.021606 0.011425 0.001602 -0.028762 -0.029183 0.091759 0.050855 0.046018 -0.127109 -0.018619 -0.080975 -0.003617 0.089572 -0.086441 0.082592 0.074261 -0.094476 0.092701 0.006141 -0.076137 0.097285 -0.034792 0.020603 0.137036 0.007811 -0.018540 0.105247 0.021521 -0.018358 -0.054428
AUX 0.018781 -0.030134 0.041441 0.037461 0.029889 0.028795 -0.041413 -0.023381 -0.076738 0.077459 -0.029173 0.012328 0.092666 -0.037804 -0.001330 -0.097879 0.020626 0.038691 0.014473 -0.078363 -0.086567 -0.046585 -0.035583 -0.043345 -0.008168 -0.055330 0.075722 0.032407 0.000212 0.034837 -0.036352 0.002977 -0.042649 0.072013 -0.071022 -0.037107 -0.016832 -0.034908 -0.005713 -0.056103 -0.064937 -0.035286 0.038134 0.019414 -0.013236 -0.013726 0.033025 0.096805 0.104338 0.023823 -0.039365 -0.006679 0.005299 0.029639 0.045188 -0.073568 -0.017629 0.037683 -0.077327 -0.016642 -0.007036 0.129943 -0.070469 -0.127133 -0.070354 0.162397 -0.053070 -0.007074 0.123784 -0.025023 0.007220 -0.078786 0.025410 -0.079441 -0.089134 -0.092562 0.048208 -0.025947 0.069145 0.031944 0.019996 0.091639 0.040382 -0.051255 0.037646 -0.006507 0.103040 0.081706 0.104906 -0.034890 0.079436 0.020000 -0.075305 0.033942 -0.066960 -0.050886 0.001960 0.008404 0.056560 0.017494 -0.057483 0.084193 -0.066600 0.078473 -0.055062 0.084072 0.037462 0.025787 -0.088971 0.042346 -0.035283 0.045186 -0.033848 0.042717 0.004171 0.092617 -0.042567 0.025372 0.045875 0.023086 -0.030186 0.033968 -0.025808 0.018101 0.012807 -0.030683 -0.032589 -0.007706 0.041226 0.009719 -0.074362 0.018808 -0.005490 -0.029628 -0.043163 -0.003468 -0.016794 -0.005918 0.018333 -0.065243 0.010353 -0.008570 -0.124143 -0.054622 0.107886 0.014861 0.025676 0.047197 -0.052387 0.004123 0.131736 -0.040394 0.040807 -0.066202 0.134154 0.025599 -0.063024 0.014017 0.063650 -0.003096 -0.021792 0.019173 -0.008117 0.011278 0.018295 -0.033075 -0.007851 -0.010904 0.006269 0.045115 0.025372 0.012250 -0.021356 0.077567 0.021586 -0.000314 -0.057907 -0.088585 0.033373 -0.006611 0.140079 0.048859 0.031062 0.035611 0.005576 0.055854 0.049835 -0.051160 0.036428 0.009723 0.078463 0.043853 0.025397 0.041351 0.011886 0.104789 0.050663 0.048012 -0.020895 -0.028813 -0.005637 0.058417 -0.093076 0.033868 -0.079341 0.009926 0.055319 0.074102 0.032738 0.077028 0.098360 -0.114031 0.095035 -0.011766 0.020462 -0.037761 0.021589 0.147193 -0.049728 -0.010906 -0.073423 -0.147039 -0.095926 -0.083387 -0.024352 0.031508 0.075093 -0.004021 0.053587 0.089317 -0.095528 -0.124779 0.034240 0.004843 -0.067296 0.033384 0.035223 0.034340 -0.002089 -0.039773 0.115933 -0.003195 -0.073204 -0.046712 0.102187 -0.054987 -0.074111 -0.028438 -0.057356 -0.081811 0.033545 -0.018258 -0.156345 -0.041793 0.012914 0.081421 0.063707 0.034343 -0.078361 -0.036357 -0.127731 0.058342 -0.030753 0.005541 -0.127023 0.000912 0.058681 0.047076 -0.006523 0.000863 0.005310 0.032071 0.038700 0.047326 0.026687 0.016693 0.067753 -0.175601 0.146099 0.103588 -0.099828 0.001852 -0.001883 0.011846 -0.057924 0.023759 -0.053243 0.036588 -0.014863 0.065474 0.041973 -0.071525 0.031381 0.104923 -0.057522 -0.043611 -0.006993 0.028543 -0.017394 -0.023274 0.023956 0.101247 -0.039400 0.039550 0.008505 -0.164499 -0.089517 -0.027366 -0.033497 -0.050089 0.029303 0.041578 -0.037476 -0.021309 -0.021017 -0.140616 -0.048008 0.041941 0.003766 0.043084 -0.050284 -0.038478 -0.085472 -0.087659 -0.022570 0.021844 0.025169 0.021371 0.048535 0.057216 -0.007073 -0.011339 -0.041156 -0.046069 0.010152 -0.114901 -0.047395 -0.001143 -0.021966 -0.025104 0.027802 -0.049589 0.017676 -0.035079 -0.032192 0.039847 -0.017099 -0.098992 0.068041 0.054568 -0.112967 0.012998 0.020765 -0.048601 -0.047931 -0.043088 0.052798 0.011554 -0.034694 0.058563 -0.027749 0.011101 0.037843 -0.024321 0.000928 0.046728 0.055013 0.037479 -0.025628 -0.022738 0.097388 0.087762 -0.073956 0.054956 0.100077 -0.002393 -0.064773 -0.005548 0.000835 0.030341 0.069808 0.003732 -0.117166 0.040553 0.063803 -0.055198 -0.120526 -0.045650 0.036963 0.003626 -0.102748 0.059108 0.019414 0.045915 -0.036573 -0.014914 -0.016353 -0.022135 -0.056466 0.059515 -0.049970 -0.062638 0.026391 0.019936 -0.007795 0.111776 -0.006941 0.014427 -0.044606 0.013706 0.014131 -0.036807 0.058965 -0.043738 -0.031557 -0.044162 0.009524 0.040704 -0.009703 0.025794 0.063504 0.064980 -0.019623 0.048586 -0.008100 0.035741 -0.042199 0.077989 0.060483 -0.019207 0.009461 0.076477 0.007306 0.045741 -0.043448 0.013448 -0.112615 -0.060088 0.019689 0.015985 0.062577 -0.102712 0.042782 -0.065423 0.031392 -0.097075 0.026756 -0.027208 0.032089 -0.001084 -0.065883 0.047760 -0.020899 -0.009508 -0.022432 0.034866 -0.019471 -0.037553 -0.029187 0.018527 -0.013442 0.010551 0.026453 -0.047359 0.103345 -0.072848 0.069061 -0.000820 -0.067477 -0.062503 0.004983 0.064747 -0.181047 -0.099516 -0.047331 0.028261 -0.103608 0.050579 -0.040742 -0.023004 0.116588 0.001757 -0.060532 -0.050091 0.022751 -0.031308 0.022618 0.073521 -0.008345 -0.021594 0.029951 0.014094 -0.093761 0.039608 0.075202 -0.050515 0.050557 0.085275 -0.071860 0.013988 0.017760 0.001294 0.062443 -0.049044 -0.047923 0.088997 -0.018895 0.031106 -0.002715 0.023163 -0.107184 -0.089646
PROPN -0.045668 -0.003722 -0.113633 0.142030 -0.075251 -0.168757 0.091771 0.102758 0.058908 -0.091479 0.157336 -0.024973 -0.105150 0.179803 0.087036 0.158430 -0.172300 -0.120147 -0.101193 0.099550 0.049432 0.147784 -0.267003 0.192477 0.129645 0.148996 -0.266112 0.005764 0.134997 0.020075 -0.073818 -0.117131 0.065273 0.015753 0.128755 0.112855 0.059720 -0.207994 0.133230 0.040370 -0.061317 0.091536 -0.143084 0.044861 0.204477 0.015218 -0.015424 0.033462 -0.003978 0.142450 -0.156225 -0.072214 0.077570 -0.061335 0.107669 -0.069596 0.108167 -0.189653 0.039214 0.061010 -0.089418 0.115623 0.081402 0.053258 0.203714 -0.090950 0.275231 -0.329055 0.122410 0.011360 -0.106326 -0.074394 0.030249 0.212247 -0.068342 -0.043718 0.049486 -0.143079 -0.071973 0.030058 -0.113659 -0.078263 0.082433 0.232928 -0.183675 -0.052654 -0.209477 -0.137410 0.213090 -0.043304 -0.187373 -0.066162 -0.142477 -0.141502 -0.139239 0.017774 0.074102 0.015544 -0.047210 -0.023088 0.311306 0.030946 0.238931 -0.007172 -0.043796 -0.058158 0.085898 -0.136079 -0.018537 -0.054731 -0.023729 0.123367 0.233094 -0.186785 0.046923 0.141773 -0.021571 -0.206028 -0.130918 -0.339257 -0.148425 -0.386238 -0.010361 0.061687 0.082462 0.147937 -0.204921 0.146789 0.001409 -0.056123 0.051589 0.086325 0.252646 -0.084675 0.254495 0.008396 -0.085095 0.092993 0.156224 -0.064882 -0.184044 0.157844 0.253863 0.119235 -0.034554 -0.183576 0.013030 -0.248667 0.008330 -0.275893 0.050631 0.124536 -0.130858 -0.070115 -0.009928 -0.165604 0.019277 0.077710 -0.141979 -0.027124 0.246207 0.009963 -0.108364 -0.185584 -0.217594 0.342359 0.199840 0.283729 0.268975 0.070893 0.002910 0.097037 -0.055252 -0.128660 0.199576 0.058549 -0.162183 0.152047 0.025951 0.051700 0.022786 0.119635 -0.086657 -0.106583 0.243656 -0.126542 -0.108632 0.219703 0.206407 -0.198563 -0.008462 0.028929 -0.102929 -0.038762 0.037257 -0.005563 0.169775 -0.001346 -0.279368 0.039863 -0.013107 -0.011749 0.096432 -0.058158 0.121167 -0.063964 -0.034001 0.177810 0.029162 0.079777 -0.238637 0.158961 -0.084388 0.012820 0.142713 0.122946 0.036383 -0.108505 0.097044 -0.024483 0.112171 0.179484 0.316718 0.180790 0.046851 0.158389 -0.237917 0.188471 0.087583 -0.015791 0.095940 0.158536 -0.064046 -0.160186 -0.058501 0.112336 -0.096514 -0.092012 0.185045 0.076109 0.006687 0.144294 -0.071389 0.070647 0.107512 -0.023783 -0.228654 0.244737 0.117578 0.306547 0.000874 -0.033757 0.271198 -0.387666 -0.007133 -0.229177 0.226198 0.033758 0.222344 0.011327 0.002183 0.023175 -0.192494 -0.149595 0.169844 0.031860 -0.107241 -0.032737 0.105056 -0.144035 -0.019176 -0.010330 -0.084361 -0.088904 -0.097195 -0.131017 -0.174994 0.084523 -0.262635 -0.143396 0.118431 -0.007376 0.079899 0.015523 0.078847 0.048431 0.095865 -0.034993 0.089625 -0.304826 0.007162 0.179138 0.058178 -0.159405 0.056847 0.253479 0.044052 0.022630 0.235712 0.082213 -0.075839 -0.005308 -0.014121 -0.008285 -0.010711 -0.019945 0.092331 -0.062153 0.137440 -0.317403 -0.101746 0.135377 -0.276691 0.109125 -0.124423 0.069889 -0.068774 0.176998 -0.001298 -0.154297 -0.017478 0.126568 -0.019302 0.294656 -0.056657 0.131083 -0.033510 0.075249 0.030477 -0.178151 0.109531 0.210738 -0.005037 0.003152 0.229662 0.082094 0.242893 0.046726 0.119251 0.052228 -0.129580 0.013017 -0.176613 -0.025577 -0.057259 0.015201 0.049142 0.300930 0.145679 -0.115559 0.005675 -0.266955 0.117801 0.042363 0.131238 -0.010811 -0.048863 -0.015852 -0.163639 0.000448 0.126308 -0.179030 0.019556 0.022143 -0.109126 0.025746 0.062503 -0.071594 0.291008 -0.058939 0.087213 -0.008289 -0.025599 -0.163374 -0.163731 0.020405 0.294356 -0.066030 0.016677 -0.155428 -0.054375 -0.112449 0.111960 -0.150485 0.000037 -0.024821 0.256891 -0.150825 -0.094025 -0.187292 0.140466 -0.273368 -0.227837 0.172807 0.081601 0.049278 0.017389 0.009521 0.113387 0.257879 0.312931 -0.007946 -0.017018 -0.026964 0.126270 -0.083982 -0.023332 -0.065177 0.001296 -0.120363 0.167499 0.163001 -0.055147 -0.109608 -0.089776 0.065360 0.139820 -0.000008 -0.159525 -0.320685 0.247588 -0.271490 -0.179294 0.194321 0.053042 -0.018646 0.040823 -0.060985 0.036639 0.068442 -0.332302 -0.171487 -0.053059 -0.154746 -0.013847 -0.112138 0.068885 -0.044468 -0.042772 -0.042081 -0.255497 0.026472 0.093512 -0.001640 0.065782 0.023415 -0.257353 0.193746 -0.025842 0.255589 -0.039565 -0.195845 -0.009829 -0.008290 0.269896 -0.066215 0.037975 -0.052872 0.044618 0.077475 -0.170763 0.076842 -0.047183 -0.016870 0.132837 0.010870 -0.096335 -0.078112 0.193823 0.119565 0.105535 0.038118 0.261461 0.177824 0.027345 -0.135107 0.309873 0.249444 -0.063925 0.078477 -0.186145 0.017412 0.052055 -0.059862 0.007104 0.017159 0.007883 -0.086518 -0.088559 -0.137705 0.148718 0.127103 0.195262 -0.052517 -0.017469 0.124117 -0.010792 -0.105248 0.159170 -0.124030 0.095370 0.301568 -0.133499 0.096315 -0.109633 -0.115361 -0.082210 0.050574 -0.119970 0.032006 0.022608 0.051550
ADP 0.028297 0.052177 -0.222884 0.010773 -0.031161 -0.139893 0.088730 0.033584 0.035622 -0.164957 0.205034 -0.080653 -0.147693 0.131757 0.002740 0.232766 -0.176485 -0.097354 -0.184913 0.126820 0.121819 0.024897 -0.041695 0.257227 0.031896 0.029773 -0.179423 -0.019297 0.014246 -0.115139 -0.006754 -0.067276 0.147309 -0.093433 0.083909 0.148515 0.111244 -0.019117 0.050990 0.191087 0.032993 0.090857 -0.057483 0.016510 0.106456 -0.000641 -0.093534 -0.079753 -0.120050 -0.022563 -0.098691 -0.055000 0.062070 -0.080771 -0.042968 0.060307 0.114241 -0.107776 0.082445 0.037917 -0.114211 -0.169106 0.134268 0.216330 0.181233 -0.198778 0.093781 -0.028544 -0.086407 0.053401 -0.079198 0.057173 -0.105989 0.115133 0.062254 0.006959 0.016867 0.013352 -0.047567 -0.065086 -0.045126 -0.208922 -0.073322 0.043085 -0.082659 -0.146181 -0.167325 -0.088095 -0.120774 0.057054 -0.259760 -0.115968 0.088188 -0.095689 0.031934 0.119627 -0.003878 -0.082251 -0.077997 -0.038505 0.223932 -0.009965 0.219572 -0.123130 0.007564 -0.105736 0.002495 0.061570 0.082257 -0.153509 0.054562 -0.028743 0.149909 -0.139591 0.017390 0.010622 0.018161 -0.223712 -0.026940 -0.180761 -0.024049 -0.190185 0.058174 -0.019215 0.006640 -0.000905 -0.086510 0.108064 -0.081109 -0.073209 0.037772 0.049211 0.185396 -0.105338 0.189638 -0.028464 0.037246 -0.061485 0.033023 -0.005701 -0.134657 0.070922 0.254938 0.005228 -0.132165 -0.108108 0.071883 -0.163057 0.132208 -0.168464 0.011441 0.198244 -0.055725 -0.055138 -0.243605 -0.088496 0.060261 -0.002736 -0.126134 -0.016694 0.070273 -0.015724 -0.000577 -0.102770 -0.102671 0.163411 0.093646 0.233995 0.139755 0.022191 0.029115 0.107967 0.040344 -0.176847 0.002633 0.014875 0.012817 0.280227 -0.082884 0.017255 -0.037755 -0.096633 -0.076399 -0.066120 0.049432 -0.223529 -0.100680 0.213360 0.054971 -0.112416 -0.095067 -0.033813 -0.109975 -0.110668 -0.023521 -0.170543 -0.021641 -0.098038 -0.077608 0.090971 0.090048 -0.058738 0.149338 -0.130550 0.285977 -0.032505 -0.084861 0.044626 -0.046173 -0.036992 -0.175451 0.198798 -0.218021 0.030516 0.149418 0.171174 -0.037961 -0.220806 0.138127 0.033704 0.111050 0.204045 0.296341 0.196116 0.014802 0.068189 -0.257001 0.052181 -0.063683 -0.112122 0.102379 0.238363 0.008869 -0.118517 0.009813 0.075450 -0.075382 -0.003149 0.023180 0.134802 -0.077297 0.036043 -0.005658 0.098886 -0.063165 0.050907 0.010828 0.081533 0.139363 0.244999 -0.068240 0.024759 0.279895 -0.109869 0.010923 -0.206142 0.054945 -0.064720 0.045853 0.016382 0.093147 0.005332 -0.098841 0.011427 0.189883 0.095543 -0.136611 0.050796 0.140744 -0.084013 0.007677 -0.054127 -0.154376 -0.105848 -0.045642 -0.098761 -0.225133 0.300771 -0.257745 -0.106321 0.059251 -0.047224 0.029208 0.037575 0.087256 -0.015592 0.049797 -0.002796 0.049472 -0.224414 -0.018041 0.181727 0.071737 -0.066559 0.110844 0.211823 0.127432 0.010064 0.124745 -0.001541 -0.099976 -0.086523 0.032993 -0.060995 -0.065050 0.139746 0.108134 0.010982 0.018642 -0.151984 0.013288 0.016294 -0.129523 0.111256 -0.170853 0.138302 -0.121857 0.064311 -0.027140 -0.110994 0.062448 0.155998 0.100852 0.291729 -0.037455 0.017022 -0.097852 0.020494 -0.005562 -0.149078 0.061265 0.069625 0.018034 0.027925 0.128141 0.141471 0.081038 0.091733 0.119082 -0.015513 -0.054486 -0.025738 -0.122680 0.085894 0.077174 0.019396 -0.024197 0.388122 -0.040912 -0.157470 0.180592 -0.128850 -0.027365 0.109613 0.133133 0.094567 -0.075055 0.024261 0.018903 -0.098068 0.027723 -0.109012 -0.017463 -0.003747 0.007619 0.100731 -0.041976 -0.006842 0.086271 -0.018789 -0.000518 -0.186543 0.051631 -0.171372 -0.111204 -0.062227 0.188715 -0.085392 0.022394 -0.094702 -0.105528 -0.124508 0.145901 -0.136977 -0.120634 0.072682 0.189813 -0.023534 -0.168215 -0.165412 0.123704 -0.249481 -0.036664 -0.113986 0.122977 0.024206 0.099365 -0.043977 0.115157 0.114927 0.184173 0.079433 0.015576 -0.044338 -0.001497 -0.206812 0.005659 -0.154240 0.050918 -0.102930 0.175984 0.106615 -0.030262 0.023405 -0.059947 0.167781 0.123955 -0.061269 -0.094990 -0.180577 0.062069 -0.269953 -0.203757 0.067618 -0.026151 -0.058966 0.078503 -0.026719 -0.115581 -0.043290 -0.253859 -0.183494 0.017891 -0.154479 0.065067 0.023672 0.171055 0.040993 -0.106989 -0.006925 -0.142337 0.075093 -0.052215 -0.030693 -0.121380 0.141823 -0.107968 0.194148 -0.133295 0.165763 -0.051773 -0.186308 0.120061 0.046173 0.186212 -0.096921 -0.026211 0.080789 0.078092 0.083093 -0.177761 0.052216 -0.048195 0.057563 -0.070042 0.083887 -0.064048 -0.033731 0.102793 0.115435 0.020406 -0.121149 0.317046 0.235629 0.048936 -0.098305 0.239207 0.038575 0.040098 -0.015646 -0.199078 0.027230 -0.001421 0.005837 -0.121925 0.055087 -0.010725 -0.225426 -0.030299 -0.033168 0.067922 0.119876 0.229251 -0.058273 -0.119003 0.114153 -0.102412 -0.191132 0.227053 -0.100143 -0.030120 0.040535 -0.130234 0.128035 0.085101 -0.185644 0.007659 -0.059802 -0.098296 -0.092068 0.184934 0.134715
NUM 0.020808 0.051527 0.122402 -0.311933 0.076388 0.170014 -0.052267 -0.077074 0.099515 0.112597 -0.195353 0.102457 0.085805 -0.146864 -0.128942 -0.053661 0.279187 0.142305 0.212928 -0.070225 0.006690 -0.089311 0.251089 -0.276294 -0.036090 -0.048996 0.223677 -0.078577 -0.124411 -0.015881 0.163010 0.167257 -0.143425 -0.062054 0.001002 -0.082539 -0.110094 0.308928 -0.159964 0.042834 0.141590 -0.122340 0.082041 -0.001665 -0.179688 -0.001160 0.006591 -0.161327 -0.164403 -0.190212 0.254285 0.145907 -0.200839 0.017742 -0.165314 0.201358 -0.158560 0.112456 0.060290 -0.043812 0.180631 -0.232587 -0.076536 0.009382 -0.188464 -0.027805 -0.173645 0.274882 -0.245123 -0.000126 0.141524 0.178171 0.042471 -0.180098 0.150935 0.192442 -0.182650 0.130182 -0.009707 -0.020226 0.072930 0.017393 -0.126323 -0.146521 0.147522 0.095468 0.068751 0.023059 -0.302811 0.102542 0.128466 0.051851 0.220830 0.048964 0.207652 0.008261 -0.006023 -0.009485 -0.025313 0.004282 -0.229611 -0.168637 -0.141079 -0.100136 0.108919 -0.044016 -0.161440 -0.012178 0.080412 -0.022213 0.052289 -0.186015 -0.202903 0.140773 -0.101966 -0.333181 0.083847 0.238433 0.026815 0.293555 0.135410 0.275898 0.043258 -0.148484 -0.053501 -0.106829 0.247099 -0.126079 -0.071479 -0.022019 0.059809 -0.145110 -0.251469 0.152486 -0.242766 -0.021842 0.099830 -0.065656 -0.126339 0.198456 0.147422 -0.147679 -0.017443 -0.049441 -0.157158 0.141563 -0.095216 0.148224 0.085702 0.246882 -0.297582 -0.074596 0.035773 0.235250 -0.153834 0.141366 0.090451 -0.141127 0.036284 -0.009039 -0.228463 -0.043886 0.094730 0.208422 0.227996 -0.341003 -0.292207 -0.297664 -0.358383 -0.142677 -0.046838 -0.115962 0.071299 -0.032478 -0.217963 -0.071363 0.183865 -0.105740 -0.029378 0.019721 -0.313878 -0.143454 0.086489 0.168847 -0.164362 0.060341 0.066353 -0.237667 -0.226332 0.126978 -0.139459 -0.127677 0.095010 0.065868 -0.109718 -0.118735 -0.228778 -0.069060 0.368834 -0.032606 0.038901 -0.049502 -0.021380 0.045141 -0.155522 0.073915 -0.001529 -0.320179 -0.096764 -0.108027 0.142491 -0.061491 0.012299 -0.021436 -0.245179 -0.095551 -0.021037 0.084568 0.006716 0.020876 -0.034806 -0.040845 -0.252931 -0.144040 -0.003289 -0.246589 0.193811 -0.107574 -0.168686 -0.163509 0.005439 -0.014417 0.067839 0.217993 0.109110 -0.205014 0.015860 0.065879 -0.166427 -0.028778 -0.089123 -0.099566 0.147242 -0.013257 -0.232937 0.140484 0.291024 -0.210314 0.017436 -0.203503 -0.008445 0.197938 -0.112064 0.452227 -0.031006 0.071608 -0.275582 -0.106371 -0.068622 0.031627 0.140841 -0.124953 0.248162 0.144008 0.020270 -0.021516 0.015431 -0.032970 -0.128239 0.180021 0.041325 -0.044393 -0.055433 0.051921 0.085627 -0.001345 0.000143 0.202577 0.023944 -0.033735 -0.009630 -0.049131 -0.007630 -0.069360 0.032512 -0.145932 -0.017612 -0.027325 -0.059092 0.179351 -0.063284 -0.053950 -0.178186 0.022975 0.014333 -0.204458 -0.050995 -0.079948 -0.205027 -0.068141 0.032533 -0.149369 0.092877 -0.063083 0.044910 0.264262 0.073044 0.036693 -0.102180 0.448556 0.094695 -0.266955 0.338983 -0.104469 0.158749 0.138767 0.168695 -0.221278 -0.021197 0.130126 0.164079 -0.079975 0.137246 -0.059322 0.092582 -0.140610 0.038125 -0.118744 -0.126208 0.162396 -0.034703 -0.182513 0.103855 0.094551 -0.280620 0.138040 -0.223249 -0.102363 -0.085393 -0.015577 0.144975 0.140881 0.208653 0.069019 0.049909 -0.078185 -0.050248 -0.228786 -0.271060 0.061910 0.119222 0.287974 -0.110864 -0.005582 -0.046738 0.092243 0.014058 -0.010573 0.154334 -0.095423 -0.057659 0.146204 -0.076568 0.059126 0.079414 -0.126914 -0.109828 -0.006531 -0.223059 0.037353 -0.199794 -0.022695 0.116948 0.150528 -0.013429 0.062307 -0.240934 0.143683 -0.016616 0.106508 0.015391 0.167918 0.023701 0.136571 -0.033475 0.037966 -0.048506 0.193871 0.173497 0.225136 0.025884 0.218169 0.159343 -0.084087 -0.098930 -0.047366 -0.069242 0.041817 -0.026290 -0.332049 -0.282436 0.064267 -0.040328 0.076893 -0.094476 -0.047753 0.044587 0.146937 0.015873 0.164339 -0.262122 -0.160347 -0.039916 0.156600 0.169100 -0.059201 -0.164533 -0.045497 0.186251 0.276578 -0.287452 0.270132 0.263778 -0.334856 -0.013820 -0.122652 -0.008967 -0.047616 -0.157491 -0.061242 0.393283 0.081351 0.004678 0.119937 0.092392 0.065124 0.108389 0.140157 -0.009282 -0.015612 0.170796 0.131765 -0.182009 0.087239 -0.052321 0.101079 0.242049 -0.173502 0.032267 -0.301265 0.165541 0.127486 -0.065632 0.008668 -0.270319 0.038929 0.014830 0.082263 -0.000723 -0.123327 0.199325 -0.143868 0.031271 0.071394 -0.332405 0.104035 0.053552 0.101022 -0.153995 -0.074269 -0.140909 -0.070880 -0.072562 -0.030777 0.027073 0.105950 -0.210595 -0.369780 0.118589 -0.039231 0.003365 -0.027281 0.048778 0.121242 -0.059696 -0.010620 -0.081660 0.026077 0.144136 0.196142 -0.292799 -0.147954 -0.051203 0.007935 -0.039812 -0.102413 -0.007421 -0.007510 -0.077782 0.135420 -0.079090 -0.280600 0.111412 0.018135 0.161246 0.078391 0.103722 -0.097295 0.163159 -0.044941 0.114512 0.067852
CCONJ 0.102486 0.094151 -0.189975 -0.080867 0.127275 0.074000 -0.034140 -0.091614 -0.083151 -0.047471 0.132719 -0.094097 0.010378 -0.040206 -0.077604 0.004560 -0.001019 0.014748 -0.156135 -0.046280 -0.007731 -0.177704 0.197787 0.084752 -0.172257 -0.179349 0.108546 0.029979 -0.120582 -0.129863 0.017774 0.009909 0.122877 -0.060526 -0.137387 0.039090 0.107356 0.118739 -0.099303 0.196137 0.048109 -0.011292 0.163175 -0.000496 -0.111392 -0.065234 -0.124103 -0.029531 -0.029527 -0.145650 -0.034774 -0.041766 0.001521 -0.018535 -0.097602 0.085224 0.040446 0.102123 0.026509 -0.050406 -0.105868 -0.150944 0.005074 0.067572 -0.024768 -0.031927 -0.214082 0.319587 -0.113266 0.016956 -0.029372 0.110654 -0.189661 -0.126180 0.047453 -0.053260 0.025034 0.137773 0.082939 -0.138339 0.097498 -0.107959 -0.170905 -0.279473 0.151874 -0.165775 0.099113 0.105086 -0.281678 0.117181 -0.152481 -0.123506 0.217270 0.094146 0.165981 0.144722 -0.130187 -0.190380 -0.042628 0.020078 -0.001252 0.040149 0.112369 -0.118417 -0.033531 0.000956 0.004819 0.331593 0.097342 -0.154076 0.033052 -0.160488 -0.022970 -0.015765 0.000101 0.002011 0.046184 -0.172054 0.206907 0.031333 0.115570 0.134275 0.118005 -0.080388 -0.102177 -0.255920 0.064945 0.027830 -0.132972 -0.047679 -0.087276 0.023050 0.058800 -0.154936 0.030671 -0.090782 0.158341 -0.259599 -0.061506 -0.025971 -0.061722 -0.049647 0.022296 -0.167524 -0.101144 0.059060 0.219418 0.049855 0.201001 -0.031019 0.168128 0.257278 0.108409 -0.070153 -0.243169 0.062946 0.032804 -0.079098 -0.006857 -0.042562 -0.207897 0.011839 0.123879 0.082492 0.048098 -0.134674 -0.020192 0.094955 -0.061974 -0.017794 0.027088 0.071337 0.102259 -0.021759 -0.153711 -0.070103 0.078815 0.172578 -0.157256 -0.058011 0.111154 -0.246324 -0.008275 0.058920 -0.258306 -0.225838 0.024520 0.038419 -0.093855 0.062458 -0.060334 -0.008602 -0.001857 -0.066440 -0.127922 -0.125727 -0.186604 -0.046834 0.167366 0.078322 0.184646 -0.035754 0.024778 -0.123939 0.274332 0.041468 -0.057782 -0.088278 -0.028540 -0.020963 0.090807 0.018180 -0.086873 0.043918 0.139419 0.105728 -0.087103 -0.115669 0.086850 0.117276 0.002729 -0.087251 0.002513 0.007027 -0.105908 -0.065339 -0.038031 -0.209651 -0.176788 -0.068323 -0.077576 0.073523 0.128273 0.034257 0.034204 -0.007957 0.053187 0.155886 -0.163230 0.068847 -0.014052 -0.132009 -0.057761 0.023533 -0.093493 0.009288 0.160426 -0.146415 0.033571 -0.006774 -0.056643 -0.020196 0.040503 0.202775 0.047502 -0.010144 -0.032375 -0.112748 -0.273911 -0.052118 -0.029218 0.101189 -0.007760 0.234358 -0.023921 0.109147 -0.066640 0.155529 0.132591 -0.001436 0.032288 -0.100942 -0.091374 -0.033571 0.082987 -0.039444 -0.226231 0.311876 -0.063384 0.140795 -0.168860 -0.038649 -0.045651 0.010367 0.034089 -0.129520 -0.063104 0.107206 -0.039436 0.033913 0.075557 0.024427 0.080010 0.194659 -0.009368 0.013780 0.204392 0.053119 -0.074984 -0.088489 -0.055083 -0.045385 0.048440 0.013401 -0.079211 0.111431 -0.043189 0.078893 -0.187718 -0.070490 0.213560 -0.123171 -0.000844 0.110167 -0.235914 0.012694 -0.248036 -0.050789 -0.067595 0.033185 0.149244 0.135297 0.177439 0.165223 -0.083299 -0.080047 -0.096387 0.031836 0.023182 -0.042418 -0.086644 -0.129288 0.014814 -0.018343 0.041805 0.057534 -0.198487 0.146333 0.053949 -0.166178 0.080852 -0.114534 0.051161 0.173890 0.165712 0.022514 -0.154801 0.250056 -0.146796 -0.088055 0.178800 0.069107 -0.118502 0.075154 0.015858 0.124987 -0.036373 0.103912 0.151043 -0.108470 -0.115807 0.065615 -0.030951 -0.016270 0.146206 0.209581 -0.002669 0.098092 -0.210431 0.034253 -0.010220 -0.137806 -0.006689 -0.006380 0.132027 -0.089029 -0.075721 -0.066316 0.071107 0.073033 -0.001878 -0.062238 -0.010023 0.040244 -0.085375 0.042948 -0.114441 0.072823 -0.069787 -0.015404 -0.036558 0.037125 0.217487 -0.296373 0.046270 -0.000287 0.152488 -0.105390 -0.080943 -0.034159 -0.089681 0.066535 0.078956 -0.058169 -0.134185 -0.067992 -0.001329 -0.150927 0.078920 -0.014499 0.093400 -0.004223 0.053532 0.152675 -0.076601 0.154499 0.050788 -0.059564 -0.006484 0.023586 -0.155673 -0.081100 -0.221365 -0.082822 -0.161132 -0.015880 0.035927 0.084324 -0.196728 -0.170675 -0.044919 0.043516 0.051419 -0.025807 0.075094 0.157912 0.110001 0.068883 -0.123059 0.075635 0.181645 0.011678 -0.199963 -0.177906 -0.256153 0.064273 0.208088 0.049997 -0.120817 -0.020765 -0.125533 0.037305 0.244669 0.081156 0.008077 -0.080930 -0.155628 0.142579 0.055894 0.131591 -0.145565 0.082051 -0.012855 0.053162 -0.198323 0.091943 0.038108 0.022054 -0.114950 -0.041016 -0.165148 -0.181806 0.065220 0.124975 -0.064906 0.089121 -0.027244 -0.165677 0.039937 -0.176798 -0.036260 0.009704 -0.157541 -0.038242 -0.224234 -0.003069 -0.061997 -0.223786 0.022821 0.114257 -0.040617 0.026822 0.007487 0.098785 -0.136553 -0.041096 -0.112073 -0.095838 0.152998 -0.014154 -0.119769 -0.339193 -0.035248 0.094960 0.194156 -0.081637 0.110159 -0.160526 -0.077467 -0.154782 0.208518 0.014950
SCONJ 0.092592 0.071307 -0.213256 0.011441 0.046189 0.001549 0.005232 -0.069166 -0.100085 -0.158453 0.166131 -0.156619 -0.087821 -0.009077 -0.034126 0.074648 -0.120885 -0.037546 -0.228711 0.042261 0.065292 -0.120539 0.183793 0.203362 -0.161710 -0.143161 0.014858 0.024375 -0.097490 -0.151591 -0.010244 -0.033551 0.199887 -0.094604 -0.094317 0.085436 0.131989 0.062110 -0.043355 0.170077 0.042083 0.061311 0.111859 -0.050808 -0.064477 -0.039591 -0.106284 -0.046474 -0.022259 -0.123485 -0.057957 -0.067760 0.084217 -0.010187 -0.095788 0.058429 0.087747 0.074048 0.027995 -0.017202 -0.151364 -0.204852 0.095667 0.160651 0.047395 -0.114697 -0.167078 0.284597 -0.137426 0.035012 -0.056010 0.092192 -0.211600 -0.050246 0.077240 -0.046522 0.057055 0.135100 0.048730 -0.149917 0.070872 -0.165456 -0.144248 -0.210384 0.085995 -0.167565 0.048657 0.090629 -0.294401 0.074786 -0.171959 -0.103725 0.200109 0.082727 0.144442 0.139450 -0.143879 -0.156095 -0.044917 -0.000992 0.003647 0.038500 0.075372 -0.106488 -0.001483 -0.024150 0.000088 0.309434 0.110397 -0.114324 0.056208 -0.123950 0.010179 -0.021077 0.022666 0.030919 0.026362 -0.180975 0.173400 0.030766 0.120260 0.115713 0.087879 -0.027423 -0.110399 -0.168329 0.047815 0.010750 -0.096530 -0.013090 -0.070319 0.040963 0.052380 -0.135282 0.068416 -0.057951 0.110398 -0.207081 -0.093597 -0.050185 -0.022862 -0.045825 0.015638 -0.137915 -0.053977 0.031461 0.174140 0.042570 0.143826 -0.005647 0.138536 0.178739 0.097962 -0.114388 -0.224711 0.018283 0.013049 -0.038161 0.002028 0.009216 -0.128675 0.011217 0.113492 0.021264 0.009574 -0.060115 0.036375 0.088661 0.009380 -0.002009 0.031333 0.072740 0.091435 -0.008540 -0.132105 -0.044302 0.118236 0.221551 -0.153352 -0.080416 0.134322 -0.238631 -0.029128 -0.041476 -0.235283 -0.184964 -0.009707 0.112980 -0.087187 0.067137 -0.035539 0.004430 -0.047126 -0.131900 -0.046723 -0.139745 -0.157815 -0.051234 0.076349 0.084265 0.136601 -0.042031 0.079871 -0.127237 0.318641 0.015853 -0.072669 -0.031252 -0.022414 -0.093022 0.023159 0.083603 -0.166689 0.056692 0.172594 0.121563 -0.099156 -0.224082 0.058811 0.103122 0.029625 0.016798 0.094669 0.070828 -0.089780 -0.014069 -0.110498 -0.181755 -0.124674 -0.018641 -0.019311 0.108110 0.068324 -0.038280 0.044190 0.041429 0.048040 0.095173 -0.133406 0.080631 -0.076261 -0.113787 -0.018602 0.042390 -0.093874 0.009527 0.164004 -0.113108 -0.002904 0.024192 -0.073593 -0.074137 0.100613 0.143124 0.045334 -0.000830 -0.061697 -0.099028 -0.235402 -0.026379 0.021629 0.076029 -0.011866 0.171221 0.009751 0.097561 -0.043855 0.136775 0.144003 -0.026525 0.010376 -0.060607 -0.031467 -0.050113 0.035403 0.036852 -0.114677 0.230090 -0.026497 0.097704 -0.102749 -0.001430 -0.079000 0.061789 -0.004645 -0.042582 -0.054074 0.064067 -0.034474 0.032100 0.036296 0.027961 0.137134 0.122562 0.029465 0.046768 0.170270 0.043864 -0.045255 -0.076038 -0.046888 -0.030917 0.020653 -0.010443 -0.110409 0.073227 -0.050895 0.088561 -0.128125 -0.075259 0.136436 -0.035264 0.005114 0.095296 -0.188397 0.009567 -0.193603 -0.037891 -0.024798 -0.006204 0.051946 0.101953 0.122704 0.062249 -0.058747 -0.080141 -0.108452 0.021305 0.040022 -0.069863 -0.094867 -0.106022 -0.023670 -0.031469 0.044016 0.009730 -0.120630 0.154342 0.046652 -0.121492 0.018282 -0.142095 -0.023259 0.122956 0.161781 0.037778 -0.079913 0.248478 -0.109977 -0.108043 0.177490 0.022763 -0.126956 0.100164 0.024807 0.092021 -0.065314 0.077488 0.179187 -0.078250 -0.103899 0.030060 -0.019630 -0.057219 0.127513 0.186804 -0.055555 0.078378 -0.168152 0.051787 -0.010796 -0.193992 0.020156 -0.075525 0.109332 -0.133290 -0.020326 -0.108274 0.040028 0.044354 -0.057141 -0.102085 0.013553 -0.019081 -0.133328 0.087867 -0.081157 0.074296 -0.181176 -0.050981 -0.035645 -0.030090 0.178910 -0.346875 0.112310 0.008604 0.149233 -0.097161 -0.029377 -0.024765 -0.017002 0.084978 0.079419 -0.096780 -0.112708 -0.100461 0.003302 -0.207911 0.092671 -0.052183 0.143008 0.021761 0.044058 0.117734 -0.075981 0.178754 0.056016 -0.071093 -0.015760 0.032889 -0.123236 -0.149564 -0.202984 0.015404 -0.134513 0.034898 0.053492 0.075189 -0.127769 -0.123586 -0.089884 -0.010075 0.090502 -0.044337 0.054125 0.159746 0.072570 0.050576 -0.085117 0.078851 0.107570 -0.001647 -0.123377 -0.119585 -0.236546 0.081934 0.117069 0.077739 -0.146753 0.031613 -0.125786 -0.016313 0.258577 0.077972 0.044670 -0.084639 -0.129790 0.135795 0.038914 0.101105 -0.127670 0.079925 -0.020160 0.059439 -0.115484 0.056711 0.006521 0.004695 -0.037693 0.024371 -0.072335 -0.181381 0.119940 0.111437 -0.021973 0.031556 0.018304 -0.094627 0.045768 -0.129634 -0.023016 0.021198 -0.115462 -0.012183 -0.160689 0.039554 -0.008067 -0.214050 -0.014679 0.051096 0.046060 0.057395 0.030103 0.028315 -0.127171 0.018530 -0.118363 -0.094280 0.147148 -0.036646 -0.124206 -0.254213 -0.079999 0.039491 0.176816 -0.135631 0.080383 -0.121980 -0.077142 -0.139845 0.189113 0.033166
INTJ -0.065482 -0.032700 -0.022428 -0.046315 0.116724 -0.022561 -0.039635 0.058343 0.035454 0.143764 0.097194 0.155082 0.056122 0.068177 -0.019441 -0.069536 0.001063 -0.065020 -0.022260 -0.035997 -0.084379 -0.127615 0.043601 -0.003420 -0.064076 -0.099139 0.076930 0.099514 -0.036974 -0.051549 0.024904 0.026161 -0.000726 -0.023086 -0.128950 -0.171097 0.097251 0.049015 -0.009486 0.055742 0.041591 -0.050790 0.030462 0.087739 -0.044993 -0.015336 -0.204304 0.040333 -0.077762 0.109937 -0.061828 -0.085386 0.005436 -0.152654 0.042480 -0.017028 0.056562 0.046598 0.023774 -0.077970 0.054739 0.064503 -0.103519 0.044110 0.076519 0.011779 -0.086173 0.010209 0.048609 0.044397 0.011243 -0.010027 -0.144864 0.100617 -0.022339 -0.069417 0.075892 0.074474 0.016057 0.091767 0.067983 0.059380 -0.033431 -0.074221 0.047524 -0.048856 0.033341 -0.179371 0.178075 0.144917 -0.044473 -0.073230 -0.049042 -0.016771 -0.037470 0.099074 0.061581 -0.037829 0.053668 0.010920 0.092993 0.047708 0.138740 0.020921 -0.124878 0.011583 0.058541 0.177749 0.042405 -0.095589 -0.037210 0.005281 -0.060645 -0.067703 0.059978 0.037448 0.014940 -0.084635 0.024908 -0.040533 -0.053595 0.141195 0.045626 0.007901 0.077130 -0.214468 -0.066503 0.131727 0.007750 0.088079 0.031131 0.010629 0.108620 -0.081202 -0.034911 0.005699 0.166967 -0.080838 0.063809 0.041482 -0.148064 0.110346 -0.161949 0.051664 -0.024152 0.130191 0.177951 0.035135 0.046765 -0.094184 0.252618 0.237245 0.030039 0.036828 -0.058627 0.139324 -0.024417 0.045093 -0.039661 -0.107464 -0.137789 -0.048059 -0.027547 -0.001423 0.035689 -0.027205 0.099487 0.233156 0.085153 0.017165 0.086409 -0.011428 0.031364 -0.023861 -0.046695 0.041322 -0.052436 -0.020988 0.007803 0.023786 0.027568 0.077969 -0.108372 0.082863 -0.016782 -0.110029 -0.002169 -0.003892 0.007401 0.014037 0.016803 0.033933 0.083295 0.089391 -0.057545 0.051302 0.068979 -0.044890 0.071425 0.077395 0.022583 0.002849 -0.094817 -0.030330 0.142849 -0.055877 -0.018478 0.023522 -0.003008 0.138977 0.025414 -0.088159 0.207074 -0.070809 -0.055335 -0.030732 -0.002142 0.035436 -0.008407 -0.054251 -0.061459 -0.101814 -0.116535 0.117558 0.134498 0.078849 0.049241 -0.068710 -0.091997 -0.125311 -0.051929 -0.042043 0.011709 0.004588 0.034461 0.002779 -0.007314 0.103202 -0.015669 -0.008123 0.104941 -0.057046 -0.033074 -0.056903 0.008087 -0.144781 -0.036574 0.065126 0.098588 -0.006705 -0.068456 -0.100623 -0.122815 -0.001953 0.048213 0.010942 0.078262 0.175931 -0.019514 -0.023326 -0.053288 0.046101 -0.078740 0.040717 -0.178626 -0.070135 -0.096553 -0.038512 -0.074487 -0.022678 -0.014084 -0.062263 -0.091549 -0.034341 0.043093 -0.034640 -0.111546 -0.016703 -0.089462 0.158315 -0.004715 -0.066852 0.056220 -0.148919 0.119870 -0.048346 0.006338 0.232668 0.053671 -0.076722 0.038542 -0.072668 -0.162253 0.157671 -0.044240 -0.049478 0.045077 0.047524 -0.043679 0.104835 -0.024476 -0.003386 -0.005928 0.114800 0.095996 0.068778 0.052937 0.087881 -0.043969 -0.132965 0.033310 -0.028008 -0.141586 0.067167 -0.029518 0.000119 -0.213442 -0.024001 -0.138981 -0.003040 0.069922 0.128808 0.081430 0.055687 -0.013298 0.028758 -0.018878 0.022334 -0.043960 -0.066018 0.053107 0.039186 0.047079 -0.002200 0.120793 0.031034 0.017545 -0.011025 0.041834 -0.022264 0.064389 -0.037236 0.069335 0.163610 0.073412 -0.054770 -0.191273 0.187766 0.093900 0.114835 -0.002795 0.000569 0.003133 -0.076358 -0.069444 0.012157 0.097201 0.070028 -0.161935 -0.064404 -0.068224 0.134783 0.010055 0.040936 0.046210 0.078996 0.146902 0.168189 -0.085461 0.006386 -0.043847 -0.056468 -0.050062 0.039622 0.042767 -0.036083 0.010364 0.004382 0.066016 0.007653 0.002933 -0.020766 0.093077 -0.009906 0.090331 0.021018 -0.118390 -0.057077 0.115579 -0.156886 -0.025444 -0.008626 0.132808 -0.017550 -0.138615 0.012188 0.199522 -0.024558 -0.101498 0.062645 -0.100601 -0.032243 -0.018156 0.063369 -0.113525 0.007055 -0.073976 0.040259 -0.086878 -0.102392 0.042168 0.056810 0.094961 0.044488 -0.027448 -0.051405 0.066662 0.120272 -0.053020 -0.149657 -0.105011 0.025434 -0.170723 -0.175425 -0.023391 0.018530 0.000460 -0.031438 -0.087978 -0.047885 -0.167077 0.015981 -0.161502 -0.110805 0.001957 -0.107058 0.111944 -0.047835 -0.043026 -0.011615 0.055274 0.016969 -0.085520 -0.107253 -0.103961 -0.024305 0.083635 -0.011040 -0.018490 0.016213 0.012674 0.114052 0.000763 -0.030124 -0.046775 0.036134 -0.019492 -0.006919 0.085780 0.118866 -0.077459 0.081244 -0.048311 -0.029033 -0.002336 0.043699 -0.067893 -0.040292 -0.106148 -0.123751 -0.195892 -0.095821 -0.048428 -0.033422 -0.023725 0.069127 0.040859 0.021550 0.007430 -0.073717 -0.026382 -0.026083 -0.149211 -0.009514 -0.073543 -0.056107 -0.016430 -0.054111 0.057647 0.089105 -0.012433 -0.113084 0.008465 0.162042 -0.129270 -0.020398 -0.113333 -0.063308 0.024627 -0.061022 -0.023032 -0.068954 0.059184 0.102575 -0.013898 -0.029420 0.058021 0.005686 -0.109405 -0.052498 -0.077213 0.063519
<unk> 0.000327 0.000220 0.000339 -0.001639 0.001536 0.001334 -0.000841 -0.000487 -0.000490 0.001453 -0.000892 0.000636 0.001896 -0.001126 -0.001339 -0.001564 0.001638 0.001176 0.000997 -0.001377 -0.001170 -0.002181 0.002101 -0.001567 -0.000991 -0.001980 0.002897 0.000274 -0.001116 -0.000322 0.000489 0.001273 -0.001028 -0.000009 -0.001579 -0.001322 -0.000258 0.001943 -0.001247 0.000135 0.000279 -0.001651 0.001280 0.000487 -0.001854 0.000086 -0.000399 0.000333 0.000000 -0.000903 0.000962 0.000180 -0.001291 -0.000051 -0.001027 0.000158 -0.000787 0.001574 -0.000638 -0.000707 0.001063 -0.000385 -0.001644 -0.000774 -0.001860 0.001499 -0.002512 0.002383 -0.000716 -0.000159 0.000791 0.000424 -0.000259 -0.001752 0.000233 0.000414 -0.000184 0.000949 0.000826 0.000043 0.000973 0.001368 -0.000430 -0.002181 0.001891 0.000349 0.002073 0.000528 -0.000715 0.000802 0.001638 0.000508 0.000828 0.001010 0.000532 -0.000199 0.000294 0.000126 0.000896 0.000213 -0.002543 0.000108 -0.001281 0.000565 -0.000157 0.000817 -0.000098 0.001425 -0.000159 0.000198 0.000006 -0.001107 -0.002259 0.001278 -0.000631 -0.001229 -0.000077 0.001483 0.001057 0.002137 0.000684 0.003080 0.000379 -0.000566 -0.000424 -0.002356 0.001568 -0.000858 -0.000067 0.000463 -0.000623 -0.000397 -0.001197 -0.000014 -0.002140 -0.000324 0.001410 -0.001486 -0.000804 0.000666 0.000975 -0.001160 -0.003300 -0.001316 0.000594 0.001770 0.000542 0.002414 -0.000396 0.001914 0.000945 -0.000798 0.001267 0.000463 0.000449 0.001590 -0.000842 -0.000751 0.001573 -0.000052 -0.002998 -0.000415 0.000565 0.001694 0.002210 -0.003182 -0.001737 -0.001183 -0.002024 -0.000401 0.000680 -0.000831 0.000401 0.000767 -0.001648 -0.000197 0.000913 -0.001381 0.000012 -0.000268 -0.000023 -0.000530 0.000703 0.001426 -0.001779 0.000662 0.001045 -0.002074 -0.001421 0.001510 -0.000019 0.000008 0.001202 0.000900 -0.000641 0.000598 -0.000883 0.000038 0.002518 0.000268 0.000843 0.000206 -0.001014 -0.000013 0.000354 0.000329 0.000389 -0.001581 -0.000185 0.000165 0.002573 -0.001674 0.001378 -0.000240 -0.001115 -0.001206 -0.000515 0.001260 -0.000554 0.000250 -0.000986 -0.002268 -0.003083 -0.000836 -0.000198 -0.000683 0.001814 -0.001421 -0.001452 -0.000437 -0.001401 -0.001393 0.000828 0.001099 0.000179 -0.000518 0.000430 0.001142 -0.001991 -0.000645 0.000748 -0.001695 0.000016 -0.000703 -0.000246 -0.000335 0.000973 -0.001725 -0.000599 -0.002467 -0.000086 0.000471 -0.002841 0.003361 0.000155 0.001679 -0.001355 0.000319 -0.002438 -0.000627 -0.000714 0.000064 0.000537 0.001678 -0.002033 -0.000323 0.000144 0.000839 -0.000350 0.001022 0.000542 -0.000614 -0.000457 0.000381 0.001194 0.000537 0.000498 -0.000320 0.001441 0.001823 -0.001387 -0.000435 -0.000476 -0.000656 0.000069 -0.000865 -0.001120 0.001466 -0.000360 0.002051 -0.000021 -0.002082 -0.000987 0.002452 -0.000494 -0.002118 0.000289 0.000043 -0.001946 -0.000669 0.000447 0.000460 -0.000249 0.000083 0.000723 0.000361 -0.000515 0.001014 -0.001603 0.001925 0.001436 -0.001660 0.001474 -0.000560 0.000243 -0.000665 -0.000725 -0.001197 -0.000565 0.001211 0.001107 -0.000028 0.000590 -0.001689 0.000148 -0.000725 0.000369 -0.000169 -0.000180 0.001011 -0.000326 -0.002236 0.000220 -0.000175 -0.001402 -0.000534 -0.002534 -0.000395 -0.000727 -0.000887 0.001956 0.000025 0.001330 0.001444 0.000360 -0.000359 -0.001412 -0.001935 -0.000595 0.001423 -0.000110 0.002413 -0.000937 -0.000803 -0.001347 0.000220 0.001263 0.000139 0.000688 -0.000519 -0.001517 0.002214 -0.000130 -0.000280 0.001226 0.000113 0.000234 0.001526 -0.002874 0.000272 -0.000780 0.000394 -0.000472 0.002114 0.002057 -0.000179 -0.002870 0.001014 -0.000031 0.001373 0.001007 0.001542 -0.000726 0.001646 0.001013 -0.000685 -0.002996 0.001386 0.001996 0.001191 -0.001355 0.003050 0.001977 -0.000879 -0.001644 -0.000401 -0.000112 0.000065 -0.001429 -0.001872 -0.003750 -0.000539 0.000289 0.000647 -0.001734 0.001040 0.000050 0.000984 -0.000895 0.000273 -0.001565 -0.001505 0.001111 0.000753 0.000966 -0.000982 -0.001260 0.000251 0.000987 0.002501 -0.002507 0.002702 0.000762 -0.001577 -0.000845 0.000217 -0.000536 0.001130 -0.001058 -0.001231 0.002702 0.001936 -0.000350 0.001445 -0.000007 0.000988 -0.000268 -0.000174 0.000170 -0.000130 0.002177 -0.000599 -0.000734 -0.000964 -0.001117 -0.000082 0.003012 -0.001472 0.000480 -0.002109 0.000013 0.002144 0.000159 -0.000040 -0.002230 0.000530 -0.001054 -0.000177 -0.000341 0.000047 0.001035 -0.000470 0.000684 -0.000092 -0.000611 0.000040 0.001480 0.000689 -0.002063 -0.001497 -0.001423 -0.000297 -0.002848 -0.001206 -0.000524 0.001425 -0.002692 -0.002081 0.000877 -0.000605 0.001599 -0.000135 -0.001237 -0.000242 -0.000281 -0.000633 -0.000382 0.000830 0.001364 0.001392 -0.001286 -0.001088 -0.002225 0.001447 0.000277 -0.000869 0.000072 0.000824 -0.001414 0.000585 -0.001075 -0.002646 0.001633 -0.000382 0.001418 0.001411 0.001247 -0.000403 0.000500 -0.000291 -0.000193 -0.000307
