PART -0.032224 0.010414 0.054525 0.078417 -0.008202 -0.076908 0.061323 -0.085542 -0.048275 -0.037804 0.035874 -0.024287 0.053953 0.002075 -0.141192 0.025297 -0.002351 -0.094761 -0.020155 0.029377 0.055050 -0.043592 -0.086672 -0.161017 0.003706 -0.076940 -0.007886 0.049429 -0.027813 -0.030598 -0.017563 0.012395 -0.048976 0.012650 0.042355 0.134576 -0.025504 0.001213 -0.013311 -0.004961 -0.019134 0.079083 0.037192 0.103337 0.051644 -0.086924 -0.084402 -0.062704 -0.016644 -0.056007 -0.001084 0.065584 0.063584 -0.027643 0.042058 0.063263 0.002097 -0.017135 -0.076484 0.084875 -0.005002 -0.043523 -0.099479 0.062982 -0.000448 0.076264 -0.057547 0.000531 0.032235 0.021080 0.008958 -0.089763 0.067564 0.170923 -0.127461 0.126771 0.019143 -0.016556 0.023252 0.106118 0.054810 0.013800 0.031683 -0.001029 -0.058115 -0.047600 0.030514 0.104714 0.014799 0.008404 0.031065 0.043939 -0.004098 0.002160 -0.034305 -0.087261 -0.069890 0.014788 -0.074123 0.195314 0.119421 0.071129 -0.101634 -0.138000 0.067027 -0.051754 -0.108119 0.060887 -0.074199 -0.011994 0.039536 -0.003675 0.003764 0.013885 -0.002257 -0.032557 0.063396 -0.027291 -0.079064 0.041349 -0.007456 -0.005396 -0.018305 0.020422 -0.070743 0.007725 -0.047036 0.090681 0.064312 0.107475 0.073168 -0.005746 -0.067766 -0.142395 -0.000793 0.136868 0.025170 -0.076495 0.028425 0.019265 0.015183 -0.042243 -0.054473 -0.114711 -0.055830 -0.029457 0.078944 -0.066195 -0.014712 0.052925 0.033873 0.042744 -0.016687 -0.196440 0.035216 -0.080494 -0.039574 -0.098145 0.067761 0.205754 0.211793 -0.132251 -0.035007 0.114526 -0.061066 0.007546 -0.052604 -0.065815 -0.003219 0.067985 0.012741 0.079123 0.185237 -0.075376 0.072113 0.042649 0.002492 0.051484 0.042572 -0.039478 -0.148289 0.038099 0.016067 0.076343 0.103738 0.033436 0.200583 -0.070820 0.014524 0.013476 0.024518 0.090952 -0.156829 0.023436 0.042288 0.050179 -0.043555 -0.014867 -0.081486 0.005724 -0.137074 0.032041 0.090723 -0.083844 -0.100352 0.081756 0.046548 0.049044 -0.055225 0.073645 -0.075880 0.061540 -0.094005 -0.174174 -0.021038 -0.009060 0.101530 -0.001626 -0.063441 0.010853 -0.062453 -0.032271 -0.094939 0.024294 -0.122903 -0.015868 0.013468 0.045934 0.053417 0.030523 0.119926 0.023150 0.003564 -0.113434 0.070733 -0.064907 0.074027 0.087918 0.054971 0.036113 0.061086 -0.003932 -0.100001 0.005824 -0.021307 -0.012102 -0.023355 -0.113899 -0.001372 0.052427 0.078750 0.080765 0.075280 -0.094134 -0.107029 -0.247412 -0.087300 0.173698 -0.013069 -0.054643 0.221449 0.157810 0.042428 -0.233702 -0.000966 -0.003192 0.125964 0.179675 -0.031734 -0.092525 -0.139193 0.005399 0.030598 -0.010356 -0.153157 0.038808 0.012926 -0.021509 -0.016845 -0.023311 0.011515 0.015514 -0.028973 0.108101 -0.089475 0.075046 -0.005431 0.040028 -0.014494 -0.020529 0.013264 -0.041598 -0.172136 -0.190652 -0.007514 0.078716 -0.013316 -0.082569 -0.038136 -0.036661 -0.005160 0.165690 -0.035406 0.017718 0.018490 0.016015 -0.015710 0.091158 -0.040124 -0.023219 -0.026003 0.123437 -0.031613 -0.099817 -0.017747 -0.028821 0.015644 -0.040478 0.067905 -0.091390 -0.222823 -0.081144 0.039444 -0.002923 0.000832 0.044301 -0.126869 0.018201 0.139009 0.065323 -0.089132 0.040736 -0.065151 -0.097338 0.068507 0.033331 0.107860 0.281581 -0.076324 -0.094360 0.073642 -0.067110 -0.100021 -0.141158 0.077952 -0.031015 0.018975 -0.019624 -0.133880 0.024285 0.086238 -0.051999 0.061106 0.003527 -0.018529 -0.065468 -0.036484 0.065057 0.049677 -0.052026 0.068508 0.049774 -0.019115 -0.111009 0.022769 0.181363 -0.110993 -0.099649 0.023880 0.161570 0.030244 -0.017882 0.061513 -0.028020 0.052109 -0.061890 -0.007364 -0.171648 -0.068321 0.002785 0.005619 0.059249 -0.009344 0.018545 -0.170497 -0.141503 -0.087457 -0.095604 -0.024127 0.003874 0.036874 0.114989 -0.017240 0.021105 -0.214422 0.134221 0.054478 0.104364 0.021421 -0.025942 -0.116239 -0.057115 -0.041306 -0.353063 -0.055052 0.025301 0.003178 0.108009 -0.096355 0.077684 0.006990 -0.048539 0.092662 0.022057 0.077781 -0.080373 0.046858 0.000557 0.075169 -0.079897 -0.086400 0.143946 0.057584 0.060677 0.132359 0.083164 -0.099210 -0.039847 -0.040582 -0.113058 0.159059 0.235314 -0.069412 -0.066246 -0.033074 0.027761 -0.110402 0.043257 0.107231 0.126837 -0.148236 -0.017809 -0.013630 -0.097616 0.002534 0.102415 0.062260 0.051064 -0.161329 -0.070491 -0.210007 0.021845 -0.098290 0.027792 -0.061295 -0.128292 -0.032739 0.029576 0.023374 -0.225900 -0.022404 0.065169 -0.069635 0.069429 -0.067770 -0.042022 0.011662 0.122300 0.133195 0.014938 0.000114 -0.092354 0.039606 0.015819 0.007824 0.122541 -0.090079 0.143190 0.096228 -0.012471 -0.150140 -0.026956 0.012730 -0.054134 0.051435 0.073401 -0.101448 -0.040123 -0.015956 0.013011 0.026450 0.079932 0.058392 -0.025564 -0.037438 -0.051410 0.137073 -0.053576 0.119087 0.080870 -0.053649 0.025668 -0.008232 -0.061146 -0.015161 0.004202 -0.125702 0.032790 0.145097 0.008860 -0.043148 0.166142
PUNCT -0.086694 0.109955 0.035395 0.019422 0.009126 0.112400 0.054097 -0.103389 0.049140 0.029297 0.014715 -0.072884 -0.061178 -0.014976 0.057705 0.025431 -0.025902 -0.016042 -0.003915 0.091714 0.049659 0.001918 -0.016760 0.036141 0.010292 0.030659 -0.008857 0.021093 -0.043348 -0.019275 -0.069916 0.017777 -0.085166 -0.035244 0.002318 -0.036541 0.048206 -0.000380 -0.068339 -0.064199 0.055595 0.006252 0.032385 -0.022456 0.019129 -0.010734 0.040112 0.023409 -0.034271 0.056051 0.044912 -0.009841 0.016309 0.035115 -0.040335 -0.034499 0.037143 0.031691 -0.037069 0.065679 -0.080400 0.050899 0.001150 -0.053247 -0.061534 -0.018351 0.040567 -0.094916 0.033764 0.005810 -0.029009 -0.000776 -0.024557 0.035307 -0.038162 -0.016063 -0.004728 -0.052109 0.008772 0.039971 -0.126482 0.067885 -0.005295 0.043085 -0.029554 0.049776 0.011290 0.034789 -0.011344 0.001767 0.039806 0.034028 -0.047503 0.046518 -0.022077 0.000525 0.021330 0.032832 0.040385 -0.034942 0.091947 -0.005492 -0.160929 -0.015622 -0.032617 -0.048714 -0.038813 0.041386 -0.040753 -0.052573 0.017646 -0.018056 -0.106596 -0.047007 0.006052 0.033372 0.043281 -0.054583 -0.057685 -0.096976 -0.079959 0.111602 0.096728 -0.013411 -0.009567 0.020313 -0.022980 0.017029 -0.020821 -0.037908 -0.064164 -0.029309 -0.053135 0.094795 -0.044070 -0.163196 0.043885 -0.052161 0.081413 -0.070397 0.053526 0.018524 -0.051214 0.054393 -0.005331 0.027948 -0.083701 0.010148 0.029416 -0.011682 -0.046134 -0.082507 0.067637 0.035608 0.000267 -0.040452 -0.074401 -0.012845 0.015366 0.076075 0.095269 0.023289 0.004400 -0.017231 0.027577 -0.013007 0.012182 0.024638 0.047706 -0.063844 0.047057 0.002836 0.027033 -0.006566 0.020050 0.002051 0.037662 -0.084759 -0.011911 0.069594 0.033445 0.075310 -0.058872 0.079598 -0.000898 -0.023770 -0.026934 0.050795 0.087380 0.052812 0.087771 0.037174 -0.048963 0.060135 0.004030 0.158771 -0.002841 -0.026318 -0.030942 -0.023683 0.064679 0.093997 0.026496 0.050654 0.006344 0.012763 -0.024624 0.008028 -0.019183 -0.007232 0.004966 0.114806 0.014399 0.010066 -0.070574 -0.024488 -0.005980 -0.004826 0.008840 0.062512 -0.065152 0.020267 0.010205 -0.041364 0.029448 -0.103150 0.025823 -0.025627 0.027390 0.029450 -0.041392 -0.015102 0.005984 0.099759 0.020637 -0.026373 -0.063286 0.053154 0.041242 -0.088427 -0.046621 0.086824 -0.009710 -0.034499 -0.043595 -0.015911 -0.041858 -0.052533 0.054662 -0.061184 0.008695 0.001632 -0.032770 0.040530 -0.086788 -0.120522 -0.007107 0.029707 0.046668 -0.001691 -0.011866 0.013658 0.005555 -0.077970 0.087634 -0.033488 0.080326 -0.064535 0.019413 -0.035196 -0.116087 -0.002327 0.033482 0.021028 -0.076457 -0.004689 -0.037463 0.030244 0.053222 -0.028080 -0.010291 0.011553 -0.069071 0.004151 -0.054670 0.033573 -0.014593 0.103036 0.058225 -0.034579 -0.080455 0.023552 0.018322 0.038950 0.001538 -0.028564 -0.105366 0.010320 0.032156 0.105977 0.057458 0.106162 0.020945 0.032998 -0.022214 -0.032011 0.023448 -0.001863 -0.014243 -0.013365 -0.006345 0.074482 0.025376 -0.010677 -0.021243 0.015913 -0.039929 0.029647 -0.005021 -0.029727 0.011115 -0.038388 -0.063806 -0.005072 -0.056437 -0.018448 -0.021581 0.076866 0.082346 0.079845 -0.024590 -0.023569 -0.027140 -0.021902 0.008998 -0.035076 0.009158 0.078524 0.035304 0.070186 -0.026944 0.016243 -0.070822 -0.006261 -0.027880 -0.047561 -0.084550 -0.036412 0.035548 0.086027 -0.012893 -0.018513 -0.010600 0.056051 0.058765 0.038747 -0.010325 -0.022625 0.018888 -0.047492 0.060821 -0.007101 0.007741 0.001725 -0.084373 0.010919 0.082014 0.044246 0.068235 -0.006964 0.068252 0.015842 0.057533 0.015712 -0.030073 -0.053686 -0.106951 0.070872 0.024110 0.088449 0.022694 -0.026284 0.006853 -0.003693 -0.083204 -0.062782 -0.046534 -0.029803 -0.035748 0.049308 -0.060708 -0.042283 0.022921 -0.039802 -0.007152 0.037969 -0.067222 -0.016304 -0.102367 -0.052509 0.063323 -0.023684 0.006398 -0.017181 -0.016728 -0.095582 0.011450 0.097904 0.132100 0.032827 -0.072010 0.025353 -0.024151 0.096675 -0.006956 -0.072886 0.077366 0.048237 0.009034 0.031731 0.072256 -0.122130 -0.098748 0.037285 0.111701 0.038385 -0.023068 0.101533 -0.027924 0.051424 0.068737 0.067318 0.002377 0.043244 -0.072769 -0.037211 -0.074582 -0.030000 0.065345 0.146756 0.000664 -0.061318 -0.011667 0.026328 -0.064291 -0.125473 0.086265 0.081000 0.047081 -0.051666 -0.107307 0.023803 -0.021917 -0.015841 0.071762 -0.033310 -0.053798 -0.151294 -0.107174 -0.015240 0.002164 0.022027 -0.016656 -0.005277 -0.016628 -0.171263 -0.048268 -0.033364 -0.041011 0.022395 0.003413 -0.057573 0.149681 0.000824 -0.049617 0.139606 -0.084648 -0.067062 0.037535 -0.025608 -0.073754 0.001471 0.068677 0.064725 0.116937 0.040339 0.029094 0.094020 0.048284 0.012656 0.068039 -0.066298 -0.004504 -0.098178 -0.014557 0.029118 -0.021339 0.008907 0.011932 0.012939 -0.003787 -0.000781 -0.000392 0.028546 -0.015364 -0.131657 0.031073 -0.016963 0.005645 -0.047368 0.034957 -0.031962
VERB -0.089560 -0.072475 0.095118 0.013421 0.010220 -0.010852 -0.114297 -0.037833 0.034604 0.077839 0.020687 -0.046397 -0.066609 -0.016194 -0.048407 0.097318 0.074284 0.089094 0.013827 0.113428 0.030841 0.130905 -0.113984 0.093472 0.163028 -0.073237 -0.063874 0.105532 -0.033590 0.088169 -0.006119 -0.044916 -0.137907 0.038638 0.049688 -0.072605 -0.112860 -0.086145 -0.046098 0.050208 0.020170 0.061257 -0.031892 0.103222 -0.009432 0.075787 0.041667 -0.012577 -0.092861 -0.039437 -0.005658 0.134115 0.153275 0.031801 -0.007131 -0.131952 0.027591 0.187578 0.123941 0.020497 0.010452 0.009306 0.049100 0.074766 0.042132 -0.052473 0.007109 0.125977 0.043890 0.018688 -0.020205 -0.026488 -0.047123 0.023246 0.026308 0.025776 -0.046246 -0.000870 0.017550 0.066299 0.064268 0.029427 -0.005152 -0.041780 0.030554 -0.064546 0.033028 -0.017644 0.030714 0.007985 -0.137457 -0.035890 0.133442 0.100245 -0.055783 -0.062483 0.039797 0.091177 0.089903 0.053672 0.054706 0.049814 0.042795 -0.005666 0.103441 -0.043305 -0.072641 -0.040514 0.028184 0.119028 0.014485 -0.036156 -0.001835 -0.035786 -0.018288 -0.035422 0.060611 -0.031615 0.124449 -0.019210 -0.009014 0.001766 -0.009548 0.030980 0.078698 0.053379 -0.008481 0.088841 -0.033951 -0.095889 -0.034172 0.011177 -0.021247 -0.010213 0.003717 0.052069 0.042321 -0.009182 -0.044136 0.029459 0.044240 -0.088713 0.083142 -0.031674 -0.055263 -0.088366 0.112938 -0.034154 0.051436 -0.040494 0.145593 0.009578 0.001069 -0.034471 -0.005740 0.013074 0.075802 -0.061885 -0.092135 0.067474 -0.046650 -0.057422 0.014294 0.031672 0.043347 -0.008190 0.029309 -0.001722 -0.072436 0.037909 0.035937 -0.060078 0.041492 -0.077523 0.026884 0.060742 0.066855 0.110779 -0.008559 -0.049382 -0.031895 0.041784 -0.012010 0.000755 0.056105 -0.056608 0.013812 0.000110 -0.082486 -0.061141 0.115251 -0.026475 0.031582 -0.048198 0.007347 -0.005400 0.014732 -0.053420 -0.043159 0.012253 -0.045323 0.072085 0.024293 -0.021736 0.073366 -0.049343 -0.051687 0.000955 0.014556 -0.006017 -0.036420 0.065547 -0.004991 -0.028195 0.012063 0.018951 -0.093911 -0.063629 0.009448 -0.019255 -0.003497 -0.113227 -0.015348 -0.035793 -0.080128 -0.005825 -0.002945 -0.011544 0.032791 0.075441 -0.042384 0.024532 0.064710 0.000939 0.066588 -0.035895 -0.037098 0.056598 0.038039 0.008964 0.059897 0.074918 -0.040574 -0.024102 0.016777 0.034375 0.022331 0.000274 0.071326 -0.043344 0.053297 -0.028696 0.024758 -0.039410 0.040980 -0.010592 0.015895 -0.016519 -0.062827 -0.075189 0.024576 0.109919 0.014764 -0.070915 0.014235 -0.057119 -0.023691 0.112376 -0.007944 -0.035349 -0.022505 0.059144 -0.020284 0.052759 -0.058267 0.012796 0.040224 0.077547 -0.038698 0.015453 -0.054368 -0.105804 0.009766 0.033695 -0.055064 -0.009865 -0.043754 0.047118 -0.017266 0.046955 -0.019121 0.008023 0.071552 -0.017120 -0.040033 -0.020126 0.105212 0.006782 -0.063900 -0.017481 0.004589 0.107132 0.031379 -0.118149 -0.058010 0.023467 0.048691 -0.050990 0.065136 -0.049304 0.001640 0.019782 -0.006519 -0.037166 0.087301 0.020299 -0.080386 0.088081 -0.025862 0.006703 -0.155678 0.074250 0.051821 -0.034215 -0.037872 0.004101 -0.041200 0.016624 0.023044 0.006315 0.050947 0.014987 0.020186 -0.067694 -0.046244 0.041785 0.062942 0.184624 0.039837 -0.085317 0.009860 0.068734 -0.030878 -0.019048 0.041347 0.026179 -0.025552 0.090170 -0.102008 0.106117 0.067101 0.025464 -0.059411 -0.017161 -0.054848 -0.003998 -0.060335 0.004302 0.013085 -0.071497 -0.112887 -0.057614 -0.064587 -0.028523 -0.007610 0.046913 -0.020648 0.003176 -0.038006 0.174515 0.032812 -0.013879 0.010787 0.062371 -0.031511 -0.003086 0.013139 -0.043527 0.000998 -0.101251 -0.027668 0.056035 0.084310 0.019608 -0.058395 -0.019589 0.066492 0.010022 -0.010618 -0.025921 0.023521 0.049087 0.092035 0.019686 -0.041752 0.058411 -0.082878 0.067098 -0.027876 0.013206 -0.024669 -0.080177 -0.012026 -0.037557 -0.023484 0.015547 -0.026119 0.007357 -0.063595 0.016190 0.037269 0.034830 0.039074 0.012830 -0.102347 -0.051140 -0.011267 0.005796 0.013792 -0.037995 -0.022325 -0.044459 0.060795 -0.068153 0.082829 -0.032190 -0.038983 0.020550 0.005591 -0.033198 0.079927 -0.011492 0.058665 -0.112800 -0.011942 0.030569 0.022495 0.019004 -0.058747 0.030513 -0.063357 -0.012717 0.002484 0.031725 0.035008 0.039388 -0.012604 -0.039233 0.027999 -0.030513 -0.013542 0.007060 -0.054101 0.070923 0.062354 0.004235 0.009506 -0.012138 0.027996 0.002780 -0.020841 -0.024291 0.068455 0.039172 -0.027229 -0.045963 0.016590 0.109651 -0.050222 -0.045949 -0.024134 0.020655 -0.003740 0.010824 0.023159 -0.080582 0.039133 0.009279 0.031271 0.020288 0.070133 -0.015218 0.030978 0.000821 0.000584 -0.003984 -0.056894 -0.022380 0.076820 -0.051672 0.044063 0.014071 -0.018590 0.120484 0.033623 0.001030 0.062548 -0.021022 -0.066804 0.044371 -0.013095 -0.009534 0.006697 0.024505 -0.029281 0.033341 -0.011472 -0.017863 0.028238 -0.020699 -0.063602 0.032306
NOUN -0.063822 0.028801 0.068465 0.007697 0.004147 -0.095992 -0.057178 -0.195093 0.027651 -0.006333 -0.007885 -0.047524 -0.019085 0.079099 -0.088559 0.092828 0.054650 -0.015426 -0.022990 0.106900 0.087321 -0.005252 -0.118591 -0.034882 0.107617 -0.135859 -0.040173 0.130397 -0.027592 0.064724 -0.051398 -0.035661 -0.041146 0.047050 -0.016785 0.011914 -0.087192 -0.041988 0.008860 -0.010996 0.108372 -0.012711 -0.106236 0.077519 0.037626 0.167712 0.025119 -0.050543 -0.047836 -0.001707 -0.035418 0.131239 -0.106525 -0.019107 -0.085980 -0.150649 0.076037 0.221061 0.082447 0.079578 0.069292 0.033288 0.073937 0.024170 -0.028446 -0.027323 0.082669 0.063211 0.137484 0.013699 -0.071712 -0.032673 -0.032487 0.034028 -0.010919 0.025304 0.029727 0.030052 0.023023 0.076530 0.042730 -0.032637 0.006042 -0.068262 0.037442 -0.022713 0.109941 0.085647 0.028604 0.052571 -0.076420 -0.093888 0.009420 0.143608 -0.025552 -0.041544 0.124796 -0.021346 0.084293 0.108152 0.109762 0.002664 -0.069725 -0.098160 -0.029218 -0.055405 -0.137803 -0.021375 -0.084160 0.110458 0.012687 -0.092784 -0.055567 -0.061920 -0.057255 -0.044833 0.078321 -0.154269 0.008263 -0.076494 0.000893 0.044032 0.005828 -0.057563 0.025614 -0.008508 0.059488 0.120251 -0.031140 -0.103232 -0.051804 0.041422 -0.046557 -0.049026 -0.059575 -0.071596 0.052952 -0.019538 0.059845 -0.011920 0.142291 0.034943 -0.006814 0.068248 -0.022589 -0.058855 -0.034884 -0.036295 -0.024924 -0.044264 0.091875 0.100193 -0.026168 -0.082579 -0.049272 -0.022838 -0.019778 -0.059625 -0.033378 0.057498 -0.069482 -0.085506 0.020296 0.043416 -0.050183 0.075110 0.051320 -0.022873 0.002344 0.013098 0.019269 -0.047319 -0.048147 -0.011186 -0.092871 0.095545 0.053450 0.048503 -0.012067 0.010536 -0.076221 0.039795 -0.089354 -0.052600 0.050709 -0.107423 -0.021599 -0.121240 -0.024497 0.006041 0.071099 -0.080877 0.017752 0.046596 0.092260 0.074133 -0.038565 0.015025 -0.054369 -0.037673 -0.031599 0.103559 0.078599 -0.086489 0.180500 -0.026055 0.121011 0.033765 -0.024639 -0.014981 0.108712 0.269993 -0.062061 0.029327 -0.015191 -0.023009 -0.067177 -0.092864 0.052693 -0.041408 -0.169314 -0.040244 -0.004738 -0.053502 -0.116733 0.000558 -0.018824 -0.091175 0.089659 0.187733 -0.006763 -0.020597 0.131240 -0.094473 -0.066647 -0.076442 -0.099909 0.028834 0.002115 -0.070703 0.040403 0.130297 -0.045922 0.079981 0.058678 0.064473 0.005420 -0.017518 0.040374 -0.016005 -0.062875 0.037275 -0.002720 -0.013028 -0.048900 0.035037 -0.038443 0.096675 -0.146124 -0.132474 -0.057203 0.063594 0.003222 0.028019 -0.036202 -0.027739 -0.036216 0.125025 -0.051352 -0.065185 -0.027308 0.015195 -0.024888 0.030107 -0.066466 -0.069514 0.024219 0.115928 -0.011546 0.082578 -0.025487 -0.018117 0.032072 0.046522 -0.031480 0.012874 0.022443 0.122761 -0.016458 0.023746 -0.045954 0.039113 0.059622 -0.060235 -0.054308 0.002794 0.071181 -0.111434 0.127052 -0.073348 0.065189 -0.011894 0.053350 -0.101774 -0.007988 -0.104736 0.092117 0.022501 0.010053 -0.122273 -0.043881 -0.040571 -0.027394 -0.030461 0.114402 0.031997 -0.023342 0.014878 -0.068244 0.079310 -0.086513 -0.003523 0.026759 -0.058494 0.041178 0.022928 -0.096458 0.032316 0.053468 0.028901 -0.059256 -0.005943 -0.000403 -0.082094 -0.065799 0.066293 0.033284 0.076194 0.090322 -0.045180 -0.018222 0.082309 -0.013068 0.006731 0.023052 0.037803 -0.046534 0.021388 -0.070845 0.013025 -0.012932 0.039160 -0.113276 -0.011957 -0.017316 0.062548 0.020903 0.055679 0.014153 -0.047741 -0.074430 -0.043878 -0.006771 -0.119666 -0.075789 0.100932 0.006328 0.079756 0.042287 0.191277 -0.015637 -0.067682 0.043715 -0.012941 -0.031156 -0.017786 -0.151871 -0.090742 0.038083 0.036163 0.096505 0.129202 0.124569 0.010865 -0.151683 -0.033798 0.038824 -0.030449 0.011320 0.042407 0.042016 -0.035324 -0.063652 0.059284 -0.053072 0.048955 -0.101794 -0.014599 -0.097180 0.044793 0.025076 0.003456 -0.012810 0.024318 0.016918 -0.037769 -0.033716 -0.039613 0.014957 0.032403 0.111356 0.032805 -0.011668 0.009686 -0.053677 -0.054946 -0.019378 0.046652 0.138518 -0.020806 -0.022970 0.019573 0.009723 -0.182305 -0.019450 0.002482 0.089273 0.034909 -0.045014 -0.050416 0.017178 0.055798 0.082620 -0.120525 -0.011012 0.016262 0.008592 0.074387 0.000155 0.105202 -0.033184 0.061411 -0.033730 0.033701 0.068668 0.041198 -0.065374 -0.026521 -0.002843 -0.091227 -0.006587 -0.057805 0.016452 0.108656 0.076540 -0.121880 0.003775 -0.037401 0.020446 0.056958 -0.029611 0.022181 0.086734 0.065256 -0.043737 0.035890 0.050033 0.077090 -0.014611 0.074582 -0.009574 -0.033120 0.158221 -0.009931 0.106577 -0.050939 -0.024764 0.021286 0.020563 0.072142 0.068898 -0.049492 -0.048913 -0.021640 0.016344 0.017184 -0.030376 0.018867 0.136124 -0.004740 0.016479 -0.058618 -0.066056 0.116496 0.007434 -0.028581 0.116552 -0.032859 -0.074953 0.091717 -0.067966 -0.009968 0.004581 -0.006165 -0.035761 -0.037582 0.039213 0.108883 0.068381 -0.113046 -0.040998 -0.000626
PRON -0.122949 -0.048827 0.068848 0.036096 0.031312 0.056723 0.052417 -0.024338 0.037511 0.067516 0.118975 -0.050766 -0.002855 -0.018289 -0.062547 0.067948 0.010925 0.006939 -0.012564 0.047041 0.105887 0.103249 -0.072268 0.024270 0.135552 0.009880 -0.055639 0.094757 -0.090927 0.023529 -0.040482 -0.014972 -0.252623 -0.010113 0.061998 0.061735 -0.060639 -0.050187 -0.098757 -0.014459 -0.038459 0.043123 0.078084 0.087941 0.031225 -0.057793 -0.034026 -0.028326 -0.048515 -0.000798 -0.048120 0.088579 0.155842 0.028658 0.060877 -0.011098 -0.001154 0.072880 0.012148 0.034526 -0.052910 -0.047803 -0.054704 0.096874 0.007250 0.063011 -0.023585 0.005842 -0.025292 -0.010105 0.032179 -0.097715 0.074699 0.176579 -0.063752 0.136848 -0.008337 -0.070188 0.083814 0.105233 0.006771 0.142451 0.024153 0.004804 -0.058650 -0.021657 0.000096 0.028759 -0.003233 0.046175 0.015386 0.039894 0.054293 0.045850 -0.065036 0.010857 -0.145565 0.106064 0.006580 0.140926 0.108914 0.055499 -0.068268 -0.051207 0.136755 -0.016460 -0.105501 0.005999 -0.022717 0.018944 0.162781 0.036216 -0.098094 -0.082293 0.068205 0.066243 0.079716 -0.005375 0.037578 0.007123 -0.046148 -0.040158 0.020603 -0.034536 0.081017 -0.009562 -0.055083 0.048571 0.021543 -0.009346 -0.023221 0.049795 -0.071126 -0.068538 -0.026895 0.113087 -0.042176 -0.080383 -0.006624 0.053785 0.001120 -0.165037 0.049489 -0.146736 -0.042098 -0.057254 0.128334 -0.046361 0.028030 0.007103 0.095752 -0.091726 0.015683 -0.087170 0.065036 -0.138579 0.050756 -0.080065 0.015772 0.175391 0.224367 -0.159102 -0.046114 0.079900 -0.015598 -0.093876 -0.028461 -0.071820 -0.024098 0.093903 0.002864 0.053360 0.232974 -0.089102 0.105420 0.020025 -0.028937 0.045212 0.023325 -0.050339 -0.025992 0.031442 0.085439 0.168073 0.101096 -0.006130 0.141981 0.034896 0.031228 -0.012812 0.101070 0.158017 -0.110027 -0.068779 0.032502 0.064407 -0.019004 -0.070683 -0.115226 0.127161 -0.143528 -0.057533 0.092117 -0.042896 -0.085061 0.109249 -0.075077 -0.010544 0.038803 0.068068 -0.073818 0.127339 0.017077 -0.182018 -0.076414 -0.005865 0.042736 0.001871 -0.042688 0.068533 -0.017122 -0.077477 -0.080154 0.015224 -0.067382 -0.104115 -0.020593 0.069225 0.111602 -0.137687 0.047162 0.030521 -0.052968 0.011844 0.245684 -0.034953 0.089489 0.145369 0.095986 0.027175 0.016175 0.017531 -0.072384 -0.082763 -0.012093 0.059608 0.053559 -0.055237 0.123844 -0.051265 0.100724 0.015843 0.029879 -0.049346 0.003269 -0.258780 -0.070465 0.113191 0.035717 -0.030335 0.169207 0.157857 -0.003848 -0.241600 0.011439 -0.071837 0.168748 0.104931 -0.009278 -0.034902 -0.162125 0.012578 -0.016799 -0.006527 -0.158148 0.097585 0.032209 0.085529 -0.018287 -0.093277 -0.031332 -0.089632 -0.087378 0.091895 -0.100644 0.012266 -0.039734 0.040684 -0.039433 -0.018754 0.005737 0.011998 -0.062074 -0.133660 0.012112 0.028002 0.037216 0.008660 -0.085162 -0.002388 -0.008474 0.145224 -0.056669 0.000035 -0.053567 0.001680 -0.024411 -0.036458 0.005867 -0.045917 -0.011217 0.110102 -0.034156 -0.122437 -0.025867 0.031001 -0.028311 0.024820 0.021740 -0.084085 -0.178920 -0.064804 -0.003187 0.003530 -0.144668 0.039052 -0.139142 0.065938 0.157021 0.073393 0.068474 0.077395 -0.148980 -0.075012 0.031828 0.013088 0.115994 0.249011 -0.063685 -0.079909 0.126013 -0.053387 -0.178296 -0.136809 0.080221 -0.101921 0.039156 0.016940 -0.109768 0.130847 0.145393 -0.042239 0.035331 0.012024 -0.008747 -0.055447 -0.145796 0.079943 0.070709 -0.107665 0.022147 0.016181 -0.061075 -0.096105 0.008425 0.172507 0.015004 -0.065271 0.059789 0.186123 0.172129 -0.012336 0.113362 0.096836 0.010819 -0.074895 0.016267 -0.081160 -0.069317 -0.141131 -0.049638 0.080652 0.054101 0.026629 -0.132054 -0.195682 0.031948 0.000739 -0.101180 0.003022 0.028712 0.060697 0.073827 -0.025424 -0.122629 0.131035 0.072617 0.099681 -0.026145 -0.060512 -0.092252 -0.146054 -0.049290 -0.259352 -0.206432 -0.039060 0.028058 0.105334 -0.020527 0.040478 -0.083457 -0.052234 0.089404 0.052239 0.063221 -0.101807 0.087113 0.038907 -0.008810 -0.060778 -0.070277 0.025400 0.007201 0.131097 0.244657 0.026578 -0.140502 -0.028494 0.021423 -0.105616 0.182980 0.172944 -0.071832 0.003499 -0.062748 0.017227 -0.181284 0.024579 0.071063 0.136834 -0.189396 -0.091043 0.069749 -0.038523 -0.079267 0.035542 0.118789 0.070832 -0.059575 -0.047638 -0.364389 0.028272 -0.162427 -0.027353 0.023537 -0.026419 -0.085639 -0.131131 -0.035405 -0.201026 -0.036183 0.028778 -0.109321 0.120738 -0.106084 -0.283471 0.011184 0.260272 -0.017701 -0.159959 -0.047083 -0.149902 0.103757 0.005570 -0.143165 0.259483 -0.132198 0.199254 0.124473 -0.049255 -0.199216 -0.009483 0.075981 -0.034871 0.185222 0.071225 -0.002733 0.005301 0.136743 0.086285 0.252094 -0.093782 0.145062 -0.002193 0.067998 -0.069312 0.243229 0.003372 0.173053 0.142839 0.053511 0.001333 -0.004392 -0.020401 0.053518 -0.065996 -0.130023 -0.034197 0.163907 -0.116508 0.002861 0.144204
AUX -0.107253 0.006489 -0.192930 0.156969 0.080065 0.049827 -0.206978 0.303558 0.076135 0.170071 0.151999 -0.177661 -0.225081 -0.028975 -0.076243 0.028603 0.002989 -0.040204 0.107243 -0.010985 0.149197 0.142270 -0.245837 -0.042864 0.091577 0.110409 -0.010967 -0.002236 -0.229173 0.224598 0.059428 0.086657 -0.173149 -0.002481 0.037323 -0.157251 0.033692 -0.133587 -0.276479 0.096076 0.017254 0.086724 -0.143998 0.132635 -0.165051 -0.124438 -0.096204 0.057488 -0.185325 0.041717 0.062684 0.013941 0.299852 -0.114836 -0.069528 -0.121339 0.042286 0.086831 0.067721 -0.090169 -0.008100 0.107639 0.127711 0.011289 0.136720 0.162861 0.095260 -0.055520 -0.061172 -0.007711 0.061631 0.044027 -0.108656 0.070108 0.012386 0.164157 -0.038897 -0.131790 -0.020056 0.011450 -0.095118 0.016830 0.081149 0.051175 0.073570 -0.230904 -0.056420 -0.066507 -0.070473 -0.083095 -0.214784 -0.097807 0.179067 -0.014585 -0.098704 -0.037274 -0.181938 0.067822 -0.007556 0.093930 0.057875 -0.001507 -0.090728 -0.095561 -0.065001 -0.155048 -0.112880 -0.055108 0.084393 -0.040556 -0.075422 -0.037907 -0.050002 -0.077187 0.070851 0.104492 0.075460 0.019212 -0.072694 -0.237219 0.012274 0.100699 0.086901 0.061568 0.117419 0.043241 -0.061587 0.215639 -0.102271 -0.022210 -0.029356 0.091643 -0.056525 0.123041 0.082716 -0.181683 -0.118237 -0.037017 -0.128126 -0.086842 0.076576 -0.076742 0.120949 0.047233 0.072089 0.108792 -0.037858 0.092243 0.098022 -0.024972 0.153150 0.033219 -0.195062 -0.063038 -0.015581 -0.122430 -0.002902 -0.044850 -0.159451 -0.036462 0.250675 -0.215359 0.054313 0.026967 0.129391 0.124865 0.028821 -0.016638 0.046952 0.105261 0.163198 0.012760 0.239059 -0.059781 0.289205 -0.097048 0.110484 0.032179 -0.094542 0.144704 -0.035473 0.067620 0.096548 0.054701 0.148876 -0.058497 -0.149668 0.009616 0.187886 -0.189273 0.124934 -0.034598 -0.011819 -0.127360 0.031029 0.078387 0.057629 0.039832 0.115002 0.215639 0.037208 0.228852 -0.116377 0.020014 0.037558 0.234392 -0.055246 0.082208 -0.087361 0.154272 -0.178482 -0.004211 0.101188 -0.007674 -0.075137 0.077610 -0.032498 -0.063901 0.147538 0.161536 0.154964 0.047192 0.110777 0.088803 0.124205 -0.163390 0.093407 -0.047529 -0.101441 -0.084398 0.041581 0.004632 -0.013256 0.083340 0.005292 -0.132519 -0.044719 0.207955 0.054846 -0.108643 -0.066267 0.011848 -0.079739 0.021949 -0.100532 -0.061282 -0.001044 -0.184252 0.264599 -0.070019 0.043479 0.085516 0.087186 0.005175 0.011742 -0.251628 0.021227 -0.078163 -0.044490 0.183921 0.117642 -0.038742 -0.114624 -0.158040 0.144601 -0.051760 -0.080479 -0.126243 -0.058380 0.109540 -0.184862 0.214607 -0.107781 -0.114957 -0.041474 -0.024325 0.035635 0.243554 0.105434 -0.121166 -0.128470 0.038207 -0.021313 -0.002167 -0.141620 0.130104 -0.066906 0.081362 0.118577 0.071765 -0.010056 0.052578 0.199349 0.045003 -0.094145 -0.089461 -0.057637 0.098644 -0.035351 0.065325 -0.123657 0.248981 0.174763 0.050618 -0.028037 0.080050 -0.114263 -0.125128 0.147060 0.009802 -0.103333 0.326904 0.009241 -0.189804 0.170531 0.051412 -0.304321 0.114847 0.140609 -0.032917 -0.117863 0.086065 0.133789 0.168007 -0.149695 -0.011675 -0.097917 0.005916 0.127400 0.077643 0.029522 0.116126 -0.035850 -0.153108 -0.096906 -0.062058 0.136460 0.103318 0.032425 -0.196066 -0.082133 0.162284 -0.118016 -0.115506 0.037164 -0.032595 0.002026 0.153056 0.026744 0.138030 0.049141 -0.074861 0.095507 0.020458 -0.054743 0.000247 -0.061375 -0.021958 0.054776 -0.001338 -0.185699 0.050710 0.048570 0.058733 -0.103431 0.027311 0.123827 0.176202 -0.096356 0.102322 0.229203 0.014007 -0.066406 0.055134 -0.128821 0.050194 -0.071573 0.015969 -0.018099 -0.121926 -0.172655 -0.086768 -0.002395 -0.052001 -0.022828 0.016065 0.028102 -0.105045 -0.090098 0.036053 -0.259365 0.119969 0.113807 -0.014186 -0.194840 0.191119 -0.015880 0.183179 0.028553 0.084371 0.066400 0.002412 0.031086 0.052476 0.056149 0.181531 0.089135 0.041093 -0.127433 -0.073156 -0.075471 -0.059905 0.030919 0.150624 -0.182115 0.156173 -0.016671 -0.051122 -0.155519 0.194722 0.043247 -0.084816 0.051973 -0.053325 0.252041 -0.082844 -0.174851 0.044584 0.139322 -0.033688 0.080468 0.057010 0.043319 -0.010224 -0.032254 -0.107778 -0.078846 0.055792 -0.078573 0.072807 0.003713 -0.181979 -0.033936 0.200529 -0.281721 0.113122 0.061193 0.215229 0.038651 -0.104862 -0.011430 0.145302 -0.159750 0.109450 -0.020168 -0.005026 0.107140 0.004365 0.116140 -0.082170 -0.023923 -0.070632 0.190768 0.004596 -0.011958 -0.191199 0.119087 0.005011 0.070995 -0.191527 0.006409 -0.001100 0.119465 0.168882 -0.045910 0.176030 -0.102194 0.004489 0.012203 -0.210210 -0.131045 -0.090290 0.142585 -0.014303 0.164635 -0.061032 0.218798 0.155942 0.080880 0.071829 0.029473 -0.253141 0.117986 -0.187711 0.013054 -0.079082 0.020658 0.001533 -0.009137 -0.015597 -0.093612 0.010231 0.119816 -0.036587 0.107842 0.037380 -0.011154 -0.023850 0.069458 -0.091825 -0.036019 -0.011398
ADJ 0.002264 -0.055702 -0.198986 0.070924 0.012285 0.059048 -0.056427 0.126112 0.002513 0.129057 0.148224 -0.109494 -0.169811 -0.036484 -0.156419 0.024671 0.060205 -0.140639 0.170545 0.225369 0.166565 -0.018716 -0.225243 -0.014011 0.118442 0.191600 -0.022835 0.103795 -0.146053 0.139132 -0.080078 -0.170069 -0.346030 -0.019640 -0.016249 -0.019576 -0.031369 -0.112369 -0.105251 -0.035436 0.050108 0.136693 -0.149865 0.047533 -0.255826 0.100551 -0.018552 0.064039 0.044993 0.160979 0.046435 0.047165 0.080455 -0.151021 -0.055851 -0.072565 0.003500 0.063590 0.127464 0.075621 0.136655 0.119809 -0.000784 0.121710 0.019337 0.160660 0.114012 0.016616 0.020089 -0.089962 0.068491 -0.036977 -0.066002 -0.000620 0.004957 0.129516 -0.003889 -0.029396 -0.136256 -0.014730 -0.041995 -0.082990 -0.002763 -0.081826 0.177466 0.043455 -0.054060 -0.007557 -0.056314 -0.073691 -0.081841 0.060523 0.179021 -0.059470 -0.076030 -0.051979 -0.196190 0.049986 -0.142987 0.257157 -0.019341 0.034031 -0.215226 -0.015254 -0.245233 -0.103176 -0.268661 0.054340 -0.125626 0.019908 -0.160682 -0.054568 -0.056164 -0.122157 0.152023 0.101791 -0.052595 0.158445 0.018131 -0.283474 0.173054 0.139252 -0.060923 0.212550 0.010510 0.057080 -0.118840 0.172903 -0.096126 0.032711 -0.011688 0.005421 -0.052313 0.073323 0.040484 -0.004943 0.030998 0.082153 -0.109033 -0.040939 -0.036611 -0.057664 -0.090775 -0.057386 -0.010915 0.072396 -0.017642 0.092270 0.065927 -0.020998 0.134231 0.233670 -0.079974 -0.205996 -0.008095 0.068583 -0.026547 -0.139299 -0.010314 0.016219 0.018018 0.016406 -0.078739 0.087527 0.002754 0.032503 0.003117 -0.098542 0.100248 0.026259 -0.024511 0.030517 0.090489 0.066766 0.044119 -0.040921 0.227478 0.100375 -0.010054 0.084925 -0.023684 0.210255 0.101003 -0.051660 0.202299 -0.020438 0.009230 -0.060728 0.096367 -0.158614 0.095150 -0.097752 -0.199266 -0.096689 0.310794 0.092295 -0.094097 -0.053722 -0.043166 0.074234 0.022204 0.287446 0.117219 -0.086103 -0.022270 0.096719 0.075793 0.006112 -0.060494 0.178568 -0.182719 0.057623 -0.103209 -0.227755 -0.018801 -0.035510 0.001938 0.017990 0.081279 0.038851 0.123155 -0.073838 -0.074975 0.070096 -0.063393 -0.009762 0.085185 -0.185949 -0.093656 0.053514 0.005766 0.055936 -0.086355 -0.152851 -0.049017 -0.020074 -0.209452 0.121242 0.028579 0.098944 0.031732 0.041937 -0.025758 -0.057959 -0.155097 -0.090697 0.018818 -0.181035 0.074066 -0.016719 0.020178 0.107644 0.004286 -0.032926 -0.089942 0.002513 -0.077973 0.011311 -0.025340 0.038000 0.222848 -0.064735 -0.115808 -0.094620 -0.007074 -0.031487 -0.109797 0.060810 -0.060059 -0.076613 0.096204 -0.009779 -0.082946 -0.104809 -0.038461 -0.110037 0.035716 0.161442 -0.073896 0.026238 0.042925 0.015932 0.066110 -0.038293 -0.067980 0.100343 -0.038429 0.014305 0.109765 -0.068863 -0.075633 -0.057012 0.057554 -0.024999 -0.175113 -0.088670 0.056375 0.006951 0.005329 -0.164429 0.075962 0.074796 -0.052064 0.011167 0.124948 0.003935 0.021201 -0.030156 0.179329 0.140522 -0.250407 0.053448 -0.001139 0.087372 0.094318 0.003702 -0.197042 -0.085712 0.128532 0.072922 0.090178 -0.066245 0.042176 0.060238 0.022449 0.007463 0.038946 -0.176764 0.119389 0.088824 -0.026658 0.099667 0.276604 -0.114543 0.035675 -0.050647 0.051378 -0.006015 -0.006225 -0.104913 -0.064304 0.095540 0.042968 0.085184 -0.051344 -0.077246 0.147017 0.004599 -0.040676 0.170300 0.046331 -0.156742 0.176312 0.086760 0.118995 -0.032896 -0.135108 -0.049087 0.014568 0.089636 -0.150747 0.039288 0.093540 0.020418 -0.028662 0.161383 0.070854 0.096351 0.049813 0.162873 0.049312 -0.023316 0.039072 0.078611 0.066298 -0.045913 -0.036879 0.008458 0.050331 0.003972 -0.036903 -0.048644 -0.029605 0.028393 -0.179101 0.020575 0.024256 0.010574 -0.023353 -0.127032 -0.027582 0.015693 0.018749 0.038676 -0.145625 -0.035098 -0.031752 0.159075 0.119521 0.122210 0.121739 0.254438 0.038559 -0.001882 0.143298 -0.037803 0.041740 -0.048476 -0.117818 0.040297 0.054972 0.026821 0.069239 0.013630 -0.193727 0.045200 -0.064197 -0.011612 0.049410 0.005997 0.015424 0.244896 0.130694 0.034342 0.204523 0.099353 0.008714 -0.002259 0.048892 -0.016585 0.062635 0.197264 -0.010398 -0.019246 0.014855 0.011228 -0.008789 0.132718 -0.037930 -0.067148 0.025221 0.121040 -0.169578 -0.001827 -0.065848 0.073320 -0.022919 0.174584 0.061235 -0.098830 0.160913 0.057057 -0.070097 0.211783 -0.132175 0.003837 0.068846 0.116511 -0.083632 -0.092605 -0.021667 0.021813 0.054815 0.035455 -0.082029 0.059893 0.060222 -0.112512 0.013053 -0.123003 0.044684 -0.159053 0.050243 0.139087 0.149989 0.007120 0.074713 0.114599 -0.010330 -0.041911 0.025402 -0.004895 -0.067881 -0.030504 -0.067649 -0.071182 0.177959 0.146042 -0.062604 0.091818 -0.094764 -0.050089 0.041875 -0.072017 -0.051112 -0.102029 -0.040226 -0.040587 -0.068002 0.107633 -0.063156 -0.176303 0.032064 -0.132958 -0.017545 0.077191 0.100449 0.039385 0.107779 -0.168327 -0.034807 -0.023519
ADV -0.178348 0.066269 0.165311 0.143025 0.032009 0.193709 -0.028941 -0.098996 0.167315 0.118493 0.054732 -0.076173 0.041922 -0.005910 -0.110003 -0.035561 -0.041633 0.075748 0.076992 0.000266 0.028820 0.261485 -0.114539 0.078943 0.203085 0.008922 -0.088871 0.072275 -0.108993 0.096517 -0.071485 0.052460 -0.157493 -0.083662 0.163661 -0.174719 0.051725 -0.068717 -0.139190 0.247802 0.129782 0.071260 -0.000329 0.171497 0.063601 -0.172955 0.121331 -0.174653 -0.109224 -0.132587 -0.068040 -0.027840 0.381536 -0.117324 0.112908 -0.185184 -0.033169 0.175787 -0.113120 0.002464 -0.142588 0.026035 -0.080486 0.192028 -0.020243 -0.100007 0.031391 -0.039165 -0.010993 0.019735 -0.115102 -0.072782 0.056896 0.121583 -0.029530 0.188913 0.044039 0.032279 0.052109 0.289747 0.126928 -0.004622 0.069648 0.208314 -0.219036 -0.143910 -0.080704 0.065654 0.055403 -0.045987 -0.097441 0.013724 0.111186 0.205678 -0.159407 0.011481 -0.072387 0.163354 0.054516 0.134756 0.100205 0.171137 -0.130055 -0.024526 0.021609 -0.111116 -0.087044 -0.118694 0.048096 0.032822 0.073566 0.026171 0.051329 -0.134549 0.074088 -0.030450 0.117931 -0.023453 0.176158 -0.085916 -0.251614 -0.010896 -0.006251 0.013688 0.204868 0.131700 -0.079020 0.136525 0.213488 -0.041459 -0.104842 -0.029123 -0.128919 0.130392 -0.018672 -0.005867 -0.092836 -0.037678 0.008216 -0.081752 0.119407 -0.081830 0.200959 -0.040788 -0.128878 -0.053329 0.073002 -0.061124 0.025609 -0.008213 0.131816 0.081485 -0.049782 -0.098328 0.229225 -0.115059 -0.017183 -0.029875 -0.149237 0.177181 0.137471 -0.062603 -0.010654 -0.085011 0.048440 0.012719 0.044612 0.147030 0.093451 0.027985 0.105533 -0.100749 0.172743 -0.284252 0.165815 -0.058656 0.008768 -0.000528 0.028499 0.203948 -0.061883 0.096522 0.027964 0.269236 0.137606 -0.053982 0.087807 0.110996 0.108065 -0.195087 0.014864 0.159479 0.016388 -0.033571 -0.092319 0.194801 -0.115345 -0.050177 0.082515 -0.029617 -0.211389 0.098145 0.020373 0.127473 0.026309 0.092767 -0.054991 0.092549 0.022313 0.032779 0.047075 0.132420 0.009687 -0.065919 0.049407 0.037457 0.065992 0.077578 0.042553 0.219007 -0.002118 -0.000912 -0.027958 -0.058425 -0.143698 -0.218514 -0.042413 0.044407 0.056486 0.095068 0.130748 0.079138 -0.082926 -0.025423 0.104661 -0.029920 0.033479 0.321635 0.212542 -0.005960 0.027849 0.282639 -0.032832 0.094837 -0.056319 0.163688 -0.110327 -0.122718 0.247764 -0.140882 0.108440 -0.009500 -0.019623 -0.047310 -0.103883 -0.223504 0.083136 0.046100 -0.103257 0.048504 0.087888 0.009599 -0.086974 -0.453856 0.090938 -0.056748 0.146657 -0.014249 -0.081489 0.028455 -0.183745 0.197290 -0.044541 -0.053829 -0.195048 0.147711 -0.062223 0.088383 -0.162119 0.035096 -0.018951 0.004663 -0.168337 0.064948 -0.082915 0.026573 -0.030733 0.025812 0.123861 -0.060873 -0.147998 0.052911 0.012515 0.037801 -0.003577 0.109915 -0.047570 0.069118 -0.088198 0.154256 0.046641 0.154537 0.072894 -0.195765 0.004573 -0.070346 -0.165373 -0.110938 0.071502 -0.031075 -0.009389 0.159059 -0.121246 -0.085078 0.101952 -0.051427 -0.314120 0.149312 -0.132543 0.077015 -0.132650 0.144701 0.013671 -0.158994 -0.088231 0.079641 -0.029521 0.053892 0.116857 0.121591 0.123799 0.045519 -0.057830 -0.103926 -0.091458 0.098865 0.173100 0.218962 0.112880 -0.113893 0.094068 -0.036560 -0.141517 -0.154547 0.101303 -0.126078 -0.035143 0.135643 -0.154564 0.146147 0.074171 -0.050640 -0.069661 -0.042626 -0.045629 -0.044048 -0.124353 0.018857 0.145746 -0.107388 0.026305 -0.132411 0.042962 -0.208421 0.069530 0.211467 0.055936 -0.010347 0.148918 0.226462 0.352359 -0.036570 0.080167 0.131199 -0.057275 -0.073500 -0.000061 -0.038915 -0.077940 0.089301 -0.026050 0.113144 -0.007315 0.010734 -0.096899 -0.105166 0.093168 -0.006821 -0.214601 -0.027231 -0.049091 0.005541 0.019656 0.062809 -0.096040 0.212830 -0.066225 -0.056327 -0.158925 -0.041909 -0.020491 -0.131516 -0.109761 -0.128537 -0.249899 0.007507 0.065296 0.055058 -0.019670 -0.149653 0.046264 0.091974 0.130704 0.071543 -0.089573 0.007791 0.083385 0.135807 0.150463 0.050274 -0.114082 -0.075683 0.018021 0.009220 0.141574 -0.054887 -0.049990 -0.043326 -0.035177 -0.122428 0.139522 0.227439 0.010120 0.158787 -0.053634 -0.043042 -0.239775 0.022400 0.072558 0.281475 -0.081383 -0.068957 0.098223 0.060930 -0.077060 -0.001480 0.061181 0.075877 0.033665 -0.047122 -0.149750 0.136389 -0.128306 0.044052 0.079005 0.138635 -0.061564 -0.003380 0.097637 -0.049375 -0.001334 -0.107918 -0.009450 0.164208 -0.094679 -0.141369 0.081961 0.173784 -0.194997 -0.092384 0.156965 -0.095419 0.145522 0.006257 -0.204001 0.265007 -0.066057 0.208412 0.122766 -0.087806 -0.121340 -0.140204 0.037008 0.027827 0.378303 0.119725 0.145327 0.035862 0.030775 0.145449 0.231411 -0.176016 0.085428 -0.032373 -0.001155 0.114835 0.205160 0.017435 0.079572 0.006480 -0.068044 -0.020353 0.087295 0.029191 -0.045008 -0.057074 0.004798 0.078602 0.162191 -0.156575 0.059539 0.013223
DET -0.127114 0.194330 0.131125 0.108368 0.031802 -0.108949 -0.046938 -0.141991 0.138733 -0.006087 -0.047613 -0.102372 0.033997 0.072569 -0.101378 0.015378 -0.017154 0.008773 -0.051352 0.043449 0.094701 0.121285 -0.126634 -0.077534 0.172754 -0.122711 -0.010372 0.145131 -0.068521 0.056970 -0.050497 0.154744 0.020019 0.006359 0.056085 -0.028202 -0.070942 -0.034121 0.001591 0.084060 0.103125 -0.063957 -0.090093 0.154348 0.140516 -0.067989 -0.003164 -0.118290 -0.127952 -0.120042 -0.028897 0.059287 0.038165 -0.048689 -0.014102 -0.183304 0.073838 0.172346 -0.074723 0.036056 0.013550 0.069760 0.058164 0.070477 -0.009267 -0.088471 0.073045 0.052129 0.057470 -0.048684 -0.210987 -0.039307 -0.045248 0.047696 -0.117255 0.006187 0.097612 0.123285 -0.025266 0.089050 0.093061 -0.128085 -0.034028 0.087984 -0.078194 -0.150750 0.121100 0.053819 0.057811 0.079219 -0.135397 -0.141038 -0.138624 0.256780 -0.076597 0.000770 0.108656 -0.111501 0.067520 0.014868 0.073285 0.034056 -0.037920 -0.108072 -0.024451 -0.089606 -0.055670 -0.011955 -0.075435 -0.011486 -0.058579 -0.121293 -0.023812 -0.006775 -0.109945 -0.092084 0.053886 -0.148036 -0.048990 -0.062522 -0.164207 0.035813 0.029776 -0.053660 0.123860 0.060578 0.050128 0.144383 0.056742 -0.165136 -0.036220 0.008874 -0.120531 0.015180 -0.115117 -0.123591 -0.020027 -0.100048 0.168065 -0.104052 0.215471 0.145834 0.089987 0.203935 0.051184 -0.032642 -0.115127 0.005315 -0.001910 -0.036293 0.056221 0.102930 -0.076606 -0.156460 0.077511 -0.041775 -0.178407 0.103192 -0.098922 -0.032331 -0.090653 -0.111711 0.034176 0.006100 0.061667 0.176545 0.093668 0.143379 0.065388 0.025414 0.017972 -0.072277 -0.092780 -0.105579 -0.060800 -0.046387 -0.027982 -0.034713 -0.018701 0.140137 -0.139303 -0.011924 -0.115293 0.012239 0.070500 -0.124269 -0.064333 -0.106452 0.042576 0.008532 0.049311 -0.040926 0.071009 0.056318 -0.067653 0.219991 0.053320 0.034357 0.041294 -0.074524 -0.047562 0.109513 0.048573 -0.027039 0.211704 0.070733 0.153045 0.124018 -0.106965 -0.095205 0.103142 0.178652 -0.021055 0.147359 -0.001943 0.011520 -0.027878 -0.092451 0.095700 0.062160 -0.115792 0.074531 0.069604 -0.120510 -0.115065 -0.014972 -0.016161 0.033838 0.026896 0.275196 0.044701 -0.036881 0.080876 -0.083863 -0.153067 -0.063147 -0.020382 0.135066 0.158842 -0.133550 -0.007542 0.269789 -0.047441 0.235721 0.075045 0.126943 -0.096068 -0.105291 0.155559 0.009965 -0.102662 0.044229 -0.029227 0.003579 -0.074130 -0.070447 -0.006238 0.079263 -0.086672 -0.041331 -0.043258 0.014908 -0.017489 -0.089407 0.048734 -0.071675 0.091247 0.080272 -0.032430 0.000910 -0.165144 0.173401 -0.015609 0.078761 -0.043472 -0.062459 0.022965 0.130583 -0.006625 0.125850 -0.008208 0.116434 -0.068389 0.068990 -0.052148 0.029144 0.048584 0.179312 0.085337 0.019707 -0.058138 0.084852 0.107176 0.059358 0.015145 0.099186 -0.018665 -0.064923 0.109331 0.081734 -0.012409 0.020613 0.171926 -0.138017 0.078424 -0.088149 0.008117 0.072943 0.002897 -0.168813 0.026915 0.066666 -0.026023 -0.126286 0.181784 -0.051326 -0.191807 0.085008 -0.103961 0.138870 -0.094772 0.109656 0.042781 -0.122794 0.114879 0.005749 -0.055711 0.066932 -0.024409 -0.011046 -0.063758 0.042568 -0.019798 -0.099771 -0.135564 0.134681 0.043038 0.004918 0.189068 -0.068842 -0.105063 0.159939 0.019956 -0.020658 0.076772 0.015962 -0.171836 0.084385 -0.102610 -0.027384 -0.095782 0.021541 -0.099286 -0.050448 -0.043095 0.080540 0.013993 0.084299 0.035745 -0.046263 -0.061304 -0.135440 0.041384 -0.164502 -0.105389 0.073928 -0.026848 0.168118 0.026126 0.103361 0.081614 -0.139421 0.046559 0.040503 -0.146602 -0.043083 -0.179815 -0.114645 0.038935 0.122520 0.113692 0.057274 0.021987 -0.031851 -0.061658 0.054807 -0.045091 -0.131211 0.036237 0.170873 -0.054548 0.008502 -0.076424 0.171246 -0.061403 0.180531 -0.104647 -0.121405 -0.197777 -0.042444 0.040284 -0.043424 -0.067418 -0.013664 -0.020004 0.041979 0.014695 0.035196 -0.019064 -0.095827 0.212422 0.070569 0.016231 0.076648 -0.103344 -0.022822 0.048424 0.092884 0.146605 -0.014900 -0.059706 -0.071397 -0.000847 -0.162860 0.078207 -0.106876 0.114865 0.077629 -0.157030 -0.095410 -0.011105 0.107003 0.179973 -0.143713 -0.054256 -0.011774 -0.002757 0.035476 0.074326 0.268177 0.025611 0.006661 -0.012589 0.167161 0.016749 0.009473 -0.012248 0.021278 -0.009629 -0.093151 0.035069 -0.006582 -0.028690 0.075446 0.045315 -0.013885 0.066800 0.048004 0.128701 0.065313 -0.002967 -0.052003 0.063419 -0.004173 0.000861 0.111728 0.003832 0.000031 -0.048335 0.168332 0.078330 0.129041 0.112254 -0.043460 0.067155 0.006682 -0.042418 -0.021568 0.012442 0.019718 0.089968 -0.051987 -0.066659 -0.085925 0.126695 -0.025576 0.058666 0.033778 -0.005549 -0.034107 -0.029758 -0.124201 -0.030484 0.017174 -0.001568 0.031686 0.072086 -0.047056 -0.059269 -0.034117 -0.066918 -0.002590 0.069738 -0.082542 0.018206 -0.062709 0.029892 0.164925 0.034626 -0.110772 -0.058447 -0.021741
CCONJ -0.082786 0.064709 -0.081048 0.075356 -0.011037 0.005022 -0.234387 -0.102700 -0.054396 0.021191 0.023394 -0.100059 -0.255969 0.092023 -0.153920 0.160578 0.102213 -0.143445 0.139458 0.106985 0.080407 -0.182897 -0.265839 -0.061885 -0.014839 -0.050240 -0.070311 0.030307 -0.120094 0.271851 0.049338 -0.120186 0.063391 0.034292 -0.089842 -0.163033 0.091686 -0.070645 -0.121578 0.020806 0.173798 0.177121 -0.223891 0.061696 -0.171505 0.303160 0.036129 0.045072 -0.129848 0.087474 0.072390 0.117640 -0.083915 -0.094643 -0.292770 -0.219400 0.125294 0.219328 0.117661 0.013984 0.065283 0.107924 0.164632 -0.087664 0.047358 0.006595 0.271160 -0.033842 0.300694 0.084684 0.059999 0.134565 -0.202757 -0.009641 0.090158 0.099754 -0.102138 -0.121005 0.007655 0.164083 -0.037814 -0.050920 0.202924 -0.081435 0.164786 -0.126365 0.080414 0.088481 -0.058879 -0.151996 -0.233521 -0.070003 0.247568 0.064655 -0.080102 -0.237916 0.099155 0.105500 0.126266 0.249701 0.185751 -0.053713 -0.316667 -0.166877 -0.201560 -0.207310 -0.233685 -0.060529 -0.015757 0.192966 -0.197281 -0.159823 -0.051729 -0.172036 -0.036970 -0.039925 0.146251 -0.272176 -0.050757 -0.438302 0.037815 0.329758 0.111364 0.056179 -0.088748 0.059220 0.005690 0.301991 -0.138125 -0.012438 -0.058389 0.016706 0.024994 0.106682 0.027849 -0.365608 0.091514 0.068478 -0.079006 -0.073231 0.202022 -0.002440 -0.077999 0.080820 -0.098059 0.051613 -0.166763 -0.087042 0.067934 -0.055326 0.067540 0.192315 -0.092546 -0.069571 -0.237913 -0.008457 0.047046 -0.234216 -0.068002 0.188501 0.117962 -0.136766 0.025229 0.013354 -0.012539 0.185485 -0.018282 -0.034170 0.095094 -0.086390 0.268794 -0.075619 0.094345 0.004804 0.086847 0.222620 0.332135 0.059657 -0.059099 0.159091 -0.116629 0.264397 -0.118595 -0.063595 0.146375 -0.119765 -0.179341 -0.138703 0.098976 -0.199049 0.269420 -0.232685 -0.036716 0.114893 0.195006 0.079704 -0.130088 0.053899 0.031133 -0.055826 0.162578 0.511750 -0.065609 -0.074611 0.263497 -0.059262 0.152072 0.116760 -0.086986 0.138006 0.059430 0.356638 -0.084299 0.025166 0.007941 -0.008952 -0.177185 -0.103502 0.169273 0.049646 -0.168210 -0.060724 0.100494 0.000093 -0.081149 -0.178649 0.107223 -0.346237 0.014768 0.312736 -0.016758 -0.020180 0.239768 -0.047425 -0.137773 -0.270259 -0.310496 0.045867 -0.095650 -0.163159 0.058022 0.097438 -0.107286 -0.005296 -0.079966 -0.151702 -0.044186 -0.079087 0.050362 -0.087268 -0.026837 0.113523 0.088675 -0.074600 -0.203494 -0.067202 0.038559 0.033248 -0.349280 -0.067427 -0.041449 0.006527 -0.033334 -0.060772 0.103685 0.095101 -0.262678 -0.047032 -0.124885 -0.047662 -0.092529 0.077663 -0.050469 -0.111612 -0.214524 -0.149700 -0.065417 0.208910 0.069713 0.102665 -0.195196 -0.035065 0.139362 -0.045045 -0.167239 0.171708 -0.005292 0.140612 0.090397 -0.025361 -0.208183 -0.003118 0.178169 -0.054952 -0.249250 -0.157454 -0.043373 -0.121657 0.194194 -0.052603 0.167547 0.188911 0.149420 -0.048263 -0.086379 -0.088491 0.046854 -0.078771 0.118196 -0.040606 -0.208680 0.181746 -0.072540 0.028132 0.206028 0.127397 -0.292060 0.101412 0.066226 0.107663 -0.207525 0.103223 0.145362 0.076294 -0.083595 0.036387 -0.127145 0.052459 0.319270 0.252728 -0.137275 -0.125255 0.062178 -0.236877 -0.105289 -0.080585 0.147890 0.421385 0.168654 -0.116549 -0.101244 0.186740 -0.093197 0.058782 -0.023171 0.012030 -0.048333 0.112179 0.012289 0.200694 0.012887 0.033643 -0.109678 0.011124 0.006531 0.084122 0.059443 -0.085717 -0.000282 -0.081250 -0.203709 0.015260 0.062276 -0.036657 -0.171797 0.069910 0.130753 0.112348 -0.038066 0.277718 -0.004572 0.050506 -0.077794 -0.178910 -0.078407 0.009809 -0.326916 0.006765 0.035575 0.127025 0.044963 0.151816 0.174599 -0.017347 -0.333983 -0.005927 -0.000816 -0.099036 -0.112808 -0.087539 -0.130996 -0.015756 -0.045415 -0.075331 -0.211778 0.103378 -0.299692 0.213330 -0.025615 0.259787 0.154492 0.108913 0.053611 0.110422 0.255831 0.002010 -0.002157 -0.082245 0.011156 0.105114 -0.007461 0.037688 -0.054159 0.091181 -0.248223 0.031533 -0.080131 -0.000151 0.182245 0.238623 0.116624 -0.048048 -0.004021 -0.434799 -0.001611 0.072107 -0.030888 0.082902 0.036159 0.061482 0.201958 0.132826 0.067819 -0.102862 0.044231 -0.089681 -0.005971 0.114345 -0.089926 0.157151 -0.007022 -0.043686 -0.164902 0.140463 -0.129059 0.133055 -0.006680 0.149557 0.024669 -0.286547 -0.034862 0.124056 -0.088749 0.348929 0.140263 -0.374009 -0.069397 -0.134234 -0.016673 -0.014976 -0.065853 0.113680 0.405175 0.115121 -0.017159 -0.133768 0.216070 0.009756 0.080833 0.100843 -0.028481 -0.210915 0.413290 0.189427 0.170526 -0.013850 -0.051553 -0.111026 -0.000960 -0.034455 -0.036981 -0.143332 0.120575 0.200242 0.092882 0.036626 0.033504 0.154613 0.274577 0.056527 -0.029753 -0.106023 -0.148589 -0.031962 -0.071739 0.028737 0.043944 -0.066889 -0.275620 0.116480 -0.297546 -0.031040 0.055918 0.104377 -0.117592 -0.038812 0.131277 0.096012 0.106426 -0.097240 -0.045571 -0.053499
PROPN 0.161504 -0.122472 0.125097 -0.084119 -0.252609 0.018940 -0.167820 -0.255405 -0.072512 -0.132823 -0.255593 0.028357 -0.039504 -0.129434 0.134458 -0.078922 0.056992 0.157162 0.078681 0.103072 -0.123507 -0.228372 -0.068988 0.090359 -0.175363 -0.416379 -0.100325 -0.192726 0.285234 0.071078 -0.010958 0.070921 0.323051 0.134069 -0.087761 -0.141354 0.166300 -0.151350 -0.074543 0.304278 0.398952 -0.010353 -0.125035 -0.068129 0.027535 0.012048 0.232816 0.029128 0.033581 0.019602 0.072598 -0.090257 -0.132412 -0.225361 0.095178 -0.017685 0.116943 0.050395 0.036490 0.112287 -0.144942 0.025239 0.164145 -0.299138 -0.150140 -0.127877 -0.206278 -0.139766 -0.000337 0.214084 -0.214239 0.112562 -0.068278 -0.245678 -0.000653 -0.040986 0.045814 -0.044439 0.011795 0.108089 -0.074821 0.046468 -0.048218 0.034885 -0.102934 -0.157265 -0.154076 0.277872 0.202331 -0.265239 0.014885 0.004879 0.197321 -0.077178 0.087618 -0.047887 0.375513 0.052756 0.127647 -0.135795 0.072466 0.266353 0.027940 -0.039426 -0.191482 -0.067787 0.274709 -0.035869 0.030202 -0.054666 -0.049582 0.040862 0.284595 0.143677 -0.082858 -0.240919 0.230627 0.078197 0.128759 0.026736 0.099449 0.009528 -0.108298 0.098883 -0.189237 0.181091 0.133520 -0.000554 0.272243 0.217406 -0.100293 -0.203313 0.022773 0.152631 0.354763 -0.055546 0.228761 0.059281 -0.174804 -0.040612 0.128815 0.110004 0.098861 -0.017469 0.016720 -0.070092 0.098952 -0.008819 -0.172933 0.157869 -0.034828 0.054022 0.039122 0.264525 -0.119581 0.084677 0.069746 -0.110352 -0.022126 0.030410 -0.058603 0.301215 0.255921 -0.020249 -0.015372 -0.050528 0.081664 0.023370 -0.084394 -0.093017 0.063674 -0.278333 -0.082924 0.090455 0.000975 0.098767 0.049701 -0.022015 0.053948 0.133948 0.100668 0.079498 -0.253985 -0.174670 -0.174098 0.018453 0.091565 0.113493 -0.145535 -0.060418 -0.345051 0.007907 0.058778 0.118474 -0.184065 -0.060401 -0.116626 -0.015065 0.051894 -0.186608 -0.087886 -0.060225 -0.235078 0.378247 0.122075 -0.202963 -0.130020 0.134153 -0.095917 -0.005479 0.131368 0.047486 -0.193311 0.080627 0.083904 0.202810 0.012252 -0.081438 0.101412 -0.124118 -0.106416 -0.027232 -0.192624 -0.026690 0.013512 -0.023203 -0.047482 -0.100647 -0.003386 0.124747 0.006701 0.056236 0.093507 0.048283 -0.212083 0.105314 -0.188360 -0.105400 -0.132943 -0.171348 0.161076 0.160866 0.116270 0.102207 -0.083713 0.024016 -0.223310 -0.012854 -0.179098 -0.044507 0.038109 -0.139582 0.032196 0.111538 -0.097859 0.057185 0.306813 -0.004523 -0.142863 0.007048 -0.268058 -0.093350 0.261642 0.155759 0.013260 0.082498 -0.243886 0.033865 -0.076031 -0.202902 0.266675 -0.094630 0.144451 0.019263 -0.002171 -0.049394 -0.091766 -0.196628 -0.254220 0.133979 -0.101589 0.029367 0.162682 0.203957 0.124904 0.000433 -0.105354 -0.001133 -0.004367 0.250172 -0.124314 0.030797 -0.117387 0.016107 -0.168910 -0.048959 -0.085107 -0.234823 0.228380 -0.023872 0.072076 0.094788 0.107097 -0.065167 0.004953 0.032138 -0.005399 -0.077376 -0.100184 0.173161 0.221803 -0.189472 -0.037776 0.098409 0.239728 -0.129727 0.039008 0.001592 -0.124745 -0.030759 -0.084724 0.082808 0.068310 -0.259495 0.181340 0.177845 0.071103 -0.176951 -0.101312 -0.019325 -0.135507 -0.040948 0.377379 0.078339 -0.054031 0.017284 -0.078084 0.051992 0.111150 -0.003408 -0.063051 -0.071671 0.143135 -0.201919 -0.054382 0.307922 -0.154139 -0.054459 -0.063041 -0.129748 -0.115053 0.053515 -0.257760 0.232578 -0.058702 0.016405 0.289261 -0.119002 0.135996 -0.052731 0.107169 -0.006198 0.096322 -0.081313 0.162570 -0.162537 -0.136110 -0.023115 -0.026798 -0.083002 -0.154576 0.120681 -0.342046 -0.061102 0.064412 0.286135 0.121899 0.100115 0.057817 0.311616 -0.119238 -0.133300 -0.040657 0.046417 0.119287 0.232960 0.118170 -0.069926 0.182777 0.002498 0.019201 -0.097209 -0.031290 -0.117417 0.157716 -0.065961 -0.218587 -0.100356 -0.009881 0.052006 -0.011640 -0.059451 0.165580 0.218022 0.229712 0.138594 -0.088419 -0.022337 -0.014827 0.164336 0.049330 0.194998 0.048204 -0.049122 -0.072448 0.101564 -0.267886 -0.104055 0.000241 0.147935 0.107561 -0.020993 0.152571 -0.180967 -0.444209 0.157780 0.096742 0.175167 0.242544 0.069327 -0.104390 -0.141056 0.170304 0.124816 -0.021899 0.063644 -0.089793 0.104642 -0.092204 -0.018201 0.074225 0.088868 -0.005492 -0.118022 0.053682 -0.064191 -0.240079 -0.036560 0.039878 -0.035381 0.419078 0.082227 0.140556 0.099446 0.104185 0.114456 0.150747 0.022592 0.100416 0.042818 0.061084 -0.247019 0.069462 0.030212 -0.062788 0.083252 0.017064 0.002695 -0.004523 0.032905 0.213848 0.170104 -0.086274 -0.113745 0.058586 -0.207099 -0.131399 -0.108930 0.087238 0.073981 0.050981 -0.239811 0.156410 0.064277 -0.027147 0.174262 -0.151372 0.019176 -0.076817 -0.181271 -0.092402 0.199193 -0.183870 0.005689 -0.259903 0.042031 -0.250038 -0.071124 -0.060454 -0.166490 -0.273281 0.202432 0.081414 0.176533 -0.237465 0.052097 0.178345 0.043268 -0.163767 0.180465 0.064606 -0.078883
ADP -0.034310 0.022925 -0.098650 0.042043 0.050396 -0.167042 -0.081944 0.000247 0.028351 0.022570 0.053702 -0.112662 -0.066818 0.066839 -0.042780 0.061818 0.011849 -0.052679 -0.062312 0.029798 0.158565 0.010304 -0.145550 -0.151346 0.038448 -0.117944 0.025021 0.070099 -0.090995 0.054050 -0.017121 0.083043 -0.051775 0.076078 -0.036970 0.058782 -0.085637 -0.061717 -0.094059 -0.055197 0.063038 -0.078933 -0.147541 0.079036 0.009140 0.041391 -0.108049 0.012997 -0.089009 0.045892 -0.000717 0.103183 -0.095827 -0.041407 -0.098319 -0.079839 0.095640 0.161024 0.098567 0.048699 0.082126 0.060311 0.142400 -0.060220 0.022782 0.148163 0.037477 -0.010794 0.025332 0.015985 -0.020780 -0.034163 -0.029529 0.081375 -0.042667 0.055577 0.054403 -0.048767 0.023795 -0.054792 -0.092615 0.010251 -0.019341 -0.075964 0.076796 -0.084218 0.093511 0.058559 -0.013497 0.082165 -0.056165 -0.175123 -0.043813 0.038034 0.018467 0.018790 0.049074 -0.103543 0.024966 0.045912 0.115125 -0.048606 -0.019241 -0.167126 -0.029545 -0.059845 -0.113369 0.000910 -0.059416 -0.015417 0.052855 -0.077531 -0.103820 0.001512 -0.046047 0.043906 0.086018 -0.110570 -0.159541 -0.033923 0.078417 -0.001528 0.053458 -0.112319 0.019899 -0.088879 0.083516 0.121696 -0.112435 -0.071735 -0.023638 0.129883 -0.064010 -0.080638 -0.008413 -0.122692 -0.025488 -0.081889 0.037441 -0.038504 0.130527 0.057186 0.000765 0.116586 0.113936 0.029785 -0.069035 0.070986 -0.040174 -0.027605 0.104478 0.025208 -0.122513 -0.050646 -0.073845 -0.121407 -0.064373 -0.012715 -0.044025 -0.069371 0.076332 -0.197253 0.087547 0.086267 -0.027633 0.117185 0.071105 -0.099766 -0.024811 0.107178 0.023669 0.039828 0.027723 0.051157 0.009746 -0.006683 -0.022779 0.015254 -0.074141 -0.005586 -0.057037 -0.067234 -0.033094 -0.085616 0.025204 -0.099217 -0.085402 -0.139515 0.065784 0.063682 0.005285 -0.067304 0.021801 -0.020943 0.075226 0.050144 0.064330 0.086067 -0.009135 0.135593 -0.008471 0.026989 0.011246 -0.093130 0.121162 0.149588 0.084958 0.028450 -0.075739 0.036228 0.012523 0.178209 0.024546 0.069241 -0.114853 0.017273 -0.011429 -0.145106 0.079549 -0.034873 -0.092905 0.061456 0.047174 0.038660 0.066227 0.009904 0.009481 -0.028210 0.032388 -0.004890 0.018881 -0.058658 0.112157 -0.015752 -0.092556 -0.089767 -0.025129 0.034253 -0.040253 -0.145329 -0.053297 0.000072 -0.065465 0.108866 0.057287 0.032451 0.046261 -0.083319 0.102058 0.022049 -0.085874 0.083588 0.041150 0.054663 0.028297 -0.069968 -0.080551 0.073900 -0.047915 -0.016769 -0.036996 0.035933 -0.019863 0.126553 -0.015232 -0.063324 -0.043669 0.053744 -0.041523 0.008453 -0.095755 0.050916 -0.054430 -0.007772 0.036615 -0.091824 0.078273 0.169335 0.130896 -0.068180 -0.037077 0.054800 0.019980 0.067268 -0.031468 0.047273 0.005063 0.160194 -0.026641 0.127155 0.082028 0.080659 0.090556 -0.067777 -0.015884 -0.026619 0.020270 -0.077440 0.137363 -0.060716 -0.096866 0.033569 0.116777 0.047058 -0.014304 -0.035870 0.060964 0.031814 -0.011196 -0.134864 -0.025482 0.070365 0.048027 -0.183785 0.116468 0.048875 0.061168 -0.018012 0.036015 -0.040074 -0.061006 -0.088734 0.049705 0.095452 0.004045 -0.013241 -0.172413 0.035341 0.006850 -0.041025 -0.090352 0.093128 -0.095141 -0.069373 -0.065031 0.024542 0.013148 -0.096232 0.000903 -0.082294 -0.055403 0.105837 -0.047200 -0.103262 0.022389 0.085895 -0.034117 0.000560 0.021498 -0.080182 -0.029508 0.007927 -0.021524 0.020314 -0.055329 0.073153 0.073863 0.089993 0.019406 0.015963 -0.079963 0.071176 -0.002934 -0.027611 -0.129352 0.040325 0.028513 0.174262 -0.030389 0.086302 0.016747 -0.063643 -0.000541 -0.008332 -0.062535 0.054781 -0.139245 -0.099168 0.033945 -0.075262 -0.004574 -0.000256 0.087662 -0.027975 -0.040760 -0.028813 0.015524 -0.098353 0.063823 0.156425 -0.083724 0.030528 -0.033234 0.044317 -0.102191 0.090307 0.028080 0.025422 -0.052842 0.021616 0.009288 0.002499 0.034416 0.071836 0.046204 0.086894 -0.003180 0.009306 -0.026280 0.010995 0.032144 -0.079403 -0.041808 0.070339 0.008183 0.042905 -0.028765 -0.032502 -0.068467 0.034789 0.005418 -0.002017 0.003452 -0.102947 0.034903 -0.042101 0.012355 0.059437 0.063280 -0.065690 -0.076694 -0.021594 0.070405 -0.123723 -0.046935 -0.034443 0.004948 0.078342 -0.017889 0.040862 -0.002363 -0.029337 -0.021008 0.077311 -0.049987 0.068494 -0.063965 0.037064 -0.029079 -0.058558 0.025585 -0.079131 0.028203 0.021174 0.010458 -0.109649 0.122870 -0.013405 0.089639 0.041618 -0.023413 -0.021226 0.081471 -0.017118 -0.020878 -0.004058 0.045485 0.025934 0.123949 -0.030860 -0.050415 0.055531 0.119335 0.025078 0.087021 0.026077 -0.122687 -0.006900 0.000270 -0.025614 -0.016184 -0.049683 -0.005538 -0.118264 -0.004369 -0.037703 0.036348 0.064869 0.128309 -0.013153 -0.025222 -0.164838 0.023556 -0.006805 0.024913 -0.149579 0.080155 -0.005810 0.028059 0.041961 -0.035770 0.069780 0.035731 -0.060688 0.092288 -0.016203 -0.026039 0.066078 0.038842 -0.089994 -0.047535 0.008982
INTJ -0.125077 -0.096864 0.124575 -0.048063 0.034216 0.332552 0.113175 -0.072514 -0.004650 0.150898 0.115383 0.014146 -0.060164 -0.102306 0.091136 0.090164 0.018706 0.084227 0.045536 0.151211 -0.067833 0.146237 0.086044 0.261915 0.063763 0.189864 -0.063887 0.027425 -0.030977 -0.086012 -0.076854 -0.223137 -0.335070 -0.094508 0.098440 -0.089464 0.003616 0.021626 -0.063527 -0.109174 -0.105662 0.170627 0.223551 -0.052286 -0.064357 0.058295 0.129650 0.040238 0.019730 0.054056 0.034258 0.040739 0.297729 0.193819 0.034208 0.022630 -0.095556 0.029739 0.052951 0.060267 -0.148501 -0.046077 -0.174673 0.102810 -0.032952 -0.067927 -0.024167 0.003625 0.020275 0.042314 0.170553 -0.057604 0.057915 0.095975 0.095503 0.016497 -0.156452 -0.118614 0.069504 0.112279 -0.069769 0.224835 0.035616 -0.000223 -0.029462 0.223993 -0.084790 -0.073410 -0.046438 -0.020050 0.092520 0.232278 0.174791 -0.033127 -0.054896 -0.055194 -0.120963 0.305932 0.039534 0.027298 0.071160 0.030243 -0.120258 0.155414 0.201534 0.022325 -0.102155 0.005883 0.073329 0.099092 0.150912 0.107723 -0.099174 -0.120959 0.137574 0.098733 -0.000471 0.065805 0.195782 0.010477 -0.078875 0.048947 0.060394 0.071121 0.006900 0.029756 -0.165027 -0.090225 -0.047545 -0.000648 -0.057727 -0.059184 0.015395 0.070106 -0.037752 0.104010 0.075586 0.024202 -0.045496 0.062467 -0.177233 -0.265920 -0.064247 -0.240888 -0.231343 -0.064241 0.188338 -0.090365 0.125459 -0.041486 0.027529 -0.205810 0.226763 0.100754 0.068615 0.014354 0.157425 -0.156785 0.027708 0.288221 0.147901 0.107115 -0.115102 -0.053912 0.004581 -0.257587 -0.082241 -0.041739 -0.052142 -0.084831 0.049110 0.050815 0.187840 -0.121767 0.109025 0.086260 0.101486 0.047247 0.036931 -0.130498 0.118711 0.144737 0.093664 0.238962 0.017835 0.077851 0.147101 0.231416 -0.026157 -0.010976 0.214128 0.157615 -0.112577 -0.038120 0.044501 -0.005659 -0.081156 -0.170076 -0.130343 -0.007478 0.006856 0.043437 0.103864 0.043100 -0.240416 -0.128568 -0.258287 -0.157585 0.177260 0.038892 -0.131488 -0.042069 0.055344 -0.234174 -0.018010 -0.086178 -0.019793 0.140173 -0.181600 0.057650 0.060791 -0.186469 -0.084634 -0.001930 -0.024480 -0.126710 0.013854 0.013349 0.065867 -0.148098 -0.102006 0.081246 -0.093427 0.178211 0.364166 0.028568 0.008445 0.056422 0.025378 0.163272 0.011935 -0.054736 -0.012394 -0.337917 -0.102762 -0.062565 0.067026 0.070852 0.003065 -0.145117 0.235646 -0.088271 -0.024697 -0.060239 -0.009028 -0.099887 -0.019438 -0.049520 0.126746 -0.066096 0.148587 0.158309 -0.015866 -0.289579 0.071679 -0.040474 0.142136 -0.028658 0.073488 -0.051690 -0.059739 -0.090983 0.037091 0.014760 -0.165812 0.188918 -0.057806 -0.083353 -0.017926 -0.140119 0.022886 -0.240429 -0.117065 -0.075302 -0.077298 -0.036037 -0.088604 -0.073422 -0.018135 -0.143381 -0.077571 -0.089842 -0.090022 -0.020179 0.037910 -0.062858 0.008031 0.178893 -0.290668 0.103857 0.124493 0.200912 -0.202534 -0.018042 -0.160592 0.051872 0.025555 -0.108285 0.051360 0.091855 -0.044929 0.055252 0.015303 0.114093 -0.247402 0.068637 0.048970 0.068432 0.016254 -0.156277 -0.040016 -0.063099 -0.134192 0.032732 -0.259890 -0.044509 0.034647 0.097352 0.159049 0.137703 0.178343 -0.086530 -0.079105 0.017350 0.144178 -0.090986 0.073322 0.348294 -0.137430 0.109275 0.183154 -0.168256 -0.186586 0.020744 -0.035326 -0.169827 0.082037 -0.022883 -0.012443 0.296433 0.210392 -0.035592 0.062569 0.013699 0.072022 -0.092065 -0.195956 -0.096336 -0.000294 -0.103509 0.099245 0.003564 -0.134190 0.093203 0.059969 0.086665 0.091976 -0.229689 0.107204 0.110009 0.130141 0.126918 0.170113 0.089438 0.110786 -0.150736 0.122991 0.126924 -0.066653 -0.118355 -0.060676 0.048592 0.044121 0.063171 -0.132191 -0.259711 0.035446 0.172589 -0.203017 -0.204604 0.074021 0.000211 0.207088 -0.158815 0.001232 -0.061378 -0.016574 0.122855 0.007543 -0.082753 -0.037504 -0.107849 -0.034101 -0.210110 -0.202988 -0.231764 -0.014372 0.120482 0.141094 0.073041 -0.260222 0.005739 0.034152 0.032208 0.046227 -0.195795 0.150356 0.057117 -0.032380 -0.086280 0.036143 -0.125640 -0.100593 0.265891 0.214893 0.099364 -0.204953 -0.030145 0.005966 0.093412 0.239891 0.052701 -0.210288 0.150205 -0.044007 0.003652 -0.096422 -0.129635 0.018689 -0.009832 -0.133507 -0.086936 0.055827 -0.156284 0.010215 -0.161059 0.180104 -0.019546 0.086475 0.067938 -0.312416 0.046696 -0.072208 -0.096888 0.099216 0.045613 -0.233535 -0.217453 -0.269777 -0.090998 -0.010954 0.097087 -0.124141 0.069974 -0.046481 -0.361172 -0.082344 0.097039 -0.152361 -0.172416 -0.082126 -0.247124 0.025523 0.033067 -0.206998 0.154202 0.067876 0.043158 0.083771 -0.022623 -0.123823 0.092785 0.119313 0.192484 0.088285 0.099893 -0.092753 -0.017165 0.077895 0.055298 0.233157 0.101174 0.040892 0.025938 0.067225 0.104865 0.047318 0.068287 0.058978 0.110262 0.139798 -0.071895 -0.104703 0.140772 -0.085704 -0.081125 -0.056218 -0.222365 0.056057 0.027157 0.060585 0.047655
NUM 0.168398 0.089686 -0.156268 -0.016352 0.034139 -0.166092 -0.052905 0.234201 -0.071038 -0.152979 -0.100699 0.175944 0.115976 0.150416 -0.050568 -0.109425 -0.043295 -0.097179 0.007247 -0.376395 -0.175071 -0.155832 0.182292 -0.135595 -0.199400 0.119448 0.103413 -0.146649 0.048493 0.028580 0.210058 0.044012 0.508802 -0.033227 -0.089567 -0.002440 0.104465 0.172988 0.235387 0.039859 -0.144936 -0.078995 -0.064880 -0.096543 -0.018766 0.046384 -0.090762 -0.034049 0.066010 -0.100290 -0.054437 -0.151272 -0.265103 -0.026203 -0.100187 0.064644 -0.071847 -0.235499 -0.125235 -0.266686 0.147069 -0.046712 0.022824 -0.016363 0.120781 -0.063977 0.149928 0.050069 0.037713 -0.067690 0.053708 0.168168 -0.049271 -0.168795 0.116169 -0.112170 0.003044 0.145310 -0.055422 -0.131200 0.192442 -0.276086 0.109295 0.023794 0.063794 -0.062004 0.050927 -0.152907 -0.073473 -0.011458 -0.075736 -0.104595 -0.133465 -0.044703 0.047053 0.006932 0.003262 -0.195767 -0.049348 -0.075813 -0.254388 -0.200866 0.180375 0.063971 -0.107308 0.091969 0.157331 -0.087848 0.098209 0.042347 -0.229685 -0.042469 0.138590 0.049670 -0.088835 -0.051905 -0.193977 -0.093733 -0.078323 -0.010392 -0.006488 -0.017805 -0.035291 -0.055052 -0.014344 -0.071692 0.075989 -0.077318 -0.029861 -0.000506 0.129081 0.044597 0.172009 -0.029685 -0.077172 -0.082836 -0.165328 0.135877 0.005296 0.014842 -0.034461 0.166257 -0.000352 0.169965 0.061715 0.102104 -0.219714 -0.021298 -0.016736 -0.028658 -0.178028 0.160738 -0.139517 0.002250 -0.066498 0.108301 -0.009150 0.190309 -0.005285 -0.279044 -0.255742 -0.015625 -0.054388 -0.125000 -0.003751 0.198997 -0.048201 0.128467 0.097038 -0.052651 0.009970 0.002434 -0.254488 0.063146 -0.115073 -0.029462 -0.049916 -0.054371 -0.024687 0.062282 -0.059703 -0.137957 0.028646 -0.149682 -0.056665 0.018229 -0.257110 -0.144261 0.002309 -0.078569 -0.068730 -0.212912 0.201853 0.049964 -0.057110 -0.196150 0.033760 0.171706 0.223055 -0.081483 0.168829 0.003199 -0.153120 -0.109518 0.128258 -0.048297 0.233334 0.038838 0.001299 -0.072950 0.167992 -0.191174 0.058065 0.266328 0.161321 -0.021450 -0.055354 0.055337 0.079089 -0.003895 0.060508 0.158440 0.238214 0.011834 0.041286 0.122775 0.004782 -0.046509 -0.129201 0.110074 0.042535 -0.071117 0.045595 -0.125642 -0.247192 -0.041250 0.058847 -0.180473 -0.093817 0.032978 -0.047220 -0.141111 0.052932 0.151545 0.109968 -0.061105 0.017873 0.159672 -0.122348 0.118226 -0.195067 0.039985 -0.006187 -0.044256 0.063814 0.329536 0.037298 -0.137120 -0.148299 0.087433 -0.170576 -0.236162 -0.103643 0.263664 -0.069659 0.180574 -0.189852 -0.202907 -0.022880 0.226494 0.122507 0.068417 -0.064658 -0.083765 0.187812 -0.081784 -0.032939 -0.038260 0.076962 0.149422 -0.006403 0.130711 0.117569 -0.201528 0.104875 -0.020664 0.155681 -0.175485 0.010251 -0.091377 0.045633 -0.018773 0.130225 0.126975 0.032005 0.032444 -0.002236 0.023861 0.088162 -0.034398 -0.039133 -0.375483 0.064580 0.010090 0.065724 -0.043938 -0.092816 0.044287 0.008788 -0.030541 -0.048087 -0.077464 -0.061467 0.110107 -0.003740 0.024567 -0.079684 -0.008756 -0.008394 0.234816 0.190011 0.186252 0.079883 0.074245 0.121239 -0.043730 0.131092 -0.014341 -0.126626 -0.067695 -0.017726 -0.123188 -0.053857 0.053657 -0.092091 -0.009686 -0.079638 -0.305630 0.099238 0.023439 -0.098670 0.083840 0.180715 0.251296 -0.014092 0.001592 0.052882 0.078913 0.158948 -0.209553 -0.155923 0.097705 -0.007064 -0.207562 -0.033320 0.047651 0.105293 -0.017441 -0.142895 0.138105 -0.109493 -0.034614 0.088180 0.069353 -0.000542 -0.194504 0.005844 0.038529 -0.130688 -0.231912 -0.165142 -0.035133 -0.117609 -0.196862 -0.081114 0.043659 -0.062353 0.013478 -0.001116 0.049785 0.119179 0.062942 -0.048417 -0.076657 0.180210 0.230879 -0.059406 0.015346 0.003218 -0.038806 -0.034792 -0.041657 -0.192903 0.074442 0.097805 -0.091226 0.026920 -0.085373 0.101257 0.164474 0.073073 0.173579 -0.038076 0.276716 0.154589 0.113979 0.035712 -0.253774 -0.052655 -0.176405 0.132468 -0.036403 -0.120574 -0.127533 -0.035580 0.204281 -0.071303 -0.022371 0.085252 0.131248 -0.021704 0.039758 -0.027495 -0.273384 -0.301651 -0.159911 0.153940 -0.156843 -0.116842 0.045440 -0.184432 -0.162333 0.033614 -0.028108 0.189976 -0.057629 0.239543 -0.031860 -0.079804 -0.164109 0.180384 0.054504 -0.033705 0.158396 0.019777 0.155475 -0.070943 -0.085501 -0.034453 0.033337 0.193573 0.000466 0.072171 0.050539 -0.080175 -0.080685 -0.003059 0.193273 0.158179 0.188070 0.004703 0.076055 0.193420 -0.075039 0.180462 0.363084 0.121936 -0.185212 0.052399 0.232946 -0.012062 0.097036 -0.068754 0.046983 0.110682 -0.218151 0.181579 -0.118409 -0.208363 0.017345 0.165926 0.039208 -0.153536 0.034011 -0.137376 -0.141452 0.096653 -0.082810 -0.071631 0.048264 -0.215911 -0.017886 -0.089676 0.023618 0.031189 0.100420 -0.070801 0.006162 -0.194533 -0.115112 -0.039894 -0.047779 0.014862 -0.020842 0.055841 0.117769 0.057456 0.108003 -0.095210 0.073488 -0.014244 -0.109598
X 0.006101 -0.214232 0.061458 -0.085705 -0.012282 0.026828 0.030974 0.004228 0.016258 0.083619 0.044954 -0.003904 0.030923 -0.106005 0.121729 0.011793 0.026439 0.173660 -0.065622 0.088890 0.014285 0.167293 0.035227 0.136383 0.087421 -0.088619 -0.029617 0.024414 0.059649 -0.089565 -0.067025 -0.013980 -0.239086 0.055810 0.053404 0.042948 -0.134550 -0.081853 -0.065374 -0.004868 -0.019001 -0.054046 0.079599 0.009223 0.036593 -0.054152 0.030371 0.032065 0.022521 0.025636 -0.031313 0.066194 0.139385 0.061296 0.154349 0.051317 -0.021620 0.078317 0.142102 0.074843 -0.053282 -0.049377 -0.008270 0.018077 -0.029900 0.057085 -0.211352 0.045986 -0.159083 0.045810 0.013572 -0.114974 0.100448 0.041946 0.003508 0.011747 0.004408 -0.053433 0.062297 -0.055025 -0.064697 0.194480 -0.129016 -0.057529 -0.034682 0.066705 -0.073819 0.001806 0.060068 0.064601 0.095798 0.025264 0.068119 -0.061585 0.051720 0.105771 -0.008931 0.079034 0.015978 -0.091926 0.015282 0.094920 0.187749 0.062389 0.192390 0.084860 0.053418 0.000282 0.037120 -0.019550 0.246733 0.111719 -0.004464 0.060215 0.058647 0.052330 0.046623 0.169523 0.129963 0.257753 0.087679 -0.212127 -0.064225 -0.034232 0.056020 -0.036527 0.010216 -0.114427 0.021639 0.001658 -0.044470 0.027884 -0.028674 -0.074412 0.092500 0.253227 0.026189 -0.045119 -0.077416 0.091113 -0.098592 -0.141321 0.088849 -0.160119 0.015275 -0.099690 0.262815 0.046175 -0.039451 0.021720 0.129284 -0.174959 0.073375 0.125229 0.067086 -0.044464 0.119122 -0.023772 -0.011006 -0.008215 0.019039 0.044310 0.061168 0.052068 -0.014991 -0.206816 0.040633 -0.117040 -0.177079 0.106311 -0.114853 0.009363 0.076832 0.001567 0.023895 -0.037285 -0.126361 0.076128 0.012465 -0.189888 0.126654 -0.109661 0.066772 0.017749 -0.082550 0.037783 0.161687 0.128335 -0.122682 0.092398 -0.127922 0.158480 0.006656 -0.132102 -0.054695 -0.105365 0.047983 -0.084215 -0.107234 0.131723 -0.160491 -0.305290 0.038158 0.075521 -0.145347 0.008170 -0.233141 -0.115487 0.092981 -0.009937 -0.094834 -0.098212 0.045051 -0.109766 -0.064947 0.043643 0.050274 -0.017613 -0.107138 -0.094062 0.067887 -0.095474 -0.149491 0.044542 0.068486 0.061371 -0.069959 0.150750 0.061379 -0.278578 -0.044117 0.043022 -0.078743 0.103813 0.203817 0.141873 0.115152 -0.007548 -0.018896 0.073642 0.015512 -0.080802 0.035035 -0.104624 0.018901 0.100367 0.086460 0.047454 0.009230 -0.029060 0.111865 -0.102923 -0.003756 0.063554 0.176647 -0.013076 -0.007203 -0.015761 0.173566 -0.024356 0.021810 0.116837 0.067606 0.045730 -0.070650 -0.116418 0.077210 0.120327 0.053348 -0.053639 0.085580 -0.089504 0.014711 0.068950 0.074890 0.110065 0.074810 -0.061509 -0.060322 -0.156600 0.046251 -0.129317 -0.046502 0.104301 0.069012 -0.109246 -0.095590 -0.033636 -0.125937 0.139317 0.139929 0.020695 -0.095226 -0.058183 0.078477 0.001634 0.117062 0.047965 -0.138468 -0.039793 -0.099536 0.040012 -0.098924 0.005081 -0.066020 0.087143 0.044883 -0.056459 -0.039656 0.028287 0.131060 -0.113360 0.069981 -0.066713 -0.072170 -0.023900 0.258709 -0.032383 -0.026089 -0.188460 -0.008673 -0.123809 -0.066074 -0.017836 -0.060528 0.007424 -0.026693 -0.044580 -0.134229 -0.135853 0.119273 0.116595 -0.019337 0.108480 0.067227 0.029557 -0.042932 -0.097631 -0.164895 0.004782 0.125290 -0.130222 -0.032237 -0.159221 0.007807 0.067240 0.057255 -0.060360 -0.053982 -0.027810 0.100175 -0.012095 0.005459 0.078552 -0.052966 -0.062429 -0.036877 0.037155 0.053950 -0.014675 0.068530 0.046737 -0.115136 0.039095 0.111398 0.003649 -0.058808 -0.081578 0.010126 0.004676 0.032304 0.027145 0.021285 0.159696 0.091388 0.061402 0.249307 -0.004749 -0.019751 -0.216176 -0.139762 -0.076642 0.014354 0.050148 0.140893 -0.085708 0.134941 0.097849 0.062633 0.016219 0.098472 0.028287 0.149234 -0.042224 0.098898 -0.064734 0.144224 -0.015678 0.031320 -0.135175 -0.136422 -0.148525 0.032537 -0.045998 -0.165775 0.005558 -0.045208 0.069371 -0.020492 0.043240 -0.091398 -0.033443 0.055166 -0.035572 0.131538 -0.049067 -0.012269 -0.050721 -0.206189 -0.141648 -0.036963 0.000881 0.052412 0.261911 0.021707 0.015125 -0.073254 -0.003349 0.152619 -0.041292 -0.068669 -0.146125 -0.050662 0.046102 -0.063287 0.073692 -0.050239 -0.017645 -0.039223 -0.153059 -0.082769 0.000283 0.118496 -0.151717 0.073598 -0.073749 -0.051189 -0.108076 0.027511 0.159445 0.006907 -0.092231 0.056129 -0.182077 0.000201 0.211603 0.069415 -0.015788 -0.017357 -0.005662 0.018112 -0.120015 -0.202451 -0.005854 -0.066837 -0.095029 -0.099108 0.142706 -0.043323 -0.248282 -0.035611 0.078111 -0.216713 -0.094773 -0.116876 -0.010300 -0.023612 0.104245 0.072899 0.020677 -0.012020 0.026349 0.032022 -0.109227 -0.064359 0.035392 -0.095856 -0.075507 -0.002336 -0.066011 0.121888 0.060031 0.094343 0.104627 0.052818 -0.103007 0.029855 0.048982 0.183414 0.014813 0.157668 0.076632 -0.038920 0.018798 0.034581 0.039710 -0.090180 -0.136764 -0.035299 0.044476 0.018317 0.069002
PINT 0.090299 0.074782 -0.242339 -0.017300 0.159572 -0.016269 0.268395 0.437175 -0.004517 0.016074 0.123753 0.081613 0.139351 0.006026 0.103772 -0.140103 -0.146120 -0.106201 -0.109338 -0.251202 -0.039634 0.084224 0.311824 -0.096538 -0.114901 0.429466 0.200214 -0.070074 -0.078914 -0.256297 0.053443 0.060186 -0.050812 -0.123834 0.018950 0.200607 -0.030255 0.213591 0.149700 -0.281896 -0.433172 -0.125169 0.208917 -0.140123 -0.014394 -0.241342 -0.243652 0.068906 0.131048 0.020571 -0.010322 -0.163122 0.000577 0.185074 0.060779 0.304822 -0.175186 -0.420344 -0.149344 -0.158280 0.078637 -0.055445 -0.188957 0.096109 0.095114 0.167330 -0.027821 -0.001477 -0.246833 -0.201093 0.192722 -0.043740 0.119309 0.048441 -0.019193 -0.119239 0.011502 0.060023 -0.084551 -0.346604 -0.056865 -0.047989 -0.084226 0.025913 0.049835 0.222383 -0.007113 -0.301716 -0.162784 0.192158 0.203197 0.067759 -0.338679 -0.190614 0.073933 0.188913 -0.348494 -0.188162 -0.257912 -0.190071 -0.277888 -0.245458 0.182818 0.171816 0.111539 0.202928 0.079542 0.108572 0.027447 -0.208317 0.020404 0.093023 -0.123781 0.092247 0.084602 0.228946 -0.344029 0.198201 -0.207025 0.221562 0.013895 -0.150955 0.031264 -0.055920 0.047998 -0.192702 -0.090074 -0.272787 -0.165111 -0.017088 0.168443 0.101731 0.059884 -0.100633 -0.184703 0.148092 -0.224378 -0.022033 0.118975 0.037088 -0.303965 0.023960 -0.121751 0.024697 0.142648 0.159321 -0.099861 0.140712 0.070435 -0.036242 -0.180040 -0.175601 0.008713 -0.026262 0.133352 0.012596 -0.114890 0.277902 0.120460 -0.295465 -0.022280 -0.017087 -0.168148 -0.033429 0.039581 -0.045530 -0.082970 -0.007190 0.037527 0.049766 -0.201165 0.290019 -0.075079 0.088699 -0.036033 -0.268380 -0.222941 -0.112034 -0.031815 -0.153317 0.074504 -0.245311 0.257811 0.047345 -0.061128 0.144135 -0.074785 0.021603 0.103019 0.189680 -0.021744 0.059907 -0.018560 -0.121880 -0.004691 -0.094314 0.200076 0.048249 0.042090 0.166923 0.142055 -0.262537 0.070576 -0.166772 -0.320023 0.184986 0.002520 -0.171649 0.074686 -0.053254 -0.180571 -0.468897 0.213174 0.012820 -0.061443 -0.122204 0.125783 0.155647 -0.150115 0.038252 0.281582 0.166448 0.145309 0.094867 0.229022 0.168287 0.031826 0.239859 -0.151579 -0.372027 -0.017677 -0.061318 -0.247904 0.066702 0.090928 0.120219 0.294004 -0.099566 0.027418 0.196666 -0.217030 -0.345954 0.041583 -0.092436 0.046762 -0.078721 0.164166 0.071314 -0.026615 0.143241 -0.061616 0.045829 -0.065371 0.025919 0.192501 0.080795 -0.204493 -0.125176 0.389755 0.174549 0.157013 -0.101367 -0.164892 0.129994 -0.046889 -0.026027 0.206792 -0.188013 0.158292 0.233879 -0.030511 -0.034889 -0.048869 -0.010167 0.274683 0.052461 0.066149 -0.083125 0.234390 -0.195854 0.196653 0.101783 -0.128201 -0.206594 0.077036 -0.069999 0.087888 -0.161057 -0.017875 -0.153539 0.253368 -0.052636 -0.024268 0.106511 0.260073 0.055796 -0.032866 0.269074 -0.231568 0.062530 -0.197881 -0.247150 -0.158786 0.254164 0.088476 0.102702 -0.060287 0.123345 -0.023203 0.031805 -0.040609 0.028578 0.131278 -0.007676 -0.355270 0.007282 0.213816 -0.136204 0.160362 -0.081269 0.373597 -0.149044 -0.140054 0.262965 -0.033255 -0.188906 0.130433 0.023344 -0.191476 -0.170604 0.105800 0.068196 -0.219071 0.167499 0.145877 -0.077197 -0.135685 -0.515744 -0.232022 0.155565 0.006728 -0.066166 0.054448 0.181610 -0.043360 -0.179780 0.162096 -0.099102 0.219598 -0.132960 -0.023081 -0.075830 0.345727 -0.125980 0.082833 -0.050056 -0.122807 0.042708 -0.157707 0.210175 0.079004 0.095638 -0.036067 0.263506 -0.021715 -0.121399 0.042518 -0.022449 -0.043784 -0.391046 -0.017205 -0.040827 0.161245 0.043452 0.020286 -0.127247 0.133251 0.050536 -0.031589 -0.230632 0.007895 -0.169178 -0.189409 -0.059371 0.266519 -0.020611 -0.166694 0.088010 0.012932 0.045055 -0.033297 0.061564 0.022160 0.057135 0.085869 -0.136611 0.379320 -0.048879 0.147044 -0.144304 -0.012765 0.120583 -0.063569 -0.047290 -0.115263 -0.036116 0.081901 0.030133 0.023637 -0.171481 -0.111730 -0.200471 -0.083831 -0.031904 0.219062 0.040389 0.177586 -0.022667 -0.245249 -0.134289 -0.032444 0.047950 -0.135911 0.410666 0.184454 -0.128563 -0.045716 -0.150387 -0.124784 0.036440 -0.170956 -0.110509 -0.190723 0.050269 0.035731 -0.041190 0.161746 -0.177376 0.074777 -0.254515 0.102680 -0.043864 0.036879 0.007247 -0.036295 -0.065241 0.158143 -0.015251 -0.027309 0.241534 -0.070921 -0.107244 0.039539 -0.316246 -0.247285 0.142557 -0.003742 0.125742 -0.084695 0.019034 0.028385 0.112977 -0.250846 -0.224203 0.150367 0.117338 -0.158319 -0.257111 0.073574 -0.045509 -0.134439 0.077010 -0.286330 0.011642 -0.092988 0.081362 0.151573 -0.021872 -0.161498 -0.080953 -0.011591 0.289385 -0.161488 -0.123867 -0.176793 -0.210100 0.136881 -0.064207 -0.242578 0.064646 -0.105861 -0.020856 0.187350 -0.149245 0.159165 -0.051214 -0.100795 0.101394 0.165378 -0.074626 0.350419 -0.101697 -0.087733 -0.186267 0.260186 0.031139 -0.150857 -0.144497 -0.088537 0.067304 0.014957 0.002350
SUFV 0.184507 0.046591 0.106422 -0.030349 -0.067575 0.115466 0.153460 0.137520 0.069513 -0.113994 -0.177864 0.227877 0.328476 -0.059242 0.066141 -0.327413 -0.127108 0.127232 0.048225 -0.279767 -0.285496 0.077549 0.330646 0.127091 -0.066523 0.160696 0.044147 -0.163404 0.203161 -0.142596 0.041317 0.102371 0.315353 -0.130425 0.080454 -0.055665 0.143495 0.128551 0.259039 0.273780 -0.064934 -0.108071 0.150808 -0.112367 0.112458 -0.321012 0.130966 -0.147744 0.204357 -0.206274 -0.100232 -0.346959 0.077753 -0.104648 0.318811 0.150380 -0.202008 -0.371925 -0.317606 -0.182709 -0.076098 -0.086592 -0.216551 0.148170 -0.040859 -0.247546 -0.136089 0.009629 -0.243002 -0.117754 -0.166225 0.035787 0.124557 -0.237730 -0.000137 -0.128799 0.119422 0.297576 -0.114326 -0.029164 0.282966 -0.245690 -0.085348 0.270076 -0.253486 0.018401 -0.189408 -0.111081 0.095850 -0.061992 0.112168 0.130164 -0.172275 -0.007618 0.007172 0.189658 -0.063614 -0.096453 -0.142660 -0.237690 -0.395109 0.111506 0.275315 0.297908 -0.074334 0.176067 0.380891 -0.054349 0.091777 -0.148306 -0.127217 0.143291 0.327282 0.128901 0.035379 -0.124481 -0.244003 0.302102 0.224640 0.239758 -0.175636 -0.227439 -0.218541 0.105962 0.110573 0.128352 -0.032714 -0.287646 0.367611 0.088215 0.066892 -0.182452 0.065889 0.125828 0.004992 0.265173 -0.142880 0.129224 0.013878 -0.003083 -0.169601 0.134888 0.164828 0.004308 0.009576 -0.003193 0.022510 0.020184 -0.066408 0.083660 -0.211005 0.104815 0.032421 0.050486 0.302559 0.201678 -0.065689 0.313987 -0.001583 -0.263108 -0.370936 0.362010 -0.078610 -0.210886 0.071497 -0.060006 -0.001021 0.311125 0.104742 -0.087217 -0.196968 -0.120012 -0.288496 -0.080262 -0.128634 -0.247598 -0.218859 -0.121850 0.117435 0.147734 0.084107 -0.133555 0.073867 0.052653 -0.114581 0.145194 0.063766 0.175489 -0.081806 -0.089340 -0.368708 0.116269 0.146244 -0.020724 -0.290425 -0.080582 -0.029475 -0.024038 0.211000 -0.223207 -0.104009 -0.307185 -0.085219 0.220068 -0.124304 -0.090798 -0.009153 0.027023 0.065569 -0.173051 0.114209 -0.469123 -0.007898 0.102248 0.256294 0.044725 0.151924 0.258106 -0.034989 0.080789 0.245905 0.129628 -0.021530 -0.079666 -0.055107 0.129656 -0.105797 0.210232 -0.153693 0.005651 0.096457 0.070227 -0.300505 -0.107599 -0.107709 0.294408 0.191354 -0.032809 0.151897 0.220507 0.019440 0.095481 0.212500 0.160832 0.010166 0.139555 -0.146382 0.113927 -0.115075 0.066563 -0.039915 -0.143793 -0.146512 0.009573 0.054472 0.307012 0.183600 -0.161616 0.119775 0.180727 -0.076869 -0.310093 -0.038452 -0.025938 -0.076228 0.088849 0.088262 -0.146514 0.040076 0.133037 0.276077 0.030028 0.043966 0.004936 0.208942 0.121612 -0.089470 -0.300134 -0.299801 0.202905 0.183190 0.158778 -0.069458 -0.088361 0.238321 -0.154777 0.082379 -0.329798 0.084495 -0.136135 -0.019563 -0.038407 -0.106832 0.270205 0.141133 0.211533 -0.040522 0.130991 -0.123663 0.106801 -0.007088 -0.385739 -0.087123 -0.123763 0.232507 0.015728 -0.230882 0.018037 -0.027342 0.188352 0.152341 -0.256587 -0.093720 0.240121 -0.079350 -0.223246 -0.111663 -0.032065 -0.190463 0.234436 0.363226 0.223186 -0.073448 -0.271733 0.247603 0.040185 0.400461 -0.174438 -0.344197 -0.162885 0.159568 -0.018883 0.208517 0.236351 -0.008208 0.104931 -0.146481 -0.472481 0.084444 0.117619 0.008412 -0.146179 0.291429 0.149737 -0.000127 -0.064537 0.042971 0.010824 -0.014528 -0.204100 -0.153420 -0.020458 0.029188 -0.100821 0.032292 -0.087504 -0.027859 -0.051302 -0.004670 0.133880 0.154113 -0.193289 0.133912 -0.040118 0.301733 -0.148392 -0.116982 -0.129493 0.061218 -0.381598 0.003550 -0.045442 -0.072220 0.090088 0.037906 0.006949 0.315520 0.108358 -0.031694 0.213262 0.041057 -0.096184 -0.301980 -0.000064 0.396772 0.287110 0.008600 0.127196 0.020830 -0.089184 0.112187 -0.098813 -0.115577 0.139017 0.322607 -0.149582 0.106461 -0.341703 0.046469 -0.093061 -0.014360 0.065596 -0.098403 0.108458 -0.119116 0.038056 0.056739 -0.129432 -0.058574 -0.271329 0.205298 0.157178 0.079619 -0.194994 0.015421 0.147293 -0.017799 0.068728 0.100371 -0.055984 -0.133680 0.094842 0.068199 0.171574 -0.270638 -0.113295 0.214748 -0.168941 -0.150416 -0.008055 -0.233626 -0.071883 0.023056 0.264843 0.105402 0.059714 0.049330 -0.093705 0.051094 -0.125822 0.187319 0.167327 0.104451 -0.025505 0.131660 -0.082834 -0.058249 -0.129397 0.046356 0.233735 0.330598 0.064830 0.084460 -0.142345 -0.160834 0.476830 0.018037 0.337257 0.121829 0.123858 0.100400 -0.163524 -0.232499 -0.066198 0.087195 0.436315 -0.083470 -0.181941 -0.254122 0.110784 0.254280 0.209153 -0.426634 -0.157350 -0.133336 -0.126459 0.236853 0.080157 -0.092549 0.049539 0.187190 0.047170 -0.208995 -0.041494 -0.014451 -0.037536 0.135323 -0.150744 -0.467062 0.031404 -0.103710 0.147083 0.010700 -0.003851 -0.052332 0.231803 -0.184571 0.028473 0.030902 -0.267627 0.101073 -0.087365 0.029276 -0.060589 -0.037843 0.122275 0.089155 0.062851 -0.157383 0.109412 0.107187 -0.112911
SYM 0.334070 -0.139611 -0.285549 -0.199422 -0.119562 -0.072602 -0.040382 0.152081 -0.250202 -0.142505 -0.116207 0.161520 -0.104789 -0.028066 0.128115 -0.042010 0.075595 -0.108052 0.093546 0.004538 -0.150185 -0.441879 0.145766 0.009514 -0.347021 0.091926 0.072480 -0.210022 0.197874 -0.021360 0.104716 -0.207852 0.300891 0.059631 -0.246789 0.042084 0.107041 0.068705 0.179641 -0.161197 -0.032355 0.013079 -0.085336 -0.306741 -0.253828 0.315688 0.006991 0.233117 0.240836 0.226933 0.108779 -0.104481 -0.484802 -0.014709 -0.151644 0.198476 -0.004891 -0.274876 0.143379 -0.045704 0.176140 0.014884 0.089646 -0.251550 -0.007684 0.049160 0.028825 -0.017615 0.053007 0.004460 0.165217 0.200874 -0.129065 -0.343567 0.170832 -0.221809 -0.086606 -0.029757 -0.139318 -0.296220 -0.122705 -0.096950 -0.014293 -0.221216 0.300966 0.204048 -0.049307 -0.065685 -0.062444 -0.149753 0.090235 0.081418 0.067931 -0.341267 0.181691 -0.058458 0.098997 -0.101588 -0.095646 -0.115846 -0.231660 -0.151741 0.065752 0.139145 -0.279483 0.105384 0.134784 0.079985 -0.017364 0.014941 -0.270128 -0.004738 0.096508 0.100500 -0.002822 -0.001719 -0.181745 0.138660 -0.058349 -0.078523 0.366101 0.113780 -0.078974 0.153230 -0.308796 -0.051888 0.051701 -0.160306 -0.172319 0.173443 0.088382 -0.077039 0.237153 0.033068 0.147525 -0.057345 0.155964 0.236565 -0.169624 0.064717 -0.193953 0.106927 -0.256800 0.008262 0.066128 0.115690 -0.120169 0.068404 -0.037673 0.033494 -0.203663 0.093074 0.054432 0.196210 -0.304569 0.290326 0.099009 -0.044046 0.157475 -0.225841 -0.285473 0.316369 0.000228 -0.007718 -0.067851 -0.025116 -0.069492 -0.125444 -0.015900 -0.161946 -0.075025 0.002473 -0.277282 0.382424 -0.194451 0.095613 0.161125 0.006869 -0.007251 -0.091751 0.152875 0.046020 -0.037676 -0.382795 -0.160956 0.105613 -0.156096 -0.060630 -0.121339 0.026467 -0.109082 -0.284210 -0.017432 0.062839 0.181235 -0.296726 -0.031743 0.049067 0.013497 -0.095705 0.320614 0.050015 -0.120464 -0.019755 -0.008696 -0.246819 0.070689 -0.088335 -0.004375 0.032878 -0.012295 -0.224670 -0.099214 0.053117 0.079490 -0.024611 -0.097249 0.016339 0.021494 -0.237276 0.086235 -0.023804 0.003457 0.093876 0.150928 0.222601 0.073755 -0.248459 -0.171184 -0.009735 -0.158599 -0.029657 0.046241 -0.030496 -0.250710 0.082708 -0.229192 -0.417780 -0.331045 0.081559 0.031653 -0.300775 0.134768 -0.143407 -0.061254 -0.273552 0.052537 0.165914 -0.395449 0.110103 -0.113682 -0.019373 -0.004406 0.050901 0.033914 0.475969 0.044042 -0.170625 -0.005420 0.012877 -0.169423 -0.219461 0.062368 0.558770 -0.112226 0.189384 -0.405874 -0.121870 0.032775 -0.048700 0.469124 -0.280329 0.042480 -0.056979 0.244837 -0.209906 -0.028222 -0.175000 0.027780 0.086960 0.023684 0.001965 0.310583 -0.178135 0.168186 -0.012299 0.023323 -0.184897 -0.054598 0.000839 0.025859 -0.122494 0.004954 0.058331 -0.139592 -0.202046 0.024973 -0.073612 0.145779 -0.235629 0.091025 -0.268896 -0.121764 0.181275 0.050975 0.063065 0.128908 0.025729 0.007855 0.245459 -0.086401 -0.291905 0.073981 0.355495 -0.073869 0.033743 0.215369 -0.197115 0.135996 0.044306 0.335304 -0.069782 -0.000427 0.123395 0.156361 -0.041416 0.224955 -0.225023 -0.126713 -0.062637 -0.129110 -0.141867 0.358856 0.154426 0.102237 -0.181320 -0.230918 -0.318394 -0.062062 0.159962 -0.145335 0.015232 0.295409 0.314878 -0.215429 0.147234 0.130114 -0.149348 0.234739 -0.125140 -0.131476 0.028799 0.067545 0.092399 0.126263 0.029597 0.179378 -0.180775 -0.171476 0.201077 -0.060745 0.134522 0.070727 0.287286 0.026206 -0.306252 -0.006464 -0.021574 -0.140309 -0.321262 -0.460578 0.127159 -0.222698 -0.208017 0.143881 0.147801 0.056635 0.205102 0.119258 0.081948 0.007712 -0.157025 -0.054348 0.009427 0.129822 0.275016 -0.032024 0.097889 0.199427 -0.177873 0.062096 -0.116214 -0.072028 -0.131812 0.206908 -0.407663 -0.047445 0.060476 0.292311 0.206481 0.143865 0.352033 0.183177 0.383619 0.463058 -0.030044 -0.068662 -0.226512 0.019129 0.166467 -0.034164 0.009723 -0.149269 -0.170900 -0.047813 0.122469 -0.236207 -0.175211 -0.076104 0.080736 0.198301 0.176151 0.043124 -0.116320 -0.385121 0.147657 0.146624 0.013034 0.116385 0.250235 -0.203045 -0.285151 -0.020616 -0.006111 0.162819 0.039381 0.305054 0.019773 -0.184792 -0.472492 0.223047 0.205770 -0.196118 -0.104213 0.094532 -0.001173 -0.172148 -0.061866 0.068650 0.044059 0.475913 -0.051875 0.211636 0.100344 -0.111764 -0.087572 0.059889 0.102773 -0.150580 0.137937 0.026573 0.088901 0.129428 -0.153053 0.117867 0.307223 -0.006070 -0.359952 0.135903 0.113868 -0.059776 0.025198 -0.190959 0.053247 0.293472 -0.442227 0.211905 -0.267248 -0.199809 0.112226 0.228605 0.093381 -0.063965 0.113666 -0.493878 -0.119606 -0.070616 0.009607 -0.131197 -0.108144 -0.375927 0.278728 -0.203767 0.008983 -0.114243 -0.028774 -0.414281 -0.024525 -0.256482 -0.060512 -0.053187 -0.059818 -0.074696 0.042239 -0.095520 0.152052 0.190812 -0.067053 -0.239152 0.203062 0.000205 -0.153674
SUFN 0.107408 0.122859 0.197874 -0.098152 -0.126470 -0.092427 0.167267 -0.405708 -0.072655 -0.241735 -0.224411 0.128767 0.193416 0.054834 0.030844 -0.046885 -0.015206 -0.034025 -0.081945 0.030621 -0.117812 -0.270546 0.158864 -0.062306 -0.148847 -0.205046 0.008164 -0.018653 0.234698 -0.169914 -0.063133 -0.005197 0.325287 0.017799 -0.080019 0.138000 0.053933 0.119403 0.254983 -0.038106 0.120169 -0.084848 0.055698 -0.115033 0.188178 0.107195 0.103448 -0.075418 0.150955 -0.045126 -0.021835 -0.047806 -0.402734 0.012664 0.015870 0.078911 0.030760 -0.084399 -0.149232 0.126946 -0.005634 -0.051467 -0.069759 -0.103910 -0.175087 -0.182875 -0.046455 -0.028894 0.134932 0.029061 -0.164625 0.008532 0.043543 -0.098794 -0.083934 -0.157363 0.085219 0.141307 -0.010940 0.047459 0.068586 -0.093509 -0.053573 -0.002704 -0.098158 0.132412 0.085172 0.175591 0.099407 0.016172 0.176598 0.057510 -0.220397 0.061196 0.085322 -0.016937 0.279846 -0.133221 0.022609 -0.063363 0.009776 0.030930 -0.046163 -0.010517 -0.088437 0.063441 0.116878 0.079888 -0.146825 -0.012272 -0.042429 -0.033334 0.075842 0.088575 -0.134729 -0.182785 -0.007877 -0.108094 -0.034196 0.104243 -0.046764 0.020822 -0.056632 -0.042277 -0.187416 0.015353 0.098054 -0.115635 0.158909 0.060188 0.018242 -0.141399 0.018042 -0.063309 -0.058482 0.005852 0.165043 0.013552 0.176476 -0.003129 0.059501 0.206584 -0.149199 0.065804 -0.035212 -0.066948 -0.097431 -0.093369 -0.130503 0.060401 -0.212527 0.061006 0.149367 0.014560 -0.034541 0.114292 -0.110483 0.036010 0.164103 0.061604 -0.212654 0.211492 -0.002014 -0.017825 -0.121529 -0.004423 -0.006703 0.070307 0.032815 -0.152474 -0.094075 -0.066754 -0.268063 0.079020 -0.292379 0.116101 -0.054406 -0.097793 0.091651 0.007434 -0.035775 0.003438 -0.216811 -0.094912 -0.128289 0.021011 0.104873 -0.075627 -0.120806 0.170426 -0.141017 -0.020175 -0.011348 0.233325 -0.043639 0.044828 -0.087106 0.005869 -0.070202 -0.304092 -0.000311 -0.079223 0.068901 0.023422 0.077946 -0.217920 0.166922 0.036729 -0.028983 -0.146865 0.244851 0.128468 -0.180763 0.081075 0.076527 -0.045984 0.038505 0.015191 -0.053741 -0.130433 -0.253259 0.023817 -0.091441 -0.126051 -0.154932 0.112424 -0.063186 -0.030962 0.085948 0.269150 0.003483 -0.027129 0.083785 -0.128029 -0.178104 0.067824 -0.054606 -0.181984 -0.040277 -0.023961 0.081158 0.113950 0.063152 0.100731 0.071910 0.037209 -0.115401 0.088572 -0.263584 0.082245 -0.105534 -0.036498 -0.073583 0.007892 -0.157222 0.174729 0.021517 0.144262 -0.053579 -0.171260 -0.162752 -0.012537 0.152879 0.141677 -0.086859 0.092274 0.039131 0.111787 0.008258 -0.157598 0.129123 -0.171035 0.140927 0.101278 -0.019160 -0.063560 -0.077429 -0.219632 -0.109113 0.215453 0.084701 0.075858 0.053700 0.050699 0.108596 -0.047917 0.087770 0.014204 -0.039895 -0.056032 -0.083385 -0.028483 -0.187172 -0.035206 0.021161 0.095891 -0.052161 -0.210851 0.197886 -0.034780 0.168835 -0.189777 -0.064171 -0.049301 0.084127 -0.126820 0.101353 0.172030 -0.170364 -0.020411 0.097323 -0.265111 -0.036866 0.173867 -0.045350 -0.084089 0.180634 -0.105794 -0.146555 0.096107 0.065719 -0.045658 -0.085997 -0.222717 0.237783 0.053805 0.072982 -0.007005 -0.066594 -0.011958 -0.168271 -0.140062 0.114720 0.086704 0.043989 0.070196 -0.119902 -0.035797 0.082379 0.173813 -0.017427 -0.089228 0.143055 0.090590 -0.037134 0.079370 -0.110180 -0.152143 -0.036588 -0.165640 -0.140345 0.072833 -0.152289 0.024293 0.067155 0.052289 0.156622 0.010631 -0.023450 -0.014365 0.194074 -0.064884 0.040446 -0.134128 0.042440 -0.028728 -0.132400 -0.089321 0.101737 -0.101383 -0.249501 -0.030130 -0.001310 -0.131483 0.076716 -0.022315 -0.076594 -0.029962 0.050706 0.324590 0.220562 0.073252 -0.016586 0.031799 -0.055797 0.057233 -0.099022 -0.022286 0.127739 0.032742 0.184132 -0.140184 -0.205283 0.034736 0.132699 -0.111564 -0.101007 -0.207655 -0.092787 -0.039804 -0.004060 0.040220 -0.008455 -0.029366 0.075214 -0.140944 -0.080676 -0.023706 0.135485 0.103529 0.149378 0.113287 -0.036253 -0.096500 0.112296 -0.126669 -0.017965 0.059311 0.254870 -0.100225 -0.002452 0.078666 -0.046685 -0.104173 -0.299647 0.118474 0.233361 0.043780 -0.168392 0.037816 -0.063720 0.041171 0.048970 -0.016249 0.013351 0.080574 0.042620 -0.001382 0.121363 0.082767 0.040682 0.186874 -0.033655 -0.136219 0.231900 -0.101252 -0.078677 -0.126703 -0.066733 -0.017179 0.077822 -0.089647 0.150452 -0.000373 0.038426 -0.093696 -0.073602 -0.005090 -0.072172 0.060527 0.027995 0.060638 -0.096864 -0.002026 0.009420 0.234032 -0.083449 -0.070831 -0.017118 0.333849 0.071805 0.021251 0.013202 -0.158653 0.127252 -0.157492 0.012432 -0.073499 0.000010 0.205038 0.112018 0.006641 -0.115905 0.036376 -0.098534 0.091225 -0.195890 -0.080300 -0.095501 -0.090645 -0.108187 0.227480 -0.184795 0.093709 -0.111797 0.100119 -0.073116 -0.055691 -0.052798 -0.024441 -0.061675 0.020281 -0.064783 0.027651 -0.157031 -0.082911 0.080998 0.130798 -0.066127 0.078454 0.031060 -0.021273
SCONJ 0.040510 0.042907 0.104649 -0.066137 -0.014100 -0.271310 -0.034003 -0.131291 -0.040231 -0.150299 -0.140891 0.065277 0.104475 0.097402 0.028613 0.045074 0.019773 0.047065 -0.161313 -0.102891 -0.056532 -0.074854 0.074299 -0.099814 -0.057642 -0.254582 0.035202 0.011746 0.115177 -0.055666 0.072794 0.111850 0.314068 0.097428 -0.057652 0.102921 -0.094808 0.059156 0.156403 -0.032930 -0.016171 -0.139299 -0.020916 0.004628 0.182685 0.084403 -0.054243 -0.035568 -0.040105 -0.104573 -0.038548 0.082575 -0.264101 0.092521 -0.054639 -0.002534 0.064240 0.046024 0.007482 -0.018810 0.060639 -0.058415 0.102628 -0.104354 0.013083 -0.081077 -0.030637 0.098928 0.072940 0.038111 -0.087658 0.025251 -0.017150 -0.029803 -0.025385 -0.131999 0.031624 0.080433 0.053799 -0.064049 0.076531 -0.043712 -0.032144 -0.070488 0.004162 -0.063634 0.164453 0.026089 0.050495 0.110739 -0.024748 -0.163695 -0.171711 0.087042 0.084069 -0.008925 0.245746 -0.168920 0.111182 -0.128970 0.016696 -0.078718 0.203986 -0.074901 0.124540 0.062720 0.122119 -0.012163 0.001033 0.047893 0.027346 -0.068213 0.024902 0.125429 -0.201973 -0.122180 0.026180 -0.196753 -0.087324 0.182473 -0.005271 -0.082909 0.012116 -0.170426 -0.044990 -0.078403 0.164832 -0.045936 -0.028971 -0.089915 0.046649 0.044768 0.043481 -0.167872 -0.061205 -0.008542 0.030175 -0.055471 0.110611 0.043965 0.102175 0.133378 0.012708 0.141228 0.076294 -0.070922 -0.044467 -0.047917 -0.075621 -0.010238 -0.048350 -0.046437 -0.009189 0.045267 -0.105450 -0.000938 -0.017751 0.101991 0.008805 -0.101434 -0.170843 -0.085078 0.077536 0.028887 -0.036169 0.092284 0.033820 0.017501 -0.100529 0.019168 -0.026709 -0.024847 -0.192783 0.046369 -0.168131 0.086330 -0.127583 -0.004753 -0.017771 -0.114385 -0.070381 -0.182067 -0.140794 -0.155447 -0.125305 -0.052707 -0.069389 -0.143818 -0.140016 0.160631 -0.044303 -0.091529 0.164400 0.094596 -0.121858 -0.092689 0.109202 0.089614 -0.007988 -0.062930 0.023589 -0.147090 -0.040661 -0.083923 0.170577 -0.088714 0.112183 0.022864 -0.028069 -0.152563 0.171865 0.060216 0.005375 0.229722 0.013111 0.012007 -0.074991 -0.133942 -0.002744 -0.149716 -0.172540 0.041359 0.076898 -0.064905 -0.009939 0.144117 -0.052525 0.060570 0.065123 0.121129 -0.027549 -0.088547 0.194467 -0.024220 -0.127074 -0.034193 0.074000 -0.175277 -0.076738 -0.108943 0.010146 -0.029094 -0.014336 0.136129 0.190743 0.057191 0.020087 0.128947 -0.102607 0.097910 -0.131179 -0.020951 0.018392 0.013734 0.079851 0.126778 -0.010796 0.039445 -0.073408 -0.125838 -0.203170 0.072538 0.104799 0.270038 -0.069308 0.020294 -0.030682 0.097660 0.019144 0.009414 -0.003590 -0.004817 0.038983 0.118699 0.088559 -0.063921 0.044899 -0.038078 0.091920 0.068086 -0.036305 0.019874 0.065484 0.044443 0.060885 -0.060445 0.070342 0.069615 -0.120898 0.109718 0.102143 0.050455 0.022700 -0.033448 0.074776 0.049962 0.059308 -0.128548 0.129786 -0.027977 -0.066545 -0.143408 0.088035 -0.031602 -0.043013 -0.032910 0.103764 0.107960 -0.126535 -0.186590 0.141153 -0.121719 0.023959 -0.077871 0.042531 0.012191 0.187544 0.009126 -0.078395 0.020551 -0.092745 0.033950 0.033885 -0.030709 0.116801 -0.020385 -0.076572 0.086122 -0.135989 -0.128716 -0.094308 -0.054873 -0.130796 0.036463 -0.068857 0.080861 -0.076253 -0.073541 0.054287 0.025205 -0.048620 0.060712 0.070804 0.011454 0.038143 0.157183 -0.126246 -0.003476 0.004656 -0.208692 -0.097003 0.151765 -0.162317 -0.080148 -0.104705 0.084080 0.164959 0.084896 -0.062826 -0.025327 -0.015648 -0.026714 -0.064737 -0.035415 -0.058510 -0.120633 -0.116359 0.031262 -0.107991 -0.058415 -0.205016 -0.059031 -0.057670 -0.112224 -0.072049 0.066152 -0.076091 -0.110716 0.028544 -0.019345 0.108960 0.070752 0.088191 -0.027126 0.081859 0.072739 -0.037490 -0.063405 0.149486 0.151602 0.058456 0.001137 -0.088139 0.057217 0.072805 0.006934 -0.015065 -0.101797 -0.069537 -0.014548 -0.064130 -0.095009 -0.004097 0.070759 0.052549 0.069192 -0.069429 -0.041359 0.012363 0.015862 0.112748 -0.027393 -0.087894 -0.046599 0.086172 -0.029006 -0.032717 -0.025109 0.018632 -0.047621 -0.019569 -0.071335 -0.032578 -0.203743 -0.212083 -0.085902 0.106163 0.026371 -0.075654 -0.018956 -0.117787 -0.180474 0.114248 -0.203656 0.021680 0.031420 0.151576 -0.019641 -0.015098 0.003203 0.011747 0.015087 0.031945 0.044807 0.136533 0.045150 -0.089044 -0.172442 -0.082977 0.014308 0.039181 -0.131107 0.100957 -0.043885 0.064894 -0.129082 0.043568 0.001480 0.117673 0.129992 -0.002821 0.019929 0.060716 -0.062847 0.078419 0.165114 -0.019253 0.040721 0.089969 0.208758 -0.076719 0.198753 -0.038717 -0.099988 0.113695 -0.214259 -0.010160 -0.136625 -0.049057 0.116329 0.137012 0.017315 -0.050425 -0.065829 -0.132075 -0.030379 -0.181638 -0.118024 0.071398 -0.146755 -0.090651 0.065617 -0.108128 0.160139 0.033902 -0.011339 0.025193 -0.030916 -0.067771 -0.037005 -0.005065 0.114447 -0.026758 0.018498 0.022501 0.002482 -0.044540 0.065904 -0.091673 0.099919 -0.071318 0.019747
